
\data\
ngram 1=34315
ngram 2=1268

\1-grams:
1 <unk>
1 <s>
1 </s>
1 <num>
915 АД
61 АЗ
41 АЛЕКСАНДРОВ
178 АС
56 АТАКА
88 Абаджиев
41 Абатство
59 Абеба
54 Аби
345 Абу
131 Абърдийн
1772 Август
185 Августин
57 Авеню
237 Авив
170 Аврам
268 Аврамов
54 Австралийската
60 Австралийския
5802 Австралия
436 Австрийска
343 Австрийската
177 Австрийски
4125 Австрия
60 Автентичен
72 Автомагистрала
93 Автономна
108 Агата
110 Агенция
158 Агенцията
51 Агнешка
102 Ад
184 Ада
674 Адам
163 Аделаида
75 Аден
62 Адис
114 Адмирал
75 Адмиралтейството
554 Адриан
93 Адриана
291 Адриатическо
495 Аз
803 Азербайджан
61 Азиатски
5437 Азия
114 Азовско
82 Азорски
73 Азорските
83 Азот
151 Ай
271 Айнщайн
608 Айрес
213 Айтос
407 Академик
62 Академичния
563 Академия
1029 Академията
292 Аквитания
282 Ако
126 Акра
118 Акри
84 Акропола
51 Акт
56 Акта
84 Актьорско
884 Ал
43 Аладин
2252 Албания
53 Албанската
180 Албена
95 Албум
73 Албумът
526 Алекс
453 Александра
51 Александрийската
146 Александрийски
692 Александрия
771 Александров
63 Александрова
8173 Александър
667 Алексей
179 Алекси
232 Алексиев
43 Алексов
290 Ален
64 Алея
74 Алеята
1144 Алжир
80 Алианс
105 Алианса
214 Аллах
102 Алма
71 Ало
258 Алпи
377 Алпите
206 Алтай
361 Алфа
724 Алфред
520 Аляска
82 Амадеус
294 Амазонка
76 Аман
6126 Америка
567 Американска
752 Американската
474 Американски
99 Американските
321 Американския
45 Американският
118 Американското
59 Ами
664 Амстердам
169 Амур
893 Ана
198 Анадола
47 Анали
309 Анастас
430 Анастасия
129 Анастасов
208 Анатолий
44 Анатомията
72 Ангара
1328 Ангел
48 Ангела
126 Ангелина
50 Ангелите
610 Ангелов
71 Ангелова
49 Ангеловски
98 Английска
262 Английската
86 Английски
61 Английския
6909 Англия
1000 Ангола
154 Андалусия
114 Андерсен
1820 Анджелис
445 Анди
268 Андонов
228 Андора
357 Андреев
1384 Андрей
41 Андрейчин
66 Андромеда
128 Анелия
333 Ани
73 Анита
334 Анкара
1990 Анна
54 Ансамбъла
90 Анталия
476 Антарктида
345 Антарктика
116 Антарктическия
480 Антверпен
323 Антигуа
42 Антилски
53 Антилските
75 Античност
271 Античността
210 Антоан
87 Антоанета
42 Антология
1228 Антон
107 Антони
885 Антоний
44 Антонина
770 Антонио
261 Антония
269 Антонов
44 Антонова
74 Апия
419 Апостол
113 Апостола
88 Апостоли
211 Апостолов
224 Април
552 Априлското
116 Ар
58 Ара
1199 Арабия
122 Арабската
114 Арабски
241 Арабския
66 Арабско
44 Арарат
72 Арбанаси
421 Арда
340 Арена
2355 Аржентина
47 Аржентинската
42 Ариадна
530 Аризона
434 Аристотел
172 Ария
105 Аркадия
42 Арката
255 Арктика
60 Армейски
1696 Армения
43 Арменска
93 Арменската
43 Арменски
47 Арменско
52 Арменското
186 Армия
198 Армията
349 Армстронг
192 Арнаудов
97 Арно
55 Арсен
806 Арсенал
44 Арсени
131 Арсов
110 Артемида
459 Артур
201 Аруба
366 Архангел
85 Архангели
70 Археологически
136 Археологическия
50 Археология
67 Архимед
1772 Асен
181 Асенов
45 Асенова
382 Асеновград
58 Асеновец
310 Асоциация
539 Асоциацията
210 Аспарух
75 Аспарухов
65 Аспарухово
89 Астана
43 Астра
116 Астурия
77 Асунсион
102 Ася
72 Ат
46 Ата
276 Атака
48 Атакама
1525 Атанас
881 Атанасов
103 Атанасова
241 Атила
2491 Атина
64 Атинската
298 Атинския
196 Атлантик
122 Атлантика
100 Атлантически
949 Атлантическия
270 Атлас
77 Атол
226 Атон
82 Аудио
1004 Афганистан
6658 Африка
87 Африканската
207 Африкански
147 Африканския
152 Афродита
45 Ах
98 Ахелой
209 Ахил
65 Ахтопол
55 Аязмото
338 Аякс
51 БА
88 БАТЕ
51 БАЧЕВ
46 БОРИСОВ
94 Ба
372 Баба
48 Бабата
54 Бабин
1673 Бавария
370 Баварска
86 Баварската
318 Баварски
360 Багдад
77 Багренородни
542 Баден
341 Базел
193 Базиликата
100 Бай
148 Байкал
118 Бакалов
292 Баку
65 Бакърджиев
57 Бал
165 Балабанов
242 Бали
481 Балкан
282 Балкана
89 Балкани
1400 Балканите
247 Балканска
4541 Балканската
270 Балкански
499 Балканските
859 Балканския
118 Балтийския
499 Балтийско
207 Балтимор
337 Балчик
259 Банат
761 Бангладеш
43 Бандата
58 Баните
192 Баница
152 Банка
65 Банката
46 Банков
96 Банкок
119 Банкя
88 Банска
43 Бански
534 Банско
354 Баня
296 Бар
45 Бара
286 Барбуда
51 Баренцово
504 Бари
111 Барка
56 Барока
57 Барон
1374 Барселона
288 Бас
54 Басра
67 Бастилията
260 Батак
262 Батиста
68 Батор
368 Бахамски
53 Бахамските
481 Бахрейн
81 Бачка
89 Бачо
42 Баш
114 Баща
61 Бащата
106 Бе
157 Без
42 Безземни
78 Безстрашни
528 Бей
152 Бейрут
452 Бел
563 Бела
1088 Беларус
79 Белгийската
3239 Белгия
2137 Белград
110 Белградската
258 Белградския
89 Белев
52 Белен
324 Белене
449 Бели
98 Белини
144 Белите
258 Белия
89 Белият
188 Белоградчик
172 Белфаст
101 Белчев
114 Бенгази
253 Бенгалия
45 Бенгалския
558 Бенин
48 Берат
95 Бергамо
214 Бери
224 Берковица
3032 Берлин
309 Берлинската
630 Берлинския
208 Бермудски
248 Берн
203 Бернар
58 Беров
198 Берта
500 Бесарабия
90 Беси
74 Бета
121 Бети
118 Бетовен
60 Бешков
714 Би
95 Бианка
147 Библиотека
143 Библиотеката
118 Библия
702 Библията
105 Бизнес
638 Бил
550 Билборд
371 Били
52 Биляна
134 Бинев
148 Бирма
304 Бирмингам
58 Бисер
324 Бисмарк
65 Бистра
53 Бит
107 Битие
183 Битка
678 Битката
1823 Битоля
59 Бишкек
54 Блага
204 Благовещение
230 Благоев
1167 Благоевград
129 Благой
216 Благочестиви
51 Блажени
61 Бланка
45 Блато
45 Близка
949 Близкия
50 Близък
194 Блок
56 Боа
525 Боб
105 Бобов
110 Бобови
1149 Бог
521 Бога
110 Богатия
50 Богатско
437 Богдан
41 Богдана
238 Богданов
116 Богомил
1707 Богородица
48 Богородичен
846 Богородично
184 Богослов
132 Богословския
141 Богота
96 Бодливи
215 Боев
54 Боже
82 Божествена
42 Божествената
203 Божи
227 Божидар
61 Божие
58 Божието
113 Божилов
49 Божин
147 Божинов
179 Божия
136 Божията
138 Божков
186 Божурище
71 Бой
377 Бойко
63 Бойчев
59 Бойчо
117 Бол
101 Болен
837 Боливия
57 Бомбай
428 Бон
85 Бона
515 Бонапарт
186 Бонев
41 Бонева
44 Бонин
141 Бончев
73 Бончо
115 Бор
56 Бора
89 Борба
72 Борда
265 Бордо
105 Борил
3163 Борис
274 Борислав
590 Борисов
84 Борисова
144 Борнео
142 Боровец
96 Борови
106 Борово
66 Боряна
2023 Босна
548 Бостън
178 Босфора
2401 Ботев
46 Ботева
195 Ботевград
59 Бохеми
41 Бочев
43 Бошнаков
421 Бояджиев
403 Боян
222 Бояна
54 Боянов
68 Браво
4683 Бразилия
100 Бразилската
99 Бразилския
46 Брак
42 Бран
140 Бранко
51 Брат
54 Братанова
261 Братислава
89 Братство
97 Братството
402 Братя
43 Братята
943 Браун
116 Брацигово
68 Брегово
81 Брезово
42 Брей
153 Брест
203 Бретан
134 Бретон
124 Бридж
108 Бризбейн
643 Британия
993 Британска
839 Британската
307 Британски
193 Британските
263 Британския
237 Британското
147 Брод
158 Броди
271 Бродуей
47 Брой
51 Бронзова
91 Бронзовата
496 Бруней
479 Брус
920 Брюксел
57 Бряг
463 Буда
791 Будапеща
56 Будизма
43 Будизъм
591 Буенос
62 Бузлуджа
95 Бук
84 Буково
1286 Букурещ
2944 Бургас
126 Бургаска
89 Бургаската
75 Бургаски
143 Бургаския
119 Бургаско
53 Бургаското
825 Бургундия
273 Бургундска
76 Бургундски
44 Бурен
333 Буркина
93 Буров
450 Бурунди
79 Буря
57 Бут
302 Бутан
88 Бъди
58 Бъдни
95 Българи
62 Българите
39645 България
70 Българка
83 Българоубиец
1646 Българска
5832 Българската
1062 Български
162 Българските
728 Българския
129 Българският
540 Българско
1189 Българското
51 Бърдо
42 Бързи
61 Бърни
106 Бъчваров
45 Бъчварова
63 Бюро
183 Бюрото
78 Бягство
88 Бял
762 Бяла
181 Бялата
306 Бяло
63 ВИТАНОВ
43 ВУЗ
55 ВЪЛОВ
431 Вавилон
96 Вавилония
72 Вагенщайн
307 Вагнер
67 Вадим
88 Ваза
907 Вазов
86 Вай
117 Вакарел
175 Вал
150 Валдемар
180 Вале
371 Валентин
121 Валентина
309 Валери
124 Валериан
120 Валерия
74 Валета
276 Вали
59 Валя
430 Ванкувър
784 Вануату
56 Ванчо
142 Ваня
152 Вар
109 Варда
802 Вардар
45 Вари
4448 Варна
141 Варненска
110 Варненската
87 Варненски
216 Варненския
145 Варненско
84 Варненското
50 Вартоломей
773 Варшава
66 Вас
7020 Васил
847 Василев
219 Василева
1324 Василий
86 Василка
132 Васко
41 Ватикан
352 Ватикана
1929 Вашингтон
355 Вегас
51 Везни
95 Везувий
111 Вела
161 Велев
849 Велес
47 Вели
50 Велизар
293 Велик
691 Велика
635 Великата
366 Великден
44 Великденски
3269 Велики
472 Великите
248 Великия
150 Великият
1589 Велико
6030 Великобритания
71 Великов
136 Великолепни
57 Великомъченик
353 Великото
141 Величество
52 Величка
55 Величко
187 Величков
169 Велко
121 Велков
290 Велчев
45 Вельо
79 Венелин
638 Венера
95 Венета
77 Венец
192 Венецианската
1284 Венеция
65 Венко
48 Венков
55 Венци
88 Венцислав
294 Вера
285 Верде
76 Верила
570 Вермахта
414 Верона
129 Вероника
75 Весела
342 Веселин
105 Веселина
68 Веселинов
42 Веслец
78 Вестник
192 Ветрен
42 Вечер
43 Вещица
225 Ви
77 Вида
108 Виденов
71 Видео
59 Видима
1305 Видин
41 Вие
2968 Виена
171 Виенската
54 Виенски
397 Виенския
43 Виенският
103 Виенското
2332 Виетнам
144 Виетнамската
41 Виж
44 Виза
69 Византийска
461 Византийската
68 Византийски
1735 Византия
61 Вик
78 Викинг
1377 Виктор
1445 Виктория
463 Вила
68 Вилает
220 Вили
139 Вилнюс
2732 Вилхелм
78 Вини
362 Винсент
43 Виола
162 Виолета
488 Вирджински
47 Висбаден
43 Виси
163 Висла
97 Висок
86 Висока
226 Високата
103 Височество
76 Виста
101 Висш
194 Висша
594 Висшата
106 Висше
368 Висшето
124 Висши
575 Висшия
315 Вит
71 Вито
458 Витоша
156 Вихрен
97 Вихър
42 Вишеград
69 Вкарани
141 Владивосток
2457 Владимир
59 Владимиров
81 Владимирович
801 Владислав
77 Владов
154 Властелинът
98 Влаха
238 Влахов
63 Влашка
535 Влашко
61 Вода
502 Воден
61 Воденичаров
155 Водни
55 Водно
145 Военен
197 Военна
439 Военната
356 Военния
149 Военно
45 Военновъздушната
91 Военновъздушните
99 Военноморската
43 Военноморски
128 Военноморските
83 Военноморския
863 Военното
91 Войвода
244 Войводина
264 Война
510 Войната
99 Войников
67 Войнов
45 Волво
458 Волга
88 Волен
75 Волта
129 Волтер
360 Волфганг
45 Волфрам
113 Восток
112 Врабча
47 Врабчови
66 Враждебна
102 Врана
457 Враня
41 Врата
1052 Враца
108 Врач
42 Временно
187 Временното
64 Времето
62 Връзки
62 Връх
70 Все
90 Вседържител
83 Всеки
130 Вселена
337 Вселената
207 Вселенската
95 Вселенски
80 Вси
158 Всички
123 Всичко
109 Всяка
1413 Втора
7055 Втората
474 Втори
395 Втория
85 Вторият
108 Второ
311 Второто
69 Вулкан
41 Вутов
173 Въведение
43 Въздушните
84 Възкресение
240 Възнесение
244 Възраждане
330 Възраждането
45 Възродителния
59 Вълев
203 Вълко
197 Вълков
42 Вълчан
80 Вълчанов
246 Вълчев
43 Вълчева
69 Вълчи
130 Вълчо
49 Външна
131 Въоръжените
198 Въпреки
49 Върбан
72 Върбанов
68 Върбишкия
150 Върховен
69 Върховната
1151 Върховния
216 Върховният
75 Върховното
67 Въстанието
42 Вътрешен
205 Вътрешна
711 Вътрешната
121 Въча
73 Вяра
110 Вячеслав
82 ГЕОРГИЕВ
564 ГЕРБ
106 ГНУ
675 Габон
286 Габриел
86 Габриела
1422 Габрово
59 Габровска
41 Габровската
93 Габровски
56 Габровския
86 Габровско
101 Гавраил
273 Гаврил
152 Гага
146 Гагарин
217 Газа
54 Гази
142 Гала
46 Галактиката
124 Галата
125 Гален
64 Галена
131 Галерия
41 Гали
191 Галилей
69 Галин
86 Галина
116 Галиполи
146 Галисия
55 Галската
180 Гама
424 Гамбия
861 Гана
143 Ганг
196 Ганди
194 Ганев
57 Ганева
202 Ганчев
83 Ганчо
53 Ганьо
171 Гара
46 Гарван
118 Гарванов
51 Гарда
49 Гардиън
390 Гари
163 Гарибалди
329 Гваделупа
1053 Гватемала
1031 Гвиана
46 Гвинейския
2985 Гвинея
45 Гена
109 Генадиев
297 Генерал
99 Генерален
85 Генералната
69 Генералните
528 Генералния
75 Генков
49 Гено
164 Генов
49 Генова
450 Генуа
104 Генчев
139 Генчо
155 Гео
54 География
8718 Георги
1809 Георгиев
259 Георгиева
149 Герасим
55 Герасимов
66 Герб
144 Гергана
48 Гергов
245 Гергьовден
162 Герджиков
42 Герлово
14000 Германия
285 Германска
540 Германската
95 Германски
207 Германския
43 Германският
52 Германското
165 Геров
333 Герой
360 Герхард
137 Гестапо
101 Гета
45 Гетов
46 Гешев
154 Ги
290 Гибралтар
171 Гибсън
61 Гигов
45 Гида
157 Гилбърт
104 Гилдията
67 Гимназия
42 Гимназията
201 Гинес
41 Гичев
154 Глава
170 Главен
128 Главна
136 Главната
261 Главния
52 Главният
93 Главно
188 Главното
96 Гладстон
292 Глазгоу
94 Глас
128 Гласът
69 Глобус
48 Гогов
100 Гогол
54 Годината
58 Годишните
295 Гол
41 Гола
94 Големи
47 Големинов
216 Големите
886 Големия
176 Големият
123 Голо
69 Голова
678 Голям
1529 Голяма
2487 Голямата
268 Голямо
292 Голямото
54 Гонг
265 Гора
160 Горан
156 Горанов
44 Гората
90 Горди
333 Горен
45 Гори
164 Горица
190 Горки
2485 Горна
76 Горната
448 Горни
1194 Горно
47 Горното
115 Горски
83 Горско
273 Господ
76 Господа
46 Господари
57 Господен
108 Господин
126 Господинов
79 Гоцев
86 Гочев
131 Гоя
351 Град
196 Градец
81 Градина
45 Градината
240 Градище
98 Градището
52 Градска
86 Градската
103 Градски
198 Градския
59 Градско
167 Градът
151 Гражданска
622 Гражданската
63 Грамада
235 Грамадата
99 Граматик
210 Гранада
351 Гранд
216 Гранде
44 Гранит
61 Граница
45 Граничар
289 Граф
73 Графа
353 Графство
61 Графството
408 Грей
309 Гренада
283 Гренадини
400 Гренландия
122 Гренобъл
41 Грета
525 Григор
106 Григорианския
986 Григорий
130 Григоров
140 Грим
117 Гринуич
76 Гриша
122 Гробаря
69 Грозданов
67 Грозев
278 Грозни
48 Грохот
429 Груев
63 Грузинската
1217 Грузия
478 Група
251 Групата
65 Грънчаров
93 Гръцка
637 Гръцката
63 Гръцки
43 Гръцкия
123 Гръцкото
52 Гуадалахара
530 Гуам
153 Гурко
67 Гущерови
72 Гълъбов
297 Гълъбови
112 Гълъбово
44 Гърло
47 Гърнати
11889 Гърция
279 Гьоте
191 Гьотинген
62 Гюзелев
42 Гюрова
71 ДАР
90 ДИМИТРОВ
69 ДОНЕВ
104 Даби
750 Давид
148 Давидов
57 Дай
67 Дака
146 Дакар
413 Дакота
102 Дал
108 Далай
266 Далас
55 Далечна
259 Далечния
228 Дали
151 Дам
45 Дама
373 Дамаск
55 Дамаскин
442 Дамян
240 Дамянов
158 Данаилов
103 Данев
783 Даниел
277 Даниела
1697 Дания
115 Данните
69 Данов
47 Дановски
180 Данте
62 Данчев
51 Данчо
130 Дар
45 Дара
197 Дарби
333 Дарвин
241 Даскалов
138 Датска
45 Датската
73 Датски
55 Дачев
156 Двадесет
48 Двама
53 Двамата
55 Дванадесетте
180 Две
95 Двете
157 Движение
169 Движението
71 Двина
54 Дворец
145 Двореца
44 Дворецът
137 Двукрили
592 Де
81 Дебели
314 Дева
99 Девета
62 Девети
351 Деветосептемврийския
136 Девин
151 Девня
775 Дейвис
202 Дейли
43 Дейна
88 Действащата
76 Действуващата
141 Декарт
146 Декември
82 Декларация
216 Декларацията
72 Дела
69 Делев
89 Дели
202 Делта
76 Делтата
93 Делфи
237 Делхи
1059 Делчев
61 Делчо
170 Делян
65 Деметра
61 Демократи
49 Демократичен
77 Демократическа
545 Демократическата
68 Демократически
136 Демократическия
1411 Демократична
71 Демократичната
75 Демокрация
349 Ден
110 Денвър
67 Денев
205 Дени
384 Денис
211 Деня
178 Денят
56 Департамент
111 Департамента
53 Дерби
41 Дервиш
46 Дере
50 Дери
54 Дерменджиев
51 Дертлиев
42 Десет
41 Десета
87 Десислава
71 Детето
345 Детройт
116 Детска
42 Детската
77 Детски
63 Деца
86 Децата
137 Дечев
59 Дечко
197 Деян
55 Деяния
118 Джаз
99 Джакарта
41 Джамбазов
61 Джаул
66 Джерман
46 Джеров
589 Джибути
96 Джин
120 Джина
152 Джована
5519 Джон
153 Джонстън
329 Джордан
2373 Джордж
871 Джорджия
894 Джоунс
57 Джуров
916 Джърси
48 Диамандиев
245 Диана
132 Диарбекир
48 Див
48 Дива
214 Дивизия
49 Дивия
48 Дизел
80 Дий
53 Диканя
97 Дикенс
69 Диков
52 Димитрина
2625 Димитров
394 Димитрова
306 Димитровград
95 Димитровден
138 Димитровска
8239 Димитър
350 Димо
366 Димов
50 Димова
55 Димчев
99 Димчо
845 Динамо
56 Династия
51 Династията
113 Динев
79 Динков
71 Директива
99 Директор
206 Дирекция
156 Дирекцията
60 Дичев
112 Дневник
49 Дневникът
64 Дневниците
219 Днепър
94 Днес
119 Днестър
205 Добра
72 Добре
288 Добрев
43 Добрева
543 Добри
77 Добрин
872 Добрич
73 Добричка
175 Добрия
46 Добрият
109 Добро
86 Добромир
1533 Добруджа
59 Добруджански
43 Добруджанския
91 Добруджанското
47 Дог
116 Договор
394 Договора
79 Договорът
53 Док
69 Докато
317 Доктор
70 Доктора
72 Дол
343 Долен
51 Долина
204 Долината
2107 Долна
84 Долната
514 Долни
1022 Долно
48 Долното
1316 Дом
146 Дома
91 Доминго
368 Доминика
365 Доминиканска
116 Доминиканската
50 Домино
87 Домът
944 Дон
80 Дона
134 Донев
45 Донева
96 Дони
62 Донка
100 Донски
318 Дончев
42 Дончева
231 Дончо
69 Допуснати
164 Дора
270 Доротея
376 Дортмунд
56 Досиетата
217 Доспат
177 Достоевски
66 Доусън
79 Доха
81 Дочев
60 Дочо
84 Драва
303 Драган
144 Драганов
150 Драгоман
104 Драгомир
44 Драгостинов
78 Дракон
41 Дракона
425 Драма
149 Драматичен
81 Драматичния
995 Древен
675 Древна
102 Древния
46 Древността
634 Дрезден
52 Дрина
50 Друг
68 Другите
196 Дружба
42 Дружествени
173 Дружество
571 Дружеството
118 Друмев
81 Дръзки
320 Дряново
41 Дряновска
54 Дряновския
390 Дука
43 Дуло
69 Дулово
131 Дума
2441 Дунав
342 Дунавска
468 Дунавската
90 Дунавски
44 Дунавските
86 Дунавския
53 Дунавци
714 Дупница
210 Дух
111 Духовната
44 Духът
44 Душанбе
324 Дъблин
51 Дъбово
56 Дългия
48 Дългопол
151 Дън
54 Дърволази
49 Дървото
43 Държава
100 Държавата
417 Държавен
731 Държавна
896 Държавната
903 Държавния
71 Държавният
179 Държавно
231 Държавното
83 Дюлгеров
95 Дюма
280 Дюселдорф
46 Дявола
222 Дядо
65 Дяков
65 Дякон
127 Дянков
69 ЕК
176 ЕКА
364 Ева
76 Евангелие
120 Евангелието
104 Евбея
229 Евгени
476 Евгений
173 Евгения
133 Еверест
90 Евклид
76 Евлоги
254 Евразия
47 Еврейската
54 Еврейския
661 Евро
859 Евровизия
12268 Европа
415 Европейска
1183 Европейската
489 Европейски
200 Европейските
2099 Европейския
153 Европейският
160 Европейско
512 Европейското
81 Евстатий
131 Евтим
78 Евтимов
1288 Егейска
100 Егейски
351 Егейско
4346 Египет
46 Египетската
432 Еди
206 Един
104 Единадесета
101 Единна
141 Единство
66 Едип
304 Едисън
55 Едмънтън
207 Една
87 Едно
2100 Едуард
41 Езеро
50 Езерото
249 Ей
43 Ейре
691 Екатерина
107 Екатеринбург
1224 Еквадор
79 Екватора
527 Екваториална
123 Екзарх
489 Екзархията
184 Експедиция
180 Експрес
782 Ел
78 Ела
165 Елада
232 Елба
47 Елбрус
52 Елвира
61 Елементи
73 Елен
2081 Елена
46 Еленови
48 Еленския
59 Еленско
409 Елеонора
246 Елзас
121 Ели
79 Елиза
2088 Елизабет
169 Елизабета
288 Елин
216 Елисавета
51 Елица
48 Елка
153 Елхово
357 Емануил
443 Еми
874 Емил
356 Емилия
43 Емилиян
42 Емилов
76 Емине
51 Емир
116 Енгелс
47 Енев
106 Енергия
123 Енигма
131 Енисей
118 Енциклопедия
106 Енчев
47 Енчо
90 Епизод
786 Епир
65 Епископ
128 Ереван
78 Ери
749 Ерик
719 Еритрея
122 Ерма
82 Ерос
117 Ерусалим
126 Ерфурт
135 Есен
42 Естествена
1026 Естония
41 Естонската
41 Естрадния
935 Етиопия
45 Етна
1598 Етнография
41 Ето
186 Етрополе
60 Ефенди
50 Ефир
155 Ефрат
43 Ефремов
82 Ефросина
45 Ехо
683 Жак
1621 Жан
450 Жана
509 Жанейро
49 Жанет
84 Жар
69 Жеко
158 Жеков
257 Желев
45 Желева
173 Железен
60 Железни
57 Железница
103 Железния
43 Железният
109 Желязков
41 Желязкова
78 Желязна
185 Желязната
54 Жена
85 Жената
714 Женева
46 Женевската
55 Женевския
51 Женевското
83 Жени
126 Женската
43 Женски
41 Жечев
56 Живка
167 Живко
459 Живков
107 Живкова
43 Живопис
102 Живот
163 Животът
367 Жорж
150 Жулиета
54 Журнал
47 Журналистика
42 Жълти
84 Жълто
166 Завет
203 Завод
50 Завода
131 Завоевателя
81 Завръщане
76 Завръщането
2533 Загора
567 Загреб
71 Загуби
72 Зад
130 Задграничното
120 Заимов
46 Заир
83 Зайчар
580 Закон
1082 Закона
148 Законът
112 Зала
256 Залата
117 Залива
108 Замбези
854 Замбия
41 Заместник
52 Замъкът
155 Занзибар
109 Занков
623 Запад
386 Запада
827 Западен
5745 Западна
586 Западната
103 Западни
674 Западните
591 Западния
102 Западно
183 Западното
98 Записки
177 Заповед
54 Запрянов
58 Зара
101 Заря
110 Заслужил
78 Зафиров
309 Захари
267 Захариев
41 Захова
103 Защита
105 Защо
224 Звезда
51 Звездата
41 Звезди
179 Звено
66 Здравей
83 Здравец
213 Здравко
64 Здравков
61 Здрач
469 Зевс
53 Зее
1334 Зеландия
85 Зелена
96 Зелената
70 Зелени
114 Зелените
41 Зеленият
43 Земеделска
44 Земеделски
48 Земеделско
100 Земен
565 Земя
2967 Земята
321 Зенит
213 Зигфрид
74 Зидан
592 Зимбабве
58 Зимна
89 Зимната
57 Зимни
127 Зимните
73 Зимния
50 Зина
56 Злата
76 Златан
66 Златанов
50 Златарев
133 Златарски
137 Златев
54 Златева
1110 Златен
52 Златина
43 Златка
81 Златко
97 Златков
538 Златна
544 Златната
197 Златни
63 Златните
223 Златния
228 Златният
107 Златно
94 Златното
116 Златоград
110 Златоуст
138 Знаме
387 Зограф
107 Зона
162 Зора
127 Зорница
158 Зоя
95 ИВАНОВ
135 Иберийския
93 Иберия
47 Ибиса
295 Ибрахим
86 Ива
468 Ивайло
121 Ивайловград
9337 Иван
91 Ивана
167 Иванка
2348 Иванов
538 Иванова
94 Иванчев
133 Иванчо
50 Иванчов
51 Ивелин
41 Ивета
72 Ивица
274 Иво
49 Игнат
79 Игнатов
423 Игор
123 Игра
105 Играта
70 Играч
45 Игри
158 Игрите
125 Ида
50 Иди
95 Из
46 Избрани
55 Известия
213 Извор
101 Изглед
164 Изгрев
200 Изгубени
69 Издателство
106 Изкуство
88 Изкуството
182 Измир
97 Изповедник
66 Изпълнителен
275 Изпълнителния
2480 Израел
52 Изследване
43 Изследвания
1275 Изток
265 Изтока
1062 Източен
4234 Източна
645 Източната
83 Източни
44 Източник
426 Източните
580 Източния
104 Източно
170 Източното
49 Изход
66 Икар
107 Икономика
75 Икономически
170 Икономическия
266 Икономов
155 Илиада
812 Илиев
149 Илиева
303 Илинден
106 Илич
1698 Илия
134 Илиян
87 Илчев
57 Илюстрация
62 Имам
94 Император
48 Императора
70 Императорската
66 Императорския
236 Империя
366 Империята
72 Имперската
56 Имперския
51 Импулс
634 Индиана
135 Индианаполис
53 Индийската
69 Индийски
660 Индийския
5370 Индия
114 Индокитай
2773 Индонезия
69 Индустриалната
69 Инквизицията
247 Инсбрук
480 Институт
1685 Института
83 Институтът
47 Интернационал
1313 Интернет
1431 Ирак
2149 Иран
53 Ирена
684 Ирина
103 Иркутск
2163 Ирландия
60 Ирландската
94 Ирландско
451 Исак
66 Искам
195 Искра
799 Искър
631 Исландия
68 Исляма
67 Ислямска
58 Ислямската
6883 Испания
189 Испанска
282 Испанската
133 Испански
112 Исперих
1126 Истанбул
50 Истина
42 Истината
45 Истински
124 Исторически
156 Историческия
754 История
159 Историята
839 Исус
86 Итака
97 Италианска
191 Италианската
83 Италианския
41 Италианското
15713 Италия
143 Ихтиман
86 Ихтиманска
981 Йемен
566 Йена
55 Йени
1128 Йерусалим
66 Йерусалимски
44 Йерусалимския
82 Йерусалимското
63 Йехова
3194 Йоан
86 Йоана
127 Йоанна
188 Йовков
94 Йовчев
84 Йога
230 Йон
53 Йона
64 Йонко
56 Йонков
58 Йончев
1304 Йордан
709 Йордания
166 Йорданка
419 Йорданов
114 Йорданова
5394 Йорк
50 Йоркшир
1331 Йосиф
186 Йосифов
91 Йотов
101 Йоханесбург
49 Йоцов
476 КЕШ
134 КИРОВ
146 КОСТАДИНОВ
70 КРЪГ
53 Кабакчиев
281 Кабо
144 Кабул
256 Кавала
54 Кавалера
239 Каварна
779 Кавказ
47 Кавказка
78 Кавказката
106 Кавказкия
41 Кади
45 Кажи
111 Казабланка
324 Казан
48 Казанджиев
686 Казанлък
78 Казанлъшката
65 Казанлъшко
55 Казахска
1237 Казахстан
51 Казино
88 Кай
79 Кайзер
254 Кайманови
460 Кайро
181 Как
157 Какво
58 Калайджиев
50 Калахари
182 Кале
52 Калев
930 Каледония
198 Калето
184 Кали
201 Калиакра
337 Калимантан
134 Калин
106 Калина
122 Калининград
59 Калифорнийски
390 Калифорнийския
3804 Калифорния
130 Калкута
120 Калмар
80 Калотина
169 Калофер
427 Калоян
60 Калоянов
111 Калчев
156 Калчо
83 Кама
108 Камара
532 Камарата
1125 Камбоджа
82 Камелия
252 Камен
334 Каменица
43 Каменна
50 Каменната
49 Каменов
1053 Камерун
107 Камила
785 Кампания
187 Камчатка
393 Камчия
76 Кана
4359 Канада
70 Канадската
189 Канадския
281 Канал
187 Канарски
121 Канарските
44 Канбера
444 Канзас
191 Кант
54 Кантарджиев
78 Кантон
47 Капели
56 Капело
92 Капитал
271 Капитан
50 Капитолий
54 Капия
61 Капри
556 Кара
153 Карагьозов
112 Караджов
63 Караджова
89 Караиванов
104 Каракас
44 Каракачанов
64 Карастоянов
97 Карачи
93 Карбон
99 Кардам
41 Карибската
42 Карибските
72 Карибския
200 Карибско
4900 Карл
647 Карло
458 Карлово
93 Карма
216 Карнобат
119 Карпати
159 Карпатите
916 Картинка
85 Касабов
344 Каспийско
59 Каспичан
412 Кастилия
56 Кастор
65 Кат
154 Каталония
43 Каталуня
438 Катар
153 Категория
90 Катедра
53 Катедралата
222 Катедрата
495 Катерина
43 Катманду
56 Католика
278 Католическата
45 Католическия
458 Катрин
139 Катя
46 Кафе
85 Кацаров
44 Кашгар
238 Кашмир
56 Кая
83 Квадрат
187 Кей
447 Кеймбридж
133 Кеймбриджкия
138 Кейптаун
55 Келвин
179 Кемал
657 Кенеди
1595 Кения
62 Кентавър
440 Кентъки
71 Кеч
93 Кеш
47 Ки
950 Киев
183 Кил
101 Килиманджаро
44 Кина
97 Кингстън
76 Кино
49 Киншаса
2479 Кипър
50 Кипърска
175 Кир
48 Кира
46 Киргизия
441 Киргизстан
511 Кирибати
2392 Кирил
119 Кирилов
110 Кирилова
150 Кирков
244 Киро
325 Киров
56 Киряков
86 Кисимов
52 Кисьов
47 Кит
5894 Китай
63 Китайска
275 Китайската
41 Китайски
90 Китанов
51 Китен
42 Кити
84 Китка
78 Кито
105 Китов
83 Кихот
279 Клара
92 Клас
110 Класик
131 Клей
343 Клеопатра
51 Клетка
1358 Климент
232 Клисура
575 Клуб
103 Клуба
48 Ключ
304 Книга
203 Книгата
63 Княгиня
56 Княжеско
929 Княжество
160 Княжеството
165 Княз
240 Коалиция
45 Коалицията
60 Кобра
49 Ковач
362 Ковачев
112 Ковънтри
280 Когато
73 Код
53 Кодекс
43 Кодекса
60 Коев
84 Кожух
65 Кожухаров
70 Кози
182 Козлодуй
69 Козница
66 Козяк
190 Кой
60 Койчев
48 Кока
316 Кокосови
85 Кокс
111 Кол
79 Кола
321 Коларов
595 Колев
98 Колева
44 Колегията
434 Коледа
136 Колеж
184 Колежа
78 Колелото
42 Колко
90 Коломбо
114 Колона
47 Колония
711 Колорадо
2782 Колумбия
251 Кольо
120 Ком
185 Комикс
179 Комисия
825 Комисията
230 Комитет
566 Комитета
50 Комитетът
488 Коморски
43 Компания
132 Компанията
87 Комплекс
55 Комунистическа
343 Комунистическата
71 Комунистическия
59 Кон
63 Конвента
52 Конвенция
186 Конвенцията
177 Конг
2037 Конго
55 Конгрегацията
115 Конгрес
603 Конгреса
85 Конгресът
58 Кондов
54 Коне
134 Консервативната
107 Консерваторията
46 Конска
51 Конско
3835 Константин
596 Константинов
42 Константинова
141 Конституционния
142 Конституция
664 Конституцията
66 Конте
57 Конти
45 Контрареформацията
53 Контрол
179 Конфедерацията
72 Конференция
87 Конференцията
73 Концерт
668 Копа
483 Копенхаген
415 Копривщица
64 Кораб
41 Коралови
46 Коран
219 Корана
210 Корейската
134 Корейския
2355 Корея
84 Кори
219 Коринт
94 Корк
184 Корнелия
62 Корона
60 Короната
61 Корпус
54 Корпуса
302 Корсика
51 Корт
148 Корфу
125 Кос
66 Косев
87 Космически
95 Космическия
219 Космос
130 Космоса
1978 Коста
374 Костадин
224 Костадинов
58 Костадинова
111 Костенец
58 Кости
708 Костов
127 Костова
678 Костур
737 Кот
132 Кота
141 Коте
321 Котел
109 Котки
41 Котленска
78 Кофи
110 Коцев
140 Кочан
250 Кочани
66 Кочев
169 Краище
153 Крайна
362 Краков
327 Крал
51 Кралев
144 Крали
162 Кралица
78 Кралицата
104 Кралска
413 Кралската
198 Кралски
134 Кралските
398 Кралския
52 Кралският
83 Кралско
269 Кралското
1576 Кралство
180 Кралството
180 Краля
89 Кралят
41 Крапчев
49 Красивия
335 Красимир
54 Красно
67 Красноярск
239 Крастави
56 Кратка
87 Краят
60 Креда
47 Кремена
179 Кремъл
133 Кресна
47 Крета
385 Крива
527 Крим
411 Кримската
71 Кримския
63 Кримското
69 Кристал
413 Кристина
155 Кристиян
390 Кристофър
659 Крит
62 Критика
109 Кромуел
129 Крос
198 Круз
57 Крузейро
650 Крум
86 Крумов
80 Крумовград
79 Крумово
110 Круша
75 Кръг
69 Кръглата
98 Кръст
91 Кръста
363 Кръстев
85 Кръстева
45 Кръстевич
61 Кръстникът
44 Кръстоносните
881 Кръстьо
71 Куала
1322 Куба
42 Кубинската
186 Кубрат
483 Кувейт
184 Кузман
67 Кузманов
76 Куклен
187 Кула
203 Кулата
170 Култура
47 Културата
46 Културен
44 Културната
69 Кунева
825 Купа
3012 Купата
84 Купи
52 Курилски
123 Курск
44 Курсор
96 Куртев
111 Кутев
83 Къде
101 Кънев
245 Кънчев
43 Къпиново
669 Кърджали
128 Кърпачев
194 Кърт
98 Късна
68 Късната
48 Късното
59 Къща
117 Къщата
963 Кьолн
43 Кьосев
60 Кьосето
114 Кюри
2179 Кюстендил
1592 Ла
43 Лаборатория
77 Лабораторията
179 Лабрадор
48 Лавра
76 Лавров
41 Лагер
127 Лагос
43 Лагуна
931 Лазар
385 Лазаров
54 Лазов
42 Лай
751 Лайпциг
63 Лала
148 Лама
1092 Ланка
663 Лаос
44 Лапландия
442 Лас
839 Латвия
529 Латинска
175 Латинската
42 Латинския
170 Лвов
197 Ле
46 Лебед
362 Лев
41 Лева
170 Леви
53 Левиев
3765 Левски
60 Легенда
67 Легион
42 Легиона
49 Легия
169 Лед
64 Лейбъристката
87 Лека
55 Лекарски
54 Леко
151 Лена
55 Лени
461 Ленин
505 Ленинград
60 Ленинска
439 Леонардо
731 Леоне
313 Леонид
45 Лес
95 Лесбос
171 Лесото
126 Летище
105 Летни
367 Летните
68 Лефтеров
41 Лечев
402 Ли
47 Либерална
286 Либералната
561 Либерия
1136 Либия
74 Ливада
831 Ливан
913 Ливърпул
1344 Лига
450 Лигата
242 Лидия
419 Лиеж
177 Лиза
53 Лика
376 Лили
54 Лилиев
56 Лилия
45 Лилов
133 Лиляна
200 Лима
85 Лимпопо
354 Лин
83 Лина
156 Линей
93 Линия
124 Линукс
97 Линч
505 Лион
41 Липа
72 Липи
162 Лиса
527 Лисабон
152 Лист
906 Литва
49 Литература
239 Литературен
114 Лития
292 Лихтенщайн
50 Лиценза
107 Лоара
1732 Ловеч
51 Ловци
61 Лозанов
155 Лозанския
109 Лозенец
45 Лозница
1781 Локомотив
838 Лом
677 Ломбардия
413 Лонг
4865 Лондон
164 Лондонската
254 Лондонския
168 Лондонското
188 Лора
280 Лорд
1995 Лос
69 Лот
719 Лотарингия
56 Луанда
220 Луда
382 Луизиана
1434 Луис
777 Лука
160 Луканов
108 Луков
70 Луково
65 Лумпур
270 Луна
1180 Луната
378 Лусия
859 Лъв
67 Лъвското
96 Лъки
57 Лъчезар
65 Люба
504 Любен
65 Любенов
130 Любимец
220 Любляна
162 Любов
102 Любовта
920 Любомир
53 Любослав
64 Любчо
125 Людмил
218 Людмила
153 Люк
1038 Люксембург
75 Люксембургска
243 Люксембургски
210 Люлин
62 Люцерн
63 Лятно
149 МИР
112 МЛАДЕНОВ
153 Ма
87 Маастрихт
476 Мавритания
731 Мавриций
45 Мавър
60 Магда
452 Магдалена
139 Магелан
77 Магистрала
46 Магистър
54 Магнезия
1535 Мадагаскар
103 Мадан
251 Мадейра
168 Маджаров
606 Мадона
58 Мадоната
2016 Мадрид
45 Мазда
287 Май
144 Майка
75 Майката
174 Майкрософт
381 Майн
48 Майор
220 Майорка
382 Майсен
50 Майския
76 Майстор
96 Майстора
207 Мак
57 Маказа
158 Макао
43 Макар
19581 Македония
327 Македонска
805 Македонската
955 Македонски
43 Македонските
680 Македонския
52 Македонският
101 Македонско
161 Македонското
105 Макиавели
60 Макинтош
46 Маккинли
1045 Максим
164 Максуел
760 Малави
111 Малага
2384 Малайзия
75 Малайския
68 Малака
503 Малдиви
550 Мали
127 Малина
159 Малинов
340 Малка
164 Малката
721 Малки
89 Малките
122 Малкия
119 Малкият
410 Малко
83 Малкото
146 Малмьо
704 Малта
42 Малтийски
64 Малтийския
447 Малък
52 Мальовица
44 Мама
115 Манасиев
142 Манастир
48 Манастира
43 Мандра
56 Манев
100 Мани
95 Манила
53 Манифест
87 Мания
80 Манов
150 Манол
122 Манолов
92 Манчев
1309 Манчестър
94 Манш
42 Манша
68 Маратон
66 Маргарит
571 Маргарита
716 Мари
93 Мариан
173 Мариана
46 Марийка
549 Марин
475 Марина
338 Марино
461 Маринов
114 Маринова
417 Марио
66 Мариус
1147 Марица
45 Маричков
5617 Мария
170 Марка
46 Маркиз
1073 Марко
643 Марков
97 Маркова
114 Марковски
551 Маркс
86 Марли
1060 Мароко
1014 Марс
476 Марсилия
213 Март
267 Марта
2051 Мартин
158 Мартина
103 Мартини
277 Мартиника
55 Мартинов
92 Марш
308 Маршал
570 Маршалови
184 Маса
113 Масачузетския
49 Маси
365 Мат
65 Мата
63 Матеев
316 Матей
43 Математика
42 Математическа
465 Матилда
232 Матов
75 Махала
43 Махатма
48 Мач
69 Мачове
56 Машина
243 Мая
419 Маями
96 Ме
48 Меглена
51 Медал
60 Меден
223 Медина
52 Медицина
86 Медицинска
43 Медицинската
171 Медицински
249 Медицинския
102 Медия
64 Медуза
96 Междузвездни
81 Междуконтиненталната
382 Международен
253 Международна
1414 Международната
316 Международни
45 Международните
1093 Международния
152 Международният
178 Международно
150 Международното
238 Мездра
255 Мека
56 Мексиканската
121 Мексиканския
4502 Мексико
120 Мел
109 Мелани
342 Мелбърн
58 Мелиса
348 Мелник
42 Мело
74 Мелодия
102 Мемоара
187 Мемфис
110 Мен
54 Менделеев
41 Мениджмънт
44 Мениджър
885 Мери
44 Мерида
46 Мерил
247 Меркурий
156 Мерцедес
45 Меса
49 Месения
77 Меси
477 Месопотамия
420 Места
104 Местния
56 Мета
197 Металика
109 Металург
44 Метаморфози
45 Метев
305 Методи
92 Методиев
74 Метро
74 Мечка
48 Мечката
69 Мечо
71 Ми
1316 Мианмар
101 Мидуей
729 Мизия
65 Микелон
77 Миков
722 Микронезия
130 Мил
71 Мила
118 Миладинов
1106 Милан
1485 Милано
104 Миланов
362 Милев
188 Милен
156 Милена
56 Мили
69 Милка
85 Милко
65 Милков
46 Мило
78 Милчо
49 Миля
124 Мими
198 Мина
87 Минев
43 Минерални
97 Мини
170 Министерски
572 Министерския
42 Министерският
701 Министерство
2095 Министерството
74 Министър
76 Министъра
71 Минко
200 Минков
237 Минск
199 Минчев
142 Минчо
299 Миньор
448 Мир
128 Мира
42 Мираж
61 Мирко
117 Миро
46 Мирово
78 Мирон
194 Мирослав
149 Мирчев
425 Мис
592 Мисисипи
69 Мисията
69 Мистерията
59 Мистик
122 Мистър
547 Мисури
73 Мисъл
145 Митев
179 Митко
67 Митков
66 Митническия
81 Мито
129 Митов
116 Митрев
95 Митрополит
151 Митрополия
451 Михаел
53 Михаела
4360 Михаил
1057 Михайлов
140 Михайлова
103 Михайловски
52 Михалев
45 Михалков
102 Михо
134 Михов
43 Мицов
560 Мичиган
2528 Мишев
86 Мишо
104 Млад
255 Млада
45 Младата
43 Младежка
51 Младежката
105 Младежки
134 Младежкия
168 Младен
42 Младенеца
423 Младенов
41 Младенова
444 Млади
47 Младия
160 Младост
142 Младша
370 Младши
114 Млечния
59 Могадишу
87 Могила
88 Модел
47 Моето
1384 Мозамбик
69 Моисей
47 Моите
53 Мокрени
88 Мол
56 Молдавия
1322 Молдова
83 Молеров
57 Моли
87 Моллов
49 Момин
106 Момина
42 Момиче
63 Момичето
42 Момчето
198 Момчил
88 Момчилград
84 Момчилов
920 Монако
686 Монголия
124 Монголската
64 Монетния
269 Моника
418 Монреал
262 Монсерат
1047 Монтана
483 Монте
193 Монтевидео
164 Монтерей
58 Монтрьо
144 Мор
371 Морава
376 Моравия
43 Моравска
101 Моравската
43 Моравското
121 Море
90 Морено
47 Морето
82 Морз
58 Мори
210 Мориц
61 Морска
167 Морската
237 Морски
86 Морския
99 Морското
5333 Москва
100 Москов
187 Московска
203 Московската
115 Московски
679 Московския
191 Московското
97 Мост
73 Мостар
73 Мотор
310 Моцарт
62 Моя
83 Моят
116 Моята
59 Мрамор
195 Мраморно
76 Мрежата
42 Мръсната
229 Музей
298 Музея
102 Музеят
126 Музика
41 Музикален
83 Музикална
159 Музикалната
48 Музикалния
48 Музикалното
45 Мура
70 Мургаш
66 Мустанг
59 Мутафов
87 Мутафчиев
46 Мутафчиева
165 Мъглен
71 Мъдри
56 Мъжът
55 Мъртво
238 Мърфи
2224 Мюнхен
117 НОВ
169 НОВА
76 Нагасаки
153 Нагорни
41 Нагоя
209 Награда
201 Наградата
64 Награди
465 Надежда
239 Наду
167 Надя
62 Назарет
55 Най
262 Найден
249 Найденов
69 Найроби
63 Наказателния
62 Наков
780 Намибия
119 Намира
62 Нани
71 Нансен
1357 Наполеон
41 Напред
112 Напредък
56 Нара
52 Наредба
496 Народен
1191 Народна
629 Народната
76 Народни
883 Народния
49 Народният
1313 Народно
1074 Народното
79 Народоосвободителна
268 Насау
83 Населението
202 Наталия
89 Натанаил
67 Наташа
90 Натура
156 Наука
487 Наум
214 Наумов
496 Науру
42 Научни
74 Научния
42 Научноизследователския
828 Национален
655 Национална
2545 Националната
58 Национални
71 Националните
1727 Националния
235 Националният
238 Национално
339 Националното
52 Националсоциалистическата
411 Нацистка
44 Началник
80 Начев
90 Наш
54 Наша
49 Нашата
44 Нджамена
664 Не
1082 Неапол
79 Неаполитанското
68 Нева
386 Невада
96 Невена
87 Невестино
295 Невис
261 Негово
84 Неда
113 Недев
84 Неделчев
91 Неделчо
452 Неделя
46 Недко
101 Недков
90 Недялко
107 Недялков
100 Независима
67 Независимата
42 Независимо
61 Независимост
73 Ней
85 Нейков
66 Нейно
77 Нека
159 Нели
48 Немска
127 Немската
151 Немски
65 Немския
42 Нено
177 Ненов
61 Ненчо
660 Непал
229 Нептун
139 Нерва
64 Несторов
47 Нестроевата
53 Нещо
51 Ни
71 Ниагара
531 Нигер
1080 Нигерия
127 Ние
340 Нийл
1033 Никарагуа
534 Никифор
83 Никифоров
47 Ников
324 Никозия
41 Никой
5061 Никола
256 Николаев
259 Николаевич
3706 Николай
53 Николина
1484 Николов
201 Николова
306 Никопол
664 Нил
193 Нина
55 Нино
84 Нирвана
358 Ниуе
252 Ница
214 Ницше
49 Ничев
530 Ниш
44 Нишката
42 Нищо
82 Нобел
48 Нобелов
888 Нобелова
215 Нобеловата
45 Нобелови
797 Нов
6057 Нова
169 Новак
225 Новата
1082 Нови
66 Новини
133 Новите
545 Новия
126 Новият
872 Ново
73 Новосибирск
200 Новото
200 Ноември
100 Ной
44 Номер
114 Нора
1844 Норвегия
56 Норвежко
59 Норма
473 Нормандия
80 Нормандски
291 Норфолк
63 Нос
47 Носител
244 Нотингам
50 Нощ
104 Нощта
46 Ньой
7248 Ню
80 Нюйоркската
133 Нюйоркския
280 Нюкасъл
453 Нюрнберг
274 Нютон
85 Някои
46 Някой
202 Няма
149 ОК
215 ОС
145 Обединена
105 Обединената
358 Обединени
60 Обединение
84 Обединението
312 Обединените
68 Обединения
132 Обединено
1086 Обединеното
52 Обект
47 Обзор
49 Обидим
295 Обикновено
138 Обиколката
69 Обичам
1503 Област
136 Областния
62 Областното
118 Оборище
41 Образцов
144 Обретенов
45 Обрешков
58 Обсадата
84 Общ
84 Обща
100 Общата
142 Общество
403 Обществото
64 Общи
1908 Община
110 Общината
171 Общински
180 Общинския
72 Общия
41 Общност
240 Общността
147 Общо
434 Общото
41 Овча
156 Овчаров
73 Овче
98 Огнена
82 Огнян
77 Огнянов
203 Огоста
71 Огън
145 Ода
103 Одер
701 Одеса
169 Одисей
92 Одисея
41 Одра
1114 Одрин
265 Одринска
162 Одринската
73 Одрински
315 Одринския
270 Одринско
48 Ока
85 Океан
175 Океания
62 Окинава
106 Околийския
169 Окръг
87 Окръжен
78 Окръжна
52 Окръжната
383 Окръжния
437 Оксфорд
214 Оксфордския
227 Октомври
47 Октомврийска
293 Октомврийската
278 Олга
62 Оле
300 Олег
93 Оливия
226 Олимп
112 Олимпиада
309 Олимпиадата
251 Олимпийски
425 Олимпийските
148 Олимпийския
696 Оман
194 Омар
57 Омега
220 Омир
57 Омск
256 Омуртаг
44 Онлайн
480 Онтарио
45 Опака
204 Опел
108 Опера
57 Операта
41 Оперативна
321 Операция
54 Описание
52 Опълченска
42 Оран
102 Оранжевата
76 Орган
169 Организация
731 Организацията
567 Орден
598 Ордена
67 Орденът
136 Орел
46 Орехово
59 Ориент
82 Ориента
90 Оризари
140 Орион
133 Ориса
58 Оркестър
221 Орлеан
44 Орлеанска
156 Орлеански
146 Орлин
116 Орлов
44 Орловец
53 Орлово
327 Орфей
85 Орхан
41 Орхидеи
180 Осака
105 Освен
129 Освободител
153 Освободителната
57 Освобождение
1554 Освобождението
42 Осем
1839 Оскар
498 Осло
88 Осма
218 Османска
8742 Османската
62 Османския
94 Османското
58 Осми
67 Осмия
55 Основан
56 Основи
41 Основната
45 Основни
87 Основно
178 Осогово
291 Оста
93 Острието
792 Остров
115 Острова
415 Острови
84 Островът
256 Осъм
143 Отава
71 Отбор
49 Отборът
65 Отворено
59 Отвъд
66 Отдел
69 Отдела
228 Отец
79 Отечествен
88 Отечествена
96 Отечествената
258 Отечествения
96 Отечество
60 Отечеството
86 Открито
530 Откритото
61 Откровение
59 Отоманската
60 Отпор
116 Оукланд
53 Официален
100 Охрана
1284 Охрид
281 Охридска
350 Охридската
1717 Охридски
43 Охридския
155 Охридско
211 Охридското
106 Очерк
42 ПАСЕ
98 ПЕН
145 ПЕНЕВ
94 Па
2523 Павел
93 Павлин
95 Павлина
574 Павлов
89 Павлова
224 Падуа
100 Пазар
1095 Пазарджик
110 Пак
1269 Пакистан
71 Пакта
46 Палат
62 Пале
942 Палестина
65 Палестинската
42 Пали
109 Палма
78 Палмови
128 Паметник
56 Паметника
54 Паметникът
114 Памир
71 Пампорово
185 Пан
308 Панагюрище
426 Панайот
139 Панайотов
1207 Панама
102 Панамския
54 Пандора
221 Паница
58 Пано
148 Панов
80 Панорама
51 Пантелей
58 Пантеона
63 Пантера
54 Пантократор
83 Панчев
279 Панчо
166 Папа
219 Папагали
72 Папазов
74 Папата
119 Папската
49 Папския
1366 Папуа
151 Пара
708 Парагвай
284 Параскева
246 Пари
5863 Париж
298 Парижката
47 Парижки
288 Парижкия
97 Парижкото
832 Парк
66 Парка
81 Парламент
331 Парламента
102 Парламентарната
55 Парламентът
476 Парма
49 Партизанска
264 Партизански
376 Партия
309 Партията
119 Пас
54 Пасадена
56 Паси
216 Паскал
53 Паскалев
56 Пасков
50 Пасха
102 Пат
126 Патагония
129 Пати
113 Патриарх
222 Патриаршията
390 Паул
90 Паула
55 Паулина
567 Пауло
80 Паулу
44 Паунов
275 Паша
115 Паяк
64 Пегас
56 Педагогическия
81 Педагогическото
207 Пеев
91 Пеева
41 Пей
49 Пейков
210 Пейо
61 Пейчев
55 Пек
635 Пекин
266 Пелин
355 Пелопонес
216 Пен
117 Пенджаб
377 Пенев
60 Пени
90 Пенка
49 Пенков
713 Пенсилвания
68 Пентагона
118 Пенчев
223 Пенчо
48 Пеньо
41 Пеня
43 Пепеляшка
106 Пер
57 Пера
116 Пере
41 Перелик
279 Пери
70 Перикъл
63 Пермски
876 Перник
114 Перо
88 Перон
117 Персийската
290 Персийския
667 Персия
1585 Перу
181 Перуджа
215 Песен
175 Песента
109 Песни
211 Пет
149 Пета
56 Петата
48 Петдесет
1788 Петербург
101 Пети
68 Петия
1232 Петко
1131 Петков
119 Петкова
183 Петра
579 Петрич
1936 Петров
397 Петрова
44 Петрол
68 Петте
5108 Петър
153 Петя
82 Пехотен
52 Пехотна
90 Печ
54 Печката
46 Печора
107 Пешев
225 Пещера
144 Пи
43 Пиаца
240 Пиаченца
245 Пиемонт
291 Пиза
495 Пий
73 Пик
57 Пикадили
357 Пикет
127 Пилзен
45 Пинакотека
142 Пинд
78 Пионер
172 Пир
123 Пирдоп
155 Пиренейския
132 Пирея
1204 Пирин
252 Пиринска
50 Пирински
55 Пиринския
90 Пиринско
54 Пирони
63 Пиронков
79 Писма
61 Писмо
204 Пит
58 Питагор
46 Пити
212 Питкерн
52 Пладне
457 Пламен
72 Пламък
79 План
131 Плана
248 Планета
95 Планина
52 Планината
117 Плат
175 Плата
43 Платини
391 Платон
1722 Плевен
44 Плевня
118 Плешиви
45 Плимът
259 Плиска
5788 Пловдив
182 Пловдивска
244 Пловдивската
173 Пловдивски
345 Пловдивския
202 Пловдивско
73 Пловдивското
100 Плодоядни
59 Площта
162 Плутон
1189 По
163 Победа
74 Победи
155 Победоносец
41 Повечето
105 Поглед
211 Под
94 Подгорица
51 Подкрепа
52 Поезия
1827 Пол
81 Пола
58 Поле
141 Полет
62 Поли
558 Полинезия
394 Политбюро
56 Политехническия
48 Политика
53 Политическа
71 Политически
85 Полк
58 Полковник
125 Полог
72 Полска
251 Полската
226 Полски
95 Полското
86 Полтава
49 Полуостровната
4855 Полша
51 Поляна
235 Поморие
55 Понтийски
185 Поп
60 Попгеоргиев
41 Попея
50 Попиванов
1433 Попов
262 Попова
128 Поповски
178 Попхристов
199 Попчета
72 Поради
71 Поречие
57 Поречието
53 Порови
94 Порой
482 Порт
106 Порта
96 Портата
455 Порто
117 Портрет
2404 Португалия
84 Португалска
78 Португалската
45 Португалски
186 Посейдон
46 Последна
74 Последната
165 Последният
65 Посолството
56 Пост
42 Постановка
84 Постановление
49 Постоянната
51 Постоянния
74 Постоянното
62 Пот
44 Потомак
119 Потсдам
198 Почетен
102 Почетния
68 Правда
256 Правец
46 Правила
49 Правилата
102 Правителството
252 Право
143 Православната
1384 Прага
66 Празник
42 Превала
50 Пред
125 Предбалкан
148 Преди
68 Предна
59 Предния
234 Председател
66 Председателството
187 Предтеча
2347 През
127 Президент
187 Президента
49 Президентът
325 Президиума
53 Прекопана
110 Премиер
54 Пренс
162 Преображение
264 Пресвета
395 Преслав
64 Преслава
54 Преславска
58 Преславската
159 Преславски
287 Преспа
64 Претория
678 При
61 Приказка
63 Приказки
154 Приключенията
53 Прикриващия
910 Прилеп
61 Приложение
41 Прим
74 Прима
607 Примера
112 Приморски
48 Приморския
130 Приморско
196 Принсипи
165 Принстън
387 Принц
77 Принцеса
44 Принцип
56 Принцът
44 Природа
67 Природен
46 Пристанище
116 Приятели
45 Проба
105 Пробуда
185 Провадия
1119 Провинции
132 Програма
145 Програмата
126 Прогрес
50 Продан
62 Проданов
112 Проект
69 Произход
78 Пролет
89 Прометей
77 Пророк
47 Пророка
164 Просвета
90 Просвещение
178 Просвещението
109 Просечен
402 Прост
85 Протокол
70 Протон
106 Професионална
62 Професионалната
77 Професор
1195 Прусия
50 Пруска
47 Пруската
50 Пруст
46 Психология
63 Псков
92 Птици
42 Птиците
547 Пуерто
67 Пул
60 Пула
55 Пустинна
379 Путин
85 Пух
113 Пхенян
52 Пън
2100 Първа
295 Първанов
5930 Първата
67 Първенство
67 Първенството
674 Първи
129 Първите
228 Първична
407 Първия
187 Първият
172 Първо
145 Първомай
51 Първоначално
426 Първото
217 Пърл
137 Пърт
55 Пътешествие
76 Пътуване
95 Пътя
176 Пътят
66 РИТА
53 Работническа
75 Работническата
63 Работнически
94 Работническия
61 Работническо
323 Равена
67 Равенства
80 Равна
429 Радев
64 Ради
801 Радио
73 Радка
93 Радко
56 Радков
125 Раднево
50 Радоев
362 Радомир
239 Радослав
198 Радославов
57 Радулов
52 Раев
204 Разбиване
137 Развитие
53 Разкази
232 Разлог
49 Разпятие
97 Рай
186 Райко
120 Райков
212 Райна
112 Райнов
58 Район
58 Района
43 Райски
163 Райхстага
142 Райчев
55 Райчо
43 Ракита
78 Ракитово
41 Раково
446 Рали
46 Ралица
132 Рама
79 Рангел
68 Рангелов
46 Рангелова
101 Ранна
331 Рафаел
86 Рачев
57 Рачева
152 Рачо
64 Рашев
72 Рашко
79 Рашков
86 Рая
1207 Реал
97 Ребека
43 Реваншът
79 Революция
178 Революцията
60 Ревю
271 Регенсбург
98 Регионален
91 Регионална
43 Регионалната
98 Регионалния
563 Ред
47 Реда
41 Редфорд
43 Режима
374 Резолюция
619 Рей
96 Рейкявик
206 Реймънд
835 Рейн
54 Рейнската
45 Рейнския
120 Река
44 Реката
42 Реквием
115 Рембранд
51 Реми
78 Ремо
167 Ренесанс
296 Ренесанса
87 Рени
9252 Република
111 Републиканска
586 Републиканската
1381 Републикански
61 Републиканския
43 Републиканското
274 Републиката
50 Реставрацията
162 Реформацията
53 Речник
194 Решение
71 Рея
410 Ривър
397 Рига
82 Рид
151 Ризов
1143 Рика
277 Рикардо
524 Рико
758 Рила
75 Рилска
63 Рилската
812 Рилски
418 Рилския
7274 Рим
2173 Римска
3873 Римската
171 Римски
161 Римския
48 Ринг
1209 Рио
141 Рита
115 Рицарски
44 Рицарския
1538 Ричард
201 Роб
552 Роберт
135 Роби
138 Робинсън
52 Робско
243 Род
67 Рода
543 Роден
68 Родена
142 Родина
107 Родината
46 Родна
78 Родни
956 Родопи
835 Родопите
106 Родопски
59 Родопския
309 Родос
690 Рождество
101 Рожен
250 Роза
86 Розов
53 Розова
42 Розовата
263 Рой
370 Рок
414 Рома
687 Роман
115 Романов
111 Романтизма
435 Ромео
98 Рона
278 Рони
96 Ропотамо
80 Роса
69 Росарио
282 Росен
110 Роси
342 Росица
113 Ростислав
231 Ростов
159 Росток
168 Ротердам
53 Рошел
173 Роял
427 Руанда
182 Рубенс
209 Рубин
77 Руди
69 Рудник
142 Руен
46 Руж
447 Рузвелт
625 Румелия
332 Румен
42 Руменов
3956 Румъния
149 Румънската
46 Румънския
110 Румяна
82 Рур
314 Рус
2470 Русе
344 Русев
43 Русева
126 Руси
44 Русинова
12187 Русия
433 Руска
2119 Руската
231 Руски
179 Руския
78 Руско
223 Руското
104 Руслан
242 Русо
51 Рутил
90 Ръдърфорд
48 Ръководство
300 Ръсел
44 Рязан
150 СИВ
47 СКА
79 СКАТ
51 СТАРТ
75 СТО
174 СТОИЧКОВ
50 СТОЯНОВ
250 Сабин
121 Сабина
750 Сава
48 Савана
219 Савов
332 Савоя
205 Сад
188 Сакар
1233 Саксония
267 Саксонска
42 Саксонската
54 Саксонски
73 Сал
65 Саламанка
68 Саламин
887 Салвадор
64 Сало
42 Салон
65 Салона
54 Салта
71 Салют
462 Сам
101 Самара
98 Самарджиев
80 Самарканд
93 Сами
188 Само
1152 Самоа
716 Самоков
598 Самуил
3776 Сан
69 Сана
799 Сандански
1606 Санкт
1423 Санта
204 Санто
499 Сантяго
888 Сао
73 Сапарева
226 Сарагоса
355 Сараево
82 Сарай
949 Сарафов
55 Сарая
862 Сардиния
52 Сардинското
41 Саркисян
96 Сатаната
121 Сателит
87 Сатиричния
720 Сатурн
970 Саудитска
62 Саутхамптън
129 Сахалин
631 Сахара
131 Саша
120 Сашо
54 Сбогом
106 Сборната
64 Сборник
252 Свазиленд
61 Свалбард
61 Сватбата
3534 Света
226 Светата
8784 Свети
72 Светии
316 Светите
743 Светия
88 Светият
140 Светкавица
86 Светла
195 Светлана
46 Светлин
180 Светлина
228 Свето
353 Световен
352 Световна
1454 Световната
135 Световни
186 Световните
515 Световния
86 Световният
355 Световно
1590 Световното
56 Светогорска
118 Светозар
515 Светослав
101 Светото
163 Светът
71 Свещена
1076 Свещената
76 Свещения
322 Свиленград
734 Свищов
267 Свобода
58 Свободата
98 Свободен
266 Свободна
53 Свободната
130 Свободния
176 Своге
101 Свят
44 Сграда
108 Сдружение
120 Сдружението
225 Севастопол
936 Север
176 Севера
1665 Северен
9549 Северна
298 Северната
494 Северни
67 Северните
740 Северния
505 Северно
236 Северното
104 Северозападен
1171 Северозападна
138 Северозападната
79 Северозападни
77 Северозападните
131 Северозападния
124 Североизточен
973 Североизточна
69 Североизточната
42 Североизточния
383 Севиля
364 Севлиево
104 Сега
85 Седем
113 Седемгодишната
194 Седемте
156 Седма
54 Седми
86 Седмия
213 Сезон
63 Сей
1858 Сейнт
51 Секретар
115 Секретариата
72 Секс
49 Сексът
59 Секунда
114 Селена
205 Селим
83 Селище
56 Селището
446 Село
314 Селото
63 Селска
66 Селски
192 Селтик
76 Селце
200 Семейство
83 Семерджиев
89 Семинарията
58 Семов
1404 Сен
572 Сена
138 Сенат
686 Сената
78 Сенатът
734 Сенегал
44 Сенките
44 Сенокос
262 Сент
740 Септември
59 Септемврийско
287 Септемврийското
135 Серафим
55 Серафимов
999 Сергей
329 Сердика
1191 Серия
119 Сет
343 Сеул
247 Сиатъл
712 Сибир
41 Сива
54 Сиви
73 Сигнал
60 Сигурност
149 Сидеров
771 Сидни
796 Сиера
124 Сила
73 Силата
262 Силва
87 Силван
99 Силви
258 Силвия
396 Силезия
823 Силистра
48 Силициевата
154 Силянов
92 Сименс
1522 Симеон
299 Симеонов
56 Симеонова
82 Симеоновград
52 Симеоново
130 Симитли
77 Симов
61 Симона
55 Симферопол
49 Симфоничния
53 Симфония
207 Син
315 Сина
1253 Сингапур
86 Сини
80 Сините
49 Синият
219 Синод
44 Синода
43 Синът
53 Синьо
58 Синя
125 Синята
66 Сираков
241 Сиракуза
86 Сириус
1989 Сирия
45 Сирни
216 Система
1761 Сити
1682 Сицилия
296 Скала
120 Скалата
138 Скалистите
216 Скандинавия
75 Скандинавския
46 Скапула
57 Скарлет
52 Скачащи
43 Скитник
2960 Скопие
51 Скорпион
961 Скот
48 Скулптура
160 Слава
53 Славата
53 Славейко
310 Славейков
353 Слави
62 Славка
89 Славков
183 Славов
63 Славова
97 Славчев
153 Славчо
106 Славянка
91 Славянска
72 Славянски
41 Славянския
1007 След
55 Слепоци
1436 Сливен
88 Сливенска
66 Сливенската
60 Сливенски
103 Сливенския
108 Сливенско
53 Сливово
74 Словак
1081 Словакия
51 Словашката
2825 Словения
114 Слово
81 Сложноцветни
61 Служба
93 Службата
144 Слънце
1077 Слънцето
109 Слънчев
43 Слънчева
390 Слънчевата
115 Смели
75 Сметната
172 Смирненски
66 Смислов
1103 Смит
643 Смолян
100 Смърт
162 Смъртта
77 Снежанка
326 Созопол
131 Сокол
222 Соколов
41 Соколови
236 Сократ
103 Сол
61 Солидарност
846 Соломонови
3271 Солун
136 Солунска
677 Солунската
197 Солунски
62 Солунските
417 Солунския
134 Солунско
268 Солунското
54 Сома
1088 Сомалия
55 Соната
213 Сони
139 Соня
345 Сопот
117 Сотир
77 Сотиров
174 Софи
639 Софийска
690 Софийската
520 Софийски
2602 Софийския
91 Софийският
227 Софийско
253 Софийското
20498 София
84 Софиянски
59 Софокъл
90 Социалдемократическата
426 Социалистическа
118 Социалистическата
77 Социалистическия
192 Сочи
108 Спа
482 Спарта
1570 Спартак
449 Спас
55 Спасител
43 Спасителя
472 Спасов
44 Спектър
57 Специален
59 Специалната
172 Спилбърг
135 Спиридон
51 Спиридонов
69 Списание
143 Списък
173 Списъка
74 Спомени
52 Споразумение
115 Споразумението
338 Според
223 Спорт
72 Спортен
141 Спортист
49 Спортна
53 Сребърен
132 Сребърна
179 Среден
923 Средиземно
184 Средиземноморие
296 Средиземноморието
45 Средиземноморския
1445 Средна
246 Средната
69 Средни
141 Средните
182 Средния
189 Средно
246 Средновековие
994 Средновековието
64 Средновековна
121 Средното
54 Среща
57 Срещата
546 Сръбска
269 Сръбската
80 Сръбски
64 Сръбското
57 Ставката
48 Ставрев
71 Стадион
100 Стайков
870 Сталин
53 Стаматов
405 Стамболийски
458 Стамболов
67 Стамен
42 Стаменов
142 Стан
56 Стана
118 Стандарт
180 Станев
105 Станимир
44 Станимиров
479 Станислав
343 Станишев
70 Станка
111 Станко
113 Станков
210 Станчев
59 Станчева
91 Станчо
418 Стар
4331 Стара
223 Старата
692 Стари
639 Стария
108 Старият
196 Старо
140 Старото
54 Старт
140 Старша
181 Старши
98 Стела
76 Стената
301 Стенли
138 Степан
5150 Стефан
160 Стефани
547 Стефанов
79 Стефанова
119 Стефка
49 Стихотворения
49 Сто
94 Стогодишната
194 Стоев
115 Стоил
289 Стоилов
41 Стоименов
172 Стоичков
157 Стойко
211 Стойков
47 Стойнов
48 Стойо
363 Стойчев
158 Стойчо
1012 Стокхолм
64 Столицата
53 Столичен
174 Столична
108 Столичната
65 Столичния
47 Стопанска
41 Стопански
131 Стоте
1710 Стоян
70 Стоянка
1760 Стоянов
187 Стоянова
72 Стража
108 Страната
567 Странджа
434 Страсбург
59 Страстите
50 Стратиев
42 Стратфорд
57 Страх
76 Страхил
125 Страшимиров
91 Страшния
80 Стрезов
57 Стрела
79 Стрелец
55 Строител
307 Струга
41 Стружко
934 Струма
72 Студен
146 Студена
403 Студената
73 Студентски
223 Студио
56 Студия
55 Стършел
65 Сува
152 Сугарев
1436 Судан
50 Суецката
128 Суецкия
77 Сузана
191 Султан
47 Султана
46 Сума
503 Суматра
58 Сунгурларе
182 Супер
92 Супермен
76 Сура
481 Суринам
97 Суха
169 Сухиндол
68 Сухо
64 Сухопътните
87 Събев
66 Събор
63 Събрание
231 Събранието
332 Съвет
1897 Съвета
58 Съветите
174 Съветска
457 Съветската
181 Съветски
2025 Съветския
163 Съветският
438 Съветът
63 Съвременна
51 Съвременник
87 Съгласие
48 Съглашението
63 Съд
150 Съда
48 Съдебната
71 Съдът
3283 Съединени
138 Съединение
379 Съединението
1887 Съединените
162 Сълза
141 Сън
65 Съпротивата
154 Съпротивителното
179 Сър
5417 Сърбия
121 Сърнена
42 Сърце
56 Сърцето
42 Сътворението
176 Съчуан
91 Същинска
43 Същински
600 Съюз
2207 Съюза
83 Съюзна
49 Съюзната
239 Съюзниците
63 Съюзническата
109 Съюзът
61 Ся
79 ТАНЕВ
45 ТОП
47 ТУ
55 Та
82 Табаков
479 Таджикистан
240 Тази
107 Таити
69 Тай
1506 Тайван
2086 Тайланд
493 Таймс
155 Тайната
50 Тайните
66 Тайния
164 Така
84 Талев
250 Талин
73 Талия
130 Там
126 Тамара
43 Танга
118 Танганика
231 Танев
2084 Танзания
98 Танчев
41 Таньо
175 Таня
47 Тао
54 Тара
148 Тасев
48 Тасева
285 Тасмания
192 Тасос
150 Татарчев
51 Татул
201 Татяна
52 Ташев
154 Ташкент
278 Тбилиси
303 Те
406 Театър
66 Театъра
150 Тевтонския
54 Тежка
348 Тел
131 Телевизия
58 Телеграф
133 Темза
88 Тенев
115 Тенерифе
170 Тенис
1089 Теодор
558 Теодора
47 Теодоров
166 Теория
41 Теорията
222 Тервел
355 Тереза
103 Терзиев
42 Терми
49 Терминал
44 Терция
524 Тесалия
105 Тесла
211 Тетевен
276 Техеран
78 Техникум
74 Техникума
141 Технически
208 Техническия
49 Технологичния
311 Ти
556 Тибет
47 Тибетския
135 Тибър
190 Тигър
367 Тим
56 Тимбукту
356 Тимор
90 Тина
152 Тип
233 Тирана
632 Тирол
67 Тиса
262 Титан
130 Титаник
42 Титикака
71 Тих
176 Тихи
1110 Тихия
86 Тихомир
50 Тихоокеанската
84 Тихоокеанския
176 Тича
150 То
504 Тобаго
556 Това
72 Тогава
558 Того
2637 Тодор
55 Тодорка
1059 Тодоров
201 Тодорова
177 Този
768 Той
105 Тойота
718 Токио
163 Толедо
850 Том
670 Тома
279 Томе
80 Томислав
208 Томов
45 Томова
567 Тонга
68 Тонев
721 Тони
81 Тоника
67 Тонка
60 Тончев
78 Тончо
660 Топ
147 Топалов
100 Тополовград
116 Тор
43 Тора
70 Торбести
56 Тори
832 Торино
527 Торонто
213 Торпедо
718 Тоскана
118 Тотев
74 Точки
307 Тошев
43 Тошков
220 Трайко
168 Трайков
85 Трайчев
44 Тракиец
73 Тракийска
101 Тракийската
75 Тракийски
108 Тракийския
3404 Тракия
44 Транс
407 Трансилвания
56 Трапезица
58 Трафалгар
149 Траянов
64 Трендафил
59 Трендафилов
94 Треска
603 Трета
290 Третата
349 Трети
597 Третия
68 Третият
80 Третото
344 Три
41 Тридесет
215 Тридесетгодишната
150 Триест
45 Трима
108 Тримата
553 Тринидад
251 Триполи
109 Тристранния
271 Трите
53 Тритон
47 Триумф
226 Трифон
279 Трифонов
41 Трифонова
42 Тричков
543 Троица
56 Тройния
81 Троцки
244 Троя
307 Троян
43 Троянска
174 Троянската
57 Троянски
136 Троянския
61 Троянско
44 Трубадур
185 Труд
253 Трън
85 Ту
510 Тувалу
123 Тук
73 Тула
114 Тулий
82 Тумба
476 Тунджа
938 Тунис
725 Тур
371 Туркменистан
98 Турне
71 Турнира
50 Турска
108 Турската
72 Турски
59 Турско
5057 Турция
42 Тутанкамон
41 Тъжа
78 Тъй
49 Тъмната
50 Търговска
69 Търговската
45 Търговския
2723 Търново
97 Тюдор
126 Тюринг
482 Тюрингия
48 Тюркския
331 Тя
95 Тяншан
824 Уганда
45 Ударник
153 Уеб
122 Уелингтън
1552 Уелс
60 Уелски
84 Уестминстър
78 Уестминстърското
42 Уестърн
523 Узбекистан
43 Узун
328 Узунов
104 Уиндзор
397 Указ
74 Украинска
173 Украинската
65 Украински
3373 Украйна
66 Улан
70 Улица
56 Ум
3181 Унгария
152 Унгарска
150 Унгарската
98 Унгарското
347 Университет
2354 Университета
55 Университетска
96 Университетската
82 Университетът
145 Уникод
56 Уолстрийт
42 Управителен
349 Управителния
177 Управление
82 Управлението
144 Упсала
335 Урал
216 Уран
798 Уругвай
76 Урумов
698 Успение
57 Устав
141 Устава
47 Устрем
211 Училище
53 Училищен
177 Училището
78 Учиха
56 Учредителен
169 Учредителното
1844 Уязвим
55 ФАР
245 ФИДЕ
284 Файл
78 Факел
48 Фактор
179 Факултет
379 Факултета
108 Фани
44 Фантом
89 Фарьорски
64 Фарьорските
340 Фасо
201 Февруари
60 Февруарската
78 Федерален
171 Федерална
167 Федералната
197 Федералния
79 Федералното
348 Федерация
277 Федерацията
46 Фенер
169 Феникс
364 Ферара
111 Ференц
53 Ферма
52 Ферми
113 Фест
119 Фестивал
136 Фестивала
124 Фидел
812 Фиджи
56 Физика
54 Физическия
455 Филаделфия
4075 Филип
1432 Филипини
319 Филипов
45 Филипова
225 Филипс
94 Филм
46 Филмовия
146 Филологическия
153 Философ
103 Философия
98 Философски
259 Философския
74 Фин
86 Финал
46 Финанси
172 Финикс
1463 Финландия
65 Финския
89 Фиш
121 Фламандски
66 Флора
1148 Флоренция
1326 Флорида
52 Флота
339 Фокс
75 Фокус
100 Фон
67 Фонд
108 Фонда
320 Фондация
156 Фондацията
41 Фонтана
57 Фонтенбло
828 Форд
4300 Формула
439 Форт
120 Фортуна
113 Форум
71 Форума
59 Фотев
1058 Франк
461 Франклин
302 Франко
662 Франкфурт
1005 Франциско
13381 Франция
560 Фредерик
1323 Френска
898 Френската
225 Френски
138 Френския
76 Френското
4120 Фридрих
796 Фройд
88 Фронт
53 Фронтон
49 Фуджи
41 Фурия
46 Фурнаджиев
157 Футбол
72 Футболен
128 Футболист
147 Футболна
197 Футболната
46 Ха
70 Хаваи
335 Хавайски
91 Хавайските
222 Хавана
286 Хага
602 Хаджи
170 Хаджиев
71 Хаджииванов
44 Хаджийска
45 Хаджиниколов
542 Хаити
133 Хай
414 Хайделберг
51 Хайдук
88 Хайтов
109 Хайфа
75 Хал
79 Халачев
157 Хале
45 Халеевата
76 Халифа
70 Халифакс
152 Халки
774 Хамбург
456 Хамбургер
98 Хамелеони
82 Хамлет
809 Хан
283 Хана
540 Хановер
62 Ханой
42 Хапел
60 Харалампи
244 Харбър
871 Хари
168 Харманли
45 Харманлийска
97 Хартата
84 Хартум
940 Хасково
94 Хасковска
45 Хасковската
50 Хасковския
72 Хасковско
85 Хей
116 Хектор
350 Хелзинки
64 Хеликон
78 Хелиос
43 Хем
2043 Хенри
200 Херкулес
201 Хермес
62 Херц
1613 Херцеговина
142 Херцог
491 Херцогство
44 Хидра
56 Хикс
123 Хикса
73 Хилел
43 Хиляда
47 Химера
46 Хиндукуш
107 Хирошима
110 Хисаря
42 Хит
1557 Хитлер
51 Хлор
127 Хокайдо
437 Хол
1695 Холандия
70 Холандска
54 Холандската
45 Холандски
588 Холивуд
130 Холивудската
618 Холмс
142 Хонг
179 Хонда
1072 Хондурас
557 Хонконг
53 Хонолулу
189 Хоншу
57 Хор
126 Хора
48 Хората
120 Хоризонт
664 Хосе
153 Хотел
69 Храбри
61 Храбър
57 Храм
114 Храма
80 Храмът
302 Христина
47 Християнската
71 Християнството
4739 Христо
1482 Христов
228 Христова
1557 Христос
268 Христофор
48 Хроника
76 Хрониките
88 Хуанхъ
44 Хубава
47 Хубавата
105 Хубави
87 Художествена
425 Художествената
273 Хъдсън
159 Хълм
136 Хърватска
49 Хърватската
122 Хърватско
44 Хъшове
417 Хюстън
148 Цанев
176 Цанко
557 Цанков
56 Цанов
694 Цар
67 Царев
68 Царева
84 Царевец
202 Царево
2345 Цариград
815 Цариградската
90 Цариградски
97 Цариградския
51 Цариградско
73 Царица
46 Царицата
63 Царска
77 Царската
41 Царския
501 Царство
105 Царството
48 Царя
46 Цвета
309 Цветан
94 Цветана
152 Цветанов
54 Цветелина
68 Цветко
333 Цветков
45 Цветкова
104 Цвятко
1936 Цезар
86 Цейлон
89 Цеков
149 Целзий
60 Цено
84 Ценов
451 Централен
4897 Централна
419 Централната
302 Централните
803 Централния
66 Централният
89 Централно
342 Централноафриканска
148 Централното
734 Център
489 Центъра
52 Центърът
238 Цепелин
85 Церово
78 Цеца
424 Цицерон
55 Цолов
223 Цонев
197 Цончев
205 Църква
599 Църквата
532 Цюрих
458 Чавдар
81 Чавдаров
49 Чагос
736 Чад
68 Чайка
69 Чайна
51 Чака
144 Чакъров
91 Чао
79 Чатъм
61 Чаушев
43 Чепеларска
72 Чепино
459 Червен
296 Червена
1124 Червената
112 Червените
406 Червения
51 Червеният
168 Червенков
511 Червено
102 Черен
44 Черешово
57 Чери
43 Черковна
1856 Черна
226 Черната
190 Чернев
386 Черни
67 Черните
60 Черничево
209 Черния
107 Черният
1779 Черно
63 Черноморската
90 Черноморски
114 Черноморския
67 Черноморското
54 Черноризец
218 Четвърта
68 Четвъртата
133 Четвърти
186 Четвъртия
84 Четири
86 Четиридесет
59 Четирите
111 Четническата
46 Чех
1660 Чехия
908 Чехословакия
60 Чехословашката
46 Чешка
148 Чешката
45 Чешмеджиев
963 Чикаго
1624 Чили
50 Чилингиров
260 Чирпан
120 Читалище
84 Чифлик
53 Чичо
108 Член
137 Човек
130 Човекът
158 Чолаков
57 Чомаков
57 Чу
74 Чудомир
112 Чудотворец
48 Чудото
51 Чука
67 Чуката
48 Чукотка
97 Шабла
163 Шампан
123 Шампион
86 Шампионат
83 Шампионата
443 Шампионска
1017 Шампионската
67 Шанел
355 Шанхай
42 Шапка
144 Шар
717 Шаранови
91 Шатев
189 Шах
84 Шварцвалд
51 Шведска
124 Шведската
2852 Швейцария
95 Швейцарската
3361 Швеция
103 Шейново
61 Шейх
67 Шериф
45 Шест
97 Шеста
53 Шестдневната
99 Шести
66 Шестия
57 Шесто
215 Шефилд
83 Ши
50 Шиваров
54 Шиндлер
409 Шипка
90 Шипченски
134 Шипченския
133 Широка
50 Шифърът
151 Шишков
177 Шишманов
110 Шкода
107 Школа
208 Школата
89 Шлем
154 Шопов
1486 Шотландия
84 Шотландската
59 Шотландски
162 Шоу
243 Шоуто
1197 Шри
1513 Шумен
94 Шуменска
77 Шуменски
137 Шуменския
118 Шуменско
58 Шуменското
51 Шумер
44 Шчечин
189 Щаба
161 Щати
310 Щатите
72 Щатския
124 Ще
123 Щерев
82 Щит
134 Щраус
71 Щурците
550 Щутгарт
329 Юг
155 Юга
97 Югозападен
907 Югозападна
64 Югозападната
162 Югозападния
66 Югоизточен
1720 Югоизточна
43 Югоизточната
3140 Югославия
180 Югославската
131 Юда
315 Юдея
1987 Южен
11867 Южна
157 Южната
169 Южни
156 Южните
533 Южния
129 Южно
65 Южноафриканската
41 Южноафриканския
170 Южното
140 Юкон
180 Юли
1548 Юлий
687 Юлия
87 Юлиян
49 Юлската
77 Юнак
188 Юни
48 Юнкер
545 Юпитер
140 Юри
475 Юридическия
554 Юрий
110 Юруков
536 Юта
54 Ютланд
121 ЯНЧЕВ
49 Ябълково
446 Ява
120 Явор
268 Яворов
66 Ягуар
51 Якимов
361 Яков
82 Якутск
58 Ялта
603 Ямайка
891 Ямбол
279 Яна
105 Янаки
113 Янакиев
138 Яндзъ
451 Яне
285 Янев
78 Янева
126 Яни
81 Яница
57 Янка
279 Янко
318 Янков
55 Янкулов
406 Янтра
214 Януари
71 Янчев
5245 Япония
134 Японската
47 Японския
83 Японско
167 Ярослав
48 Ярослава
103 Ясен
49 Ясенов
51 Ясна
218 Ястребови
222 абат
151 абатска
67 абатската
82 абатства
653 абатство
727 абатството
51 абдикация
146 абдикацията
295 абдикира
54 абонамент
69 абонати
61 аборигени
62 аборигените
92 аборт
109 абревиатура
43 абревиатурата
166 абсолютен
63 абсолютизъм
222 абсолютна
171 абсолютната
54 абсолютни
453 абсолютно
65 абсорбира
41 абсорбират
50 абстрактен
45 абстрактна
105 абстрактни
56 абстрактно
66 абстракция
113 авангард
129 авангарда
47 авангардни
44 аванс
43 авантюра
46 авантюрист
92 авари
90 аварии
156 аварийно
226 аварите
162 авария
91 аварията
18470 август
146 авеню
138 авиационен
135 авиационна
52 авиационната
128 авиационни
120 авиационно
653 авиация
269 авиацията
62 авиобаза
198 авиобазата
95 авиокомпании
154 авиокомпания
76 авиокомпанията
47 авиолинии
44 австралиеца
82 австралийска
220 австралийската
325 австралийски
87 австралийските
151 австралийския
46 австралийското
102 австриеца
217 австрийска
380 австрийската
540 австрийски
253 австрийските
451 австрийския
79 австрийският
62 австрийско
144 австрийското
68 австрийци
236 австрийците
113 автентичен
46 автентична
122 автентични
43 автентичния
56 автентичност
67 автентичността
50 автобиографичен
61 автобиографична
74 автобиографичната
59 автобиографични
155 автобиография
117 автобиографията
271 автобус
130 автобуса
58 автобусен
346 автобуси
66 автобусите
122 автобусна
178 автобусни
77 автогара
49 автогол
67 автокефална
260 автомагистрала
46 автомагистралата
92 автомат
99 автомати
84 автоматизация
57 автоматизирани
129 автоматичен
189 автоматична
46 автоматичната
144 автоматични
738 автоматично
1195 автомобил
725 автомобила
511 автомобилен
1470 автомобили
257 автомобилите
314 автомобилна
106 автомобилната
343 автомобилни
120 автомобилните
147 автомобилния
83 автомобилно
48 автомобилното
49 автомобилостроенето
108 автомобилът
1484 автономен
596 автономия
102 автономията
773 автономна
145 автономната
166 автономни
46 автономните
77 автономния
102 автономно
73 автономност
59 автопортрет
3470 автор
719 автора
1775 автори
333 авторите
304 авторитет
180 авторитета
45 авторитетен
67 авторитетни
102 авторка
76 авторката
135 авторска
384 авторски
103 авторските
83 авторско
86 авторското
53 авторство
99 авторството
434 авторът
243 ага
1126 агент
69 агента
411 агенти
58 агентите
311 агенции
1227 агенция
229 агенцията
117 агитация
42 агломерации
234 агломерация
135 агломерацията
68 агне
51 агнета
80 аграрна
52 аграрната
89 агрегат
87 агрегати
100 агресивен
96 агресивна
44 агресивната
110 агресивни
75 агресивно
43 агресивност
225 агресия
61 агресията
63 агроном
41 агрономство
173 ад
151 ада
95 адаптации
488 адаптация
72 адаптацията
152 адаптира
187 адаптиран
100 адаптирана
46 адаптиране
92 адаптирани
66 адаптират
50 адвентистите
1063 адвокат
93 адвоката
145 адвокати
61 адвокатите
137 адвокатска
78 адвокатската
45 адвокатски
50 адекватна
86 адекватно
3523 административен
982 административна
222 административната
940 административни
182 административните
279 административния
87 административният
682 административно
151 административното
326 администратор
58 администратори
60 администрации
1273 администрация
622 администрацията
100 администрира
46 администриране
740 адмирал
643 адрес
121 адреса
153 адреси
67 адресите
44 адресно
58 адриатическото
247 адютант
86 аерогара
71 аеродинамиката
51 аеродинамични
54 аеронавтика
711 аз
1030 азбука
139 азбуката
123 азбуки
74 азбучен
98 азербайджански
46 азиатска
83 азиатската
248 азиатски
105 азиатските
72 азиатския
57 азиатци
235 азот
55 азота
64 азотен
62 азотна
49 азотни
156 академии
628 академик
52 академици
117 академичен
175 академична
124 академичната
230 академични
148 академичните
57 академичния
115 академично
60 академичното
5503 академия
546 академията
67 акация
49 акварел
44 акварели
60 аквариум
44 акватория
73 акваторията
71 акведукт
5533 ако
49 акомпанимент
46 акомпанира
92 акордеон
103 акостира
58 акостират
91 акредитация
52 акредитирани
49 акробатика
95 акроним
104 аксесоари
50 аксиоми
1235 акт
151 акта
138 актив
164 актива
951 активен
261 активи
93 активизира
116 активира
63 активиране
71 активират
239 активист
268 активисти
110 активите
1216 активна
378 активната
648 активни
181 активните
103 активния
2719 активно
959 активност
45 активности
156 активността
219 активното
522 актове
59 актовете
2632 актриса
710 актрисата
161 актриси
47 актрисите
46 актуален
146 актуализация
129 актуална
236 актуални
51 актуалните
44 актуално
2704 актьор
516 актьора
792 актьори
291 актьорите
109 актьорска
211 актьорската
113 актьорски
80 актьорския
569 актьорско
66 актьорството
224 актьорът
558 акула
388 акули
117 акулите
52 акумулатори
43 акустика
43 акустичен
84 акустична
84 акустични
273 акцент
109 акцентира
783 акции
337 акциите
93 акционер
105 акционери
51 акционерите
200 акционерно
830 акция
171 акцията
81 ала
47 албанец
134 албанска
164 албанската
657 албански
176 албанските
128 албанския
438 албанско
116 албанското
731 албанци
224 албанците
10735 албум
6213 албума
1342 албуми
410 албумите
1123 албумът
137 алгебра
46 алгебрата
50 алгебрични
229 алгоритми
50 алгоритмите
265 алгоритъм
127 алгоритъма
56 алгоритъмът
53 алегория
70 алеи
215 алея
59 алеята
165 алианс
44 алкални
624 алкохол
158 алкохола
43 алкохоли
55 алкохолизъм
65 алкохолна
84 алкохолни
215 алкохолно
83 алманах
52 ало
48 алпийска
314 алпийски
84 алпийските
55 алпийския
61 алпинизъм
67 алпинист
85 алпинисти
347 алтернатива
181 алтернативен
61 алтернативи
183 алтернативна
83 алтернативната
197 алтернативни
63 алтернативния
99 алтернативно
80 алувиални
52 алуминиев
51 алуминиева
110 алуминиеви
230 алуминий
103 алфа
48 алхимия
64 аматьор
83 аматьори
42 аматьорите
56 аматьорска
59 аматьорската
240 аматьорски
57 аматьорските
114 аматьорския
192 амбиции
94 амбициите
95 амбициозен
47 амбициозна
43 амбициозната
45 амбициозни
44 амбиция
68 амбицията
149 американец
118 американеца
67 американецът
69 американка
85 американката
1832 американска
2385 американската
10079 американски
1390 американските
1924 американския
315 американският
324 американско
591 американското
248 американци
462 американците
57 аминокиселина
169 аминокиселини
183 амнистиран
215 амнистия
81 амнистията
43 амониев
96 амоняк
118 амплитуда
59 амплитудата
61 амплитуди
71 амуниции
84 амфитеатър
46 амфитеатъра
89 анален
50 анали
1243 анализ
380 анализа
88 анализатор
122 анализатори
280 анализи
205 анализира
65 анализиране
84 анализират
41 анализът
78 аналитик
96 аналитична
93 аналитичната
68 аналитични
246 аналог
85 аналогичен
66 аналогична
88 аналогични
84 аналогично
185 аналогия
54 аналогов
82 аналогови
69 аналози
46 анархизма
70 анархист
84 анархисти
47 анархистите
53 анархия
50 анатомични
177 анатомия
68 анатомията
149 ангажимент
44 ангажимента
192 ангажименти
56 ангажиментите
267 ангажира
131 ангажиран
57 ангажирана
166 ангажирани
66 ангажираност
66 ангажират
50 ангария
191 ангел
68 ангела
164 ангели
85 ангелите
817 английска
1154 английската
10208 английски
491 английските
1873 английския
396 английският
138 английско
407 английското
151 англичани
93 англичанин
90 англичанина
58 англичанинът
699 англичаните
44 англичанка
44 англоезичната
57 англосаксонски
116 анексира
42 анексиран
74 анексирана
89 анексирането
42 анексия
60 анексията
90 анемия
60 аниматор
95 анимации
565 анимационен
318 анимационни
68 анимационните
141 анимационния
260 анимация
88 анимацията
150 анкета
65 анкетата
43 анклав
79 аномалии
43 аномалия
100 анонимен
76 анонимни
81 анонимно
52 анонсира
47 анорексия
75 ансамбли
472 ансамбъл
115 ансамбъла
68 антарктическа
171 антарктически
169 антена
63 антената
93 антени
59 анти
41 антибиотик
154 антибиотици
46 антиген
46 антигени
64 антики
93 антилопа
113 антилопи
51 антисемитизма
62 антисемитизъм
76 антисемитски
132 антитела
64 антифашистката
46 антифашистки
210 античен
202 антична
218 античната
286 антични
198 античните
286 античния
140 антично
176 античност
383 античността
125 античното
90 антологии
116 антология
70 антологията
51 антракс
80 антрополог
264 антропология
80 антропологията
42 антрополози
82 анулира
91 анулиран
41 анулиране
75 ануса
49 аортата
1280 апарат
627 апарата
572 апарати
67 апаратите
250 апаратура
137 апаратът
203 апартамент
240 апартамента
76 апартаменти
63 апел
82 апелативен
47 апелира
65 апетит
45 апетита
82 апликации
155 апогей
65 апогея
307 апостол
183 апостоли
137 апостолите
16693 април
123 аптека
59 аптекар
152 ар
66 ара
237 араби
545 арабите
234 арабска
264 арабската
1986 арабски
367 арабските
245 арабския
85 арабският
77 арабско
153 арабското
87 аранжор
60 арбитраж
69 арбитър
62 аргонавтите
159 аргумент
69 аргумента
186 аргументи
42 аргументира
75 аргументите
228 ареал
183 ареала
68 ареалът
291 арена
79 арената
56 аренда
347 арест
221 ареста
147 арести
210 арестува
2245 арестуван
122 арестувана
111 арестуването
698 арестувани
60 арестуваните
211 арестуват
53 аржентинеца
48 аржентинска
87 аржентинската
257 аржентински
159 аржентинския
84 арии
192 аристократ
218 аристократи
77 аристократите
78 аристократичен
56 аристократична
80 аристократични
63 аристократично
90 аристократка
475 аристокрация
276 аристокрацията
72 аритметика
48 аритметиката
42 аритметични
56 ария
257 арка
95 арката
194 арки
163 арктичен
104 арктически
67 армада
86 армейска
46 армейската
580 армейски
42 арменец
86 арменска
186 арменската
439 арменски
130 арменските
184 арменския
43 арменско
63 арменското
274 арменци
147 арменците
1508 армии
291 армиите
13453 армия
4275 армията
385 арнаути
362 аромат
62 аромата
64 аромати
105 ароматни
47 арсен
102 арсенал
163 артерии
209 артерия
268 артилерийска
50 артилерийската
1067 артилерийски
42 артилерийските
64 артилерийския
157 артилерийско
46 артилеристите
795 артилерия
486 артилерията
514 артист
446 артисти
514 артистите
318 артистичен
64 артистична
92 артистични
72 артистичния
45 артистично
72 артистка
61 артрит
64 арфа
49 архаичен
45 архаични
71 архангел
261 археолог
78 археолога
152 археологическа
1429 археологически
285 археологическите
73 археологическия
79 археологическо
44 археологическото
41 археологични
265 археология
103 археологията
205 археолози
288 археолозите
470 архив
173 архива
240 архиви
165 архивите
99 архивни
83 архидякон
1491 архиепископ
198 архиепископа
60 архиепископи
53 архиепископите
644 архиепископия
73 архиепископът
58 архиерей
183 архиерейски
204 архиерейско
365 архимандрит
495 архипелаг
590 архипелага
1139 архитект
273 архитекта
293 архитекти
183 архитектите
1607 архитектура
619 архитектурата
352 архитектурен
67 архитектури
162 архитектурна
48 архитектурната
412 архитектурни
102 архитектурните
97 архитектурния
354 архитектурно
81 архитектурното
72 архитектът
85 ас
52 асансьор
44 асансьори
42 асиметрична
90 асимилация
86 асимилирани
43 асирийски
61 асирийците
1165 асистент
66 асистенти
101 асистира
319 аскер
51 асортимент
202 асоциации
1595 асоциация
186 асоциацията
125 асоциира
157 асоцииран
45 асоциирана
55 асоцииране
108 асоциирани
42 асоциират
390 аспект
53 аспекта
575 аспекти
70 аспирант
75 аспирантура
202 астероид
99 астероида
117 астероиди
49 астероидите
130 астма
50 астролог
54 астрология
45 астрологията
821 астронавт
61 астронавта
229 астронавти
230 астронавтите
368 астроном
48 астронома
155 астрономи
69 астрономите
93 астрономическа
298 астрономически
331 астрономия
185 астрономията
45 астрофизика
58 асфалт
83 асфалтиран
155 асфалтирани
122 асфалтов
1580 атака
804 атаката
936 атаки
335 атаките
837 атакува
151 атакуван
78 атакувана
129 атакувани
638 атакуват
173 атакуващ
42 атакуващи
67 атакуващите
200 аташе
55 атеист
65 атеисти
201 ателие
58 ателиета
182 ателието
353 атентат
430 атентата
216 атентати
168 атентатите
46 атинска
46 атинската
86 атински
82 атинския
85 атиняните
73 атлантическото
106 атлас
59 атлет
104 атлети
315 атлетика
598 атмосфера
862 атмосферата
45 атмосферен
54 атмосфери
122 атмосферни
64 атмосферните
46 атмосферния
88 атмосферно
97 атмосферното
150 атола
51 атолите
287 атом
335 атома
152 атомен
352 атоми
208 атомите
355 атомна
183 атомната
203 атомни
107 атомните
56 атомния
82 атомно
59 атомното
46 атрактивен
50 атрактивни
109 атракции
229 атракция
84 атрибут
122 атрибути
68 аудиенция
413 аудио
277 аудитория
72 аудиторията
462 афера
211 аферата
56 афери
53 афинитет
52 афоризми
121 африканска
101 африканската
495 африкански
263 африканските
116 африканския
64 африканско
54 африканското
77 африканци
61 аязмо
49 ба
829 баба
66 бабата
46 баби
51 баварска
102 баварската
116 баварски
50 баварските
286 баварския
103 баварците
131 бавен
69 бавна
124 бавни
786 бавно
70 бавното
58 багаж
41 багрила
58 бадеми
2646 база
1816 базата
705 бази
789 базилика
438 базиликата
56 базилики
319 базира
53 базирайки
1082 базиран
823 базирана
46 базираната
662 базирани
230 базирано
104 базират
112 базите
58 базов
49 базова
43 базовата
72 базови
79 базовия
161 баир
60 бай
62 байт
109 байта
328 бакалавър
908 бакалавърска
44 бакалавърски
48 бактериални
424 бактерии
144 бактериите
74 бактерия
62 бактерията
79 бал
56 бала
140 балада
116 баладата
155 балади
355 баланс
94 баланса
57 балансира
41 балансиран
56 балерина
333 балет
98 балета
134 балистична
151 балистични
151 балкан
47 балканджии
256 балканска
70 балканската
425 балкански
335 балканските
44 балканския
46 балкон
71 балкона
41 балове
105 балон
60 балони
69 балотаж
69 балотажа
65 балтийски
79 балтийските
57 бамбук
107 банани
378 банда
658 бандата
291 банди
73 бандити
412 бани
48 баните
103 баница
56 баници
1800 банка
468 банката
142 банкер
56 банкера
64 банкери
66 банкет
643 банки
42 банкиране
181 банките
41 банкнотата
208 банкноти
58 банкнотите
128 банков
102 банкова
70 банковата
134 банкови
46 банковите
56 банковия
109 банкрут
54 бански
720 баня
128 банята
194 бар
209 бара
162 барабан
47 барабана
553 барабани
452 барабанист
287 барабаниста
159 барабанистът
162 барабаните
112 бараж
54 баража
45 барела
75 барелеф
175 бариера
46 бариерен
70 бариери
51 баритон
98 барове
141 барок
71 барока
130 бароков
50 барокова
43 бароковата
61 барокови
341 барон
51 баронеса
121 барони
97 бароните
120 барут
760 бас
64 баса
2023 басейн
932 басейна
546 басейни
72 басейните
241 басист
179 басиста
111 басистът
351 баскетбол
86 баскетбола
98 баскетболен
113 баскетболист
99 баскетболна
44 баскетболни
96 баски
66 баските
54 басни
49 бастион
1056 батальон
385 батальона
73 батальони
278 батареи
327 батарея
48 батареята
262 батерии
43 батериите
133 батерия
58 батерията
197 башибозук
51 башибозука
47 башибозуци
10595 баща
1068 бащата
72 бащи
427 бащина
67 бащината
43 бащини
49 бащиния
88 бащите
3303 бе
159 бебе
95 бебета
61 бебетата
157 бебето
117 бег
43 бегач
43 беглец
63 бегълци
54 беда
168 беден
105 бедна
354 бедни
371 бедните
285 бедно
232 бедност
222 бедността
43 бедрата
59 бедрото
112 бедствие
42 бедствието
236 бедствия
44 бедствията
62 бежанец
728 бежански
515 бежанско
2549 бежанци
369 бежанците
13905 без
44 безалкохолна
87 безалкохолни
41 безапелационно
141 безброй
62 безвъзвратно
81 безвъзмездно
296 безгръбначни
59 безгръбначните
89 бездействие
524 бездетен
95 бездетния
61 бездомни
44 бездомните
47 безжична
46 безименен
69 безкраен
82 безкрайна
75 безкрайни
170 безкрайно
72 безкрайност
49 безмилостно
41 безнадеждно
54 безопасен
47 безопасна
94 безопасни
213 безопасно
465 безопасност
253 безопасността
81 безпилотен
64 безпилотни
188 безплатен
134 безплатна
180 безплатни
412 безплатно
42 безплодни
86 безпокойство
42 безпомощни
56 безпорядък
90 безпрепятствено
56 безпрецедентен
69 безпроблемно
48 безработен
180 безработица
159 безработицата
67 безработни
188 безредици
82 безредиците
194 безследно
54 безсмъртие
49 безсмъртието
76 безспорен
47 безспорна
41 безспорни
185 безспорно
83 безсъзнание
47 безсъние
78 безусловно
91 безуспешни
248 безуспешно
63 безцветен
54 безцветна
42 безцветни
903 бей
77 бейзбол
44 бейзболен
42 бекас
105 бел
42 белгиеца
158 белгийска
138 белгийската
339 белгийски
131 белгийските
204 белгийския
56 белгийският
44 белгийците
233 белег
137 бележат
938 бележи
47 бележит
56 бележити
44 бележития
178 бележка
272 бележки
43 бележките
384 белези
64 белезите
46 белезникави
74 белетрист
57 белетристика
1558 бели
720 белите
326 белия
107 белият
74 белодробна
60 белодробни
94 белтък
220 белтъци
71 белтъците
76 белтъчини
93 бельо
104 белязан
86 белязана
74 белязани
82 белязано
48 бенгалски
157 бензин
51 бензина
70 бензинов
50 бензинови
58 бензиностанция
69 берат
49 бербери
60 берберите
53 берлинския
71 беседа
124 беседи
42 бесите
561 бестселър
223 бестселъри
224 бестселърите
178 бета
146 бетон
46 бетонна
81 бетонни
2274 беше
48 бея
4755 би
75 библейската
205 библейски
78 библейските
66 библейския
2207 библиотека
193 библиотекар
639 библиотеката
437 библиотеки
86 библиотеките
49 библиотечна
4237 бива
2063 биват
48 бивол
109 биволи
3429 бивш
868 бивша
966 бившата
800 бивши
657 бившите
1669 бившия
580 бившият
112 бидейки
1175 бие
76 биенале
158 бижута
1796 бизнес
474 бизнеса
45 бизнеси
370 бизнесмен
70 бизнесмена
111 бизнесмени
60 бизнесът
188 бик
45 бика
61 бикове
16319 бил
9649 била
105 билет
51 билета
176 билети
64 билетите
13290 били
45 билка
191 билки
7641 било
451 билото
61 билярд
58 биограф
128 биографии
105 биографичен
44 биографична
48 биографичната
59 биографични
263 биография
152 биографията
115 биолог
143 биологичен
48 биологически
97 биологична
62 биологичната
255 биологични
98 биологичните
109 биологично
124 биологичното
420 биология
194 биологията
50 биолози
57 биосферен
46 биохимик
55 биохимични
87 биохимия
49 биплан
1687 бира
404 бирата
128 бири
50 бисквити
306 бит
563 бита
57 бити
69 битие
108 битието
3199 битка
5217 битката
942 битки
410 битките
54 битов
158 битова
46 битовата
76 битове
239 битови
49 битовите
71 бих
890 биха
46 бихме
456 бият
99 блага
67 благо
54 благоволението
2320 благодарение
66 благодари
248 благодарност
61 благодарността
58 благодат
88 благоденствие
49 благоденствието
53 благодетел
61 благополучие
82 благополучно
97 благоприятен
70 благоприятна
240 благоприятни
55 благоприятните
149 благоприятно
81 благоприятства
49 благоприятстват
55 благоразположението
155 благороден
60 благородна
121 благородни
343 благородник
403 благородници
181 благородниците
158 благородническа
212 благороднически
71 благородническо
112 благородничка
48 благородно
48 благосклонно
42 благославя
54 благословия
69 благословията
83 благосъстояние
80 благосъстоянието
101 благотворителен
169 благотворителна
53 благотворителната
229 благотворителни
214 благотворително
111 благотворителност
46 благотворителността
182 благоустройството
402 блата
157 блатата
48 блатиста
58 блатисти
77 блатна
296 блато
137 блатото
45 бледи
101 бледо
85 блести
131 блестящ
89 блестяща
95 блестящи
128 блестящо
457 близка
274 близката
1176 близки
722 близките
377 близкия
42 близкият
524 близко
397 близкото
112 близнак
230 близнаци
121 близнаците
7288 близо
4604 близост
309 близостта
1085 близък
1252 блок
214 блока
223 блокада
176 блокадата
244 блокира
67 блокиран
64 блокиране
61 блокирани
162 блокират
641 блокове
64 блоковете
114 блокчета
51 блъска
193 блясък
64 блясъка
133 боб
61 бобови
49 бобслей
1157 бог
287 бога
921 богат
951 богата
265 богатата
769 богати
342 богатите
226 богатия
41 богатият
704 богато
87 богатото
223 богатства
83 богатствата
546 богатство
306 богатството
57 богини
324 богиня
370 богинята
448 богове
503 боговете
56 богомилите
74 богослов
45 богослови
226 богословие
45 богословска
112 богословски
84 богословско
68 богослужебни
149 богослужение
95 богослужението
45 богослужения
96 богът
45 бодлива
63 бодливи
811 боеве
996 боевете
575 боен
408 боеприпаси
78 боеприпасите
42 боеспособността
135 боец
300 божества
55 божествата
68 божествен
74 божествена
77 божествената
58 божествения
45 божествено
73 божественото
318 божество
84 божеството
43 божи
50 божия
41 божур
2822 бозайник
1151 бозайници
259 бозайниците
338 бои
56 боите
1314 бой
86 бойкот
86 бойкотират
832 бойна
242 бойната
1749 бойни
911 бойните
43 бойници
157 бойния
319 бойно
558 бойното
578 бойци
101 бойците
58 боклук
353 бокс
385 бокса
43 боксов
181 боксьор
42 боксьори
57 боледува
238 боледуване
74 боледуват
53 болезнени
74 болезнено
367 болен
870 болест
851 болести
140 болестите
793 болестта
466 болид
443 болида
119 болиди
124 болидите
51 болидът
379 болка
175 болката
281 болки
85 болна
41 болната
455 болни
305 болните
1576 болница
578 болницата
299 болници
56 болниците
49 болнични
96 болния
66 болният
56 болшевики
207 болшевиките
54 болшевишката
100 болшинството
145 боляри
78 болярин
48 болярина
101 болярите
432 бомба
71 бомбардира
77 бомбардиран
80 бомбардиране
51 бомбардирането
78 бомбардират
303 бомбардировач
181 бомбардировача
366 бомбардировачи
83 бомбардировачите
188 бомбардировка
67 бомбардировката
324 бомбардировки
294 бомбардировките
90 бомбата
51 бомбен
45 бомбени
547 бомби
81 бомбите
83 бонбони
231 бонус
44 бонуси
317 бор
41 боравене
69 борави
2964 борба
1897 борбата
740 борби
204 борбите
354 борд
1531 борда
117 бординженер
50 бордове
103 бордовете
105 бордови
295 борец
53 борещи
731 бори
74 борова
111 борови
340 борса
113 борсата
65 борси
145 борци
57 борците
453 борят
80 бос
49 боса
161 босненски
52 босненските
61 босненския
181 ботаник
186 ботаника
64 ботаниката
94 ботаническа
48 ботаническата
75 ботанически
50 ботуши
48 бохемски
87 бохемския
865 боя
82 боядисани
51 боядисване
75 боят
187 брада
51 брадата
113 брадва
81 брадви
90 бразда
136 бразилеца
68 бразилецът
81 бразилска
188 бразилската
473 бразилски
119 бразилските
356 бразилския
41 бразилският
99 бразилското
52 бразилците
2744 брак
1030 брака
226 бракове
43 бракониери
69 бракувани
277 бракът
59 брани
52 бранител
71 бранш
54 бранша
9751 брат
286 брата
1186 братовчед
97 братовчеди
72 братовчедите
325 братовчедка
61 братовчедката
190 братства
467 братство
76 братството
220 братът
2449 братя
1712 братята
112 браузър
89 браузъра
85 браузъри
61 брачен
43 брачна
51 брачни
209 брашно
2693 брега
308 брегова
384 бреговата
615 брегове
1336 бреговете
60 брегови
41 бреговите
63 бреза
43 бреме
205 бременна
67 бременната
66 бременни
282 бременност
175 бременността
2187 бригада
293 бригадата
207 бригаден
305 бригади
87 британеца
578 британска
1523 британската
2202 британски
972 британските
1020 британския
178 британският
214 британско
498 британското
89 британци
628 британците
94 брод
62 броеве
97 броене
81 броени
416 брои
7482 брой
116 бройка
69 бройката
455 бройки
137 бройна
282 бройни
57 брокер
51 бронебойни
102 броненосен
100 броненосец
65 броненосеца
155 броненосни
72 броненосните
89 броненосци
53 броненосците
132 бронетанкова
43 бронетанкови
258 бронз
790 бронзов
333 бронзова
295 бронзовата
472 бронзови
111 бронзовите
50 бронзовия
62 брони
95 брониран
204 бронирана
55 бронираната
61 брониране
317 бронирани
42 бронираните
509 броня
140 бронята
79 брошура
88 брошурата
88 брошури
2947 броя
1988 броят
46 брояч
67 брутално
67 брутен
76 брутния
252 бръмбар
242 бръмбари
74 бръснар
5621 бряг
250 бряга
95 бряст
82 буди
328 будизма
41 будизмът
201 будизъм
63 будисти
42 будистка
71 будистката
325 будистки
76 будистките
45 будители
75 будни
69 будно
53 буен
61 бузите
54 буйни
232 бук
957 буква
212 буквален
837 буквално
70 буквар
501 буквата
153 буквени
932 букви
258 буквите
48 букова
145 букови
144 була
61 булата
311 булевард
66 булеварда
63 булеварди
72 булка
109 булката
136 бум
42 бума
48 буна
124 бунар
49 бунгала
45 бункера
55 бункери
958 бунт
545 бунта
438 бунтове
122 бунтовете
47 бунтовник
238 бунтовници
349 бунтовниците
75 бунтовнически
52 бунтува
42 бунтуват
91 бунтът
41 бургаски
56 бургаския
65 бургундския
80 бурен
87 буржоазия
83 буржоазията
43 буржоазна
47 буржоазните
279 бури
133 бурите
69 бурна
128 бурни
63 бурните
175 бурно
57 бурното
510 буря
70 бурята
71 буталото
69 бутилирана
49 бутилиране
140 бутилка
70 бутилката
207 бутилки
75 бутон
50 бутона
52 бутони
49 буфер
77 буферна
42 бухал
159 бъбреците
100 бъбречна
43 бъбречни
109 бъда
8898 бъдат
17696 бъде
73 бъдем
136 бъдеш
367 бъдещ
195 бъдеща
578 бъдещата
741 бъдеще
740 бъдещето
353 бъдещи
454 бъдещите
980 бъдещия
413 бъдещият
114 бъдещо
202 бъдещото
10238 българи
553 българин
152 българина
91 българинът
51 българистика
3396 българите
146 българка
47 българката
43 българки
6108 българска
6195 българската
20049 български
4944 българските
4040 българския
821 българският
5585 българско
3401 българското
201 българщината
195 бърдо
443 бърз
387 бърза
104 бързата
52 бързеи
383 бързи
123 бързина
85 бързината
94 бързите
66 бързия
5047 бързо
381 бързото
342 бърка
74 бъркат
45 бъчва
94 бъчви
604 бюджет
330 бюджета
43 бюджети
61 бюджетни
45 бюджетът
89 бюлетин
83 бюлетини
51 бюлетините
81 бюра
801 бюро
42 бюрокрацията
175 бюрото
122 бюст
1347 бяга
52 бягайки
363 бягане
100 бягането
505 бягат
59 бягащи
415 бягство
271 бягството
1507 бял
902 бяла
281 бялата
957 бяло
175 бялото
125 бяс
217 бях
1367 бяха
85 бяхме
45 вавилонския
80 вагон
102 вагона
137 вагони
49 вагоните
133 вади
52 важат
1546 важен
200 важи
1948 важна
114 важната
1629 важни
332 важните
111 важния
1151 важно
304 важност
175 важността
73 важното
64 вази
145 ваканция
123 ваксина
45 ваксинация
57 ваксини
291 вал
77 вала
74 валеж
768 валежи
572 валежите
96 вали
97 валиден
51 валидна
112 валидни
56 валидно
53 валидност
66 валидността
388 валия
50 валията
108 валове
54 валс
468 валута
70 валутата
188 валутен
105 валути
44 валутна
43 валутни
41 валутните
48 валутния
149 вампир
64 вампира
138 вампири
56 вана
54 вандали
163 вандалите
43 ванилия
143 вар
75 варвари
87 варварите
118 варварски
82 варварските
74 варене
134 вари
2091 вариант
446 варианта
703 варианти
118 вариантите
48 вариантът
262 вариации
72 вариация
1452 варира
656 варират
102 вариращи
44 варненската
58 варненски
53 варненския
45 варненското
206 варовик
115 варовикови
43 варовити
190 варовици
57 варят
189 вас
358 васал
189 васали
89 васална
45 васални
88 васално
43 ват
49 вата
42 вашия
163 вграден
175 вградена
225 вградени
47 вдаващ
421 вдига
226 вдигане
55 вдигането
236 вдигат
52 вдигнал
111 вдигнат
66 вдигната
64 вдигнати
153 вдигне
85 вдишване
56 вдлъбнатини
75 вдовец
554 вдовица
304 вдовицата
193 вдовици
43 вдъхва
275 вдъхновен
182 вдъхновена
186 вдъхновени
310 вдъхновение
53 вдъхновението
80 вдъхновено
42 вдъхновител
254 вдъхновява
63 вдъхновяват
237 вдясно
2408 веднага
107 ведно
1572 веднъж
58 ведомства
172 ведомство
79 ведомството
288 везир
46339 век
1321 века
939 векове
47 вековен
302 вековете
71 вековна
155 вековни
47 вековните
142 вектор
67 вектора
112 вектори
960 велик
208 велика
49 великан
49 великани
161 великата
300 велики
268 великите
632 великия
162 великият
142 велико
69 великолепен
58 великолепна
65 великолепни
46 великолепно
58 великомъченик
51 великото
49 величествена
88 величие
79 величието
575 величина
67 величината
165 величини
47 велможи
71 велосипед
143 велосипеди
65 вена
325 венец
59 венецианската
139 венециански
49 венецианските
71 венецианския
130 венецианците
74 вени
77 вените
57 вентилация
118 венци
48 венчани
49 вербуван
340 верен
1143 верига
486 веригата
530 вериги
86 веригите
70 верижна
51 верижни
294 верни
68 верните
84 верността
204 вероизповедание
65 вероизповедания
65 вероизповеданията
67 вероятен
63 вероятна
52 вероятни
5616 вероятно
432 вероятност
85 вероятностите
238 вероятността
1582 версии
239 версиите
4377 версия
472 версията
41 вертикала
79 вертикален
152 вертикална
61 вертикалната
218 вертикални
269 вертикално
45 вертолет
51 вертолета
63 вертолети
44 весел
55 весели
54 вест
69 вести
4397 вестник
877 вестника
217 вестникът
825 вестници
510 вестниците
110 вестта
152 ветеран
48 ветерана
216 ветерани
143 ветераните
75 ветеринарен
96 ветеринарна
155 вето
532 ветрове
160 ветровете
11632 вече
135 вечен
880 вечер
164 вечери
42 вечерни
87 вечерно
516 вечерта
233 вечеря
70 вечна
137 вечната
87 вечни
113 вечния
192 вечно
116 вечнозелени
58 вечността
54 вечното
59 вещ
1508 вещества
180 веществата
754 вещество
157 веществото
257 вещи
64 вещите
88 вещица
94 вещици
81 взаимна
57 взаимната
76 взаимни
41 взаимните
632 взаимно
89 взаимното
113 взаимодейства
101 взаимодействат
506 взаимодействие
192 взаимодействието
153 взаимодействия
45 взаимодействията
381 взаимоотношения
206 взаимоотношенията
126 взаимопомощ
44 взаимствани
228 взвод
57 взводен
169 взе
508 взел
105 взела
244 взели
43 взело
2927 взема
79 вземайки
69 вземали
220 вземане
162 вземането
61 вземания
1365 вземат
934 вземе
41 вземем
347 взет
194 взета
570 взети
69 взетите
757 взето
47 взетото
41 взеха
2706 взима
65 взимайки
61 взимане
59 взимането
815 взимат
296 взрив
141 взрива
61 взривен
62 взривена
50 взриви
96 взривни
54 взривно
57 взривове
154 взривява
44 взривяване
53 взривяването
70 взривяват
578 ви
83 вибрации
51 вибрациите
35558 вид
7972 вида
120 видели
607 виден
103 видени
84 видение
76 видения
1598 видео
105 видеоигри
287 видеото
827 види
195 видим
233 видима
117 видимата
211 видими
72 видимия
241 видимо
172 видимост
57 видимостта
94 видите
68 видна
609 видни
160 видните
350 видния
96 видният
213 видно
6039 видове
717 видовете
47 видовото
48 видоизменени
104 видра
86 видри
410 видът
73 видя
283 видял
47 видяла
112 видян
87 видяна
43 видяно
41 видяното
733 видят
69 видях
149 вие
58 виенската
79 виенски
69 виенския
88 виетнамски
974 виж
1963 вижда
130 виждайки
129 виждал
95 виждали
46 виждам
83 виждаме
204 виждане
55 виждането
146 виждания
73 вижданията
871 виждат
277 вижте
88 виза
557 византийска
603 византийската
1045 византийски
401 византийските
865 византийския
166 византийският
160 византийско
194 византийското
111 византийци
522 византийците
45 визи
91 визита
67 визитата
49 визуален
51 визуализация
82 визуална
128 визуални
62 визуалните
120 визуално
57 вик
117 вика
172 викарий
56 викат
46 викинги
170 викингите
70 викове
80 виконт
266 вила
777 вилает
311 вилаета
51 вилаети
1634 вилаетите
48 вилаетския
127 вилата
188 вили
618 вина
2982 винаги
53 винарска
55 винарство
228 вината
137 винен
64 винителен
802 вино
219 виновен
95 виновни
47 виновник
49 виновниците
241 виното
177 винт
47 винта
48 винтове
48 винтовка
74 виола
45 виолетови
115 виолончело
577 випуск
69 випуска
60 вир
81 вирее
96 виреят
53 виртуален
127 виртуална
71 виртуалната
99 виртуални
253 вирус
397 вируса
241 вируси
87 вирусите
60 вирусни
125 вирусът
56 виси
51 вискозитет
1481 висок
2624 висока
664 високата
1791 високи
770 високите
252 високия
62 високият
2345 високо
52 висококачествен
124 висококачествени
53 висококвалифицирани
124 високопланински
80 високопланинските
43 високопоставен
119 високопоставени
49 високоскоростен
41 високоскоростна
48 високоскоростни
433 високосна
298 високото
14706 височина
845 височината
495 височини
204 височините
339 висш
311 висша
247 висшата
1110 висше
584 висшето
883 висши
379 висшите
149 висшия
43 висящ
87 висящи
346 витамин
159 витамини
61 вихъра
209 вицеадмирал
76 вицеконсул
93 вицекрал
52 вицекраля
573 вицепрезидент
78 вицепрезидента
43 вицепрезидентът
78 вкаменелости
268 вкара
128 вкарал
106 вкаран
122 вкарани
2011 вкарва
108 вкарвайки
108 вкарват
228 включат
8795 включва
207 включвайки
108 включвал
102 включвала
75 включвали
46 включвало
43 включван
315 включване
390 включването
60 включвани
3536 включват
608 включващ
669 включваща
485 включващи
290 включващо
1548 включен
1248 включена
1941 включени
62 включените
418 включено
461 включи
52 включил
58 включили
6625 включително
100 вкопана
45 вкопани
767 вкус
132 вкуса
82 вкусове
86 вкусови
44 вкусът
246 вкъщи
289 влага
59 влагалището
73 влагат
85 влагата
388 владее
42 владеел
93 владеене
50 владеенето
1086 владение
274 владението
1077 владения
545 владенията
2445 владетел
850 владетели
256 владетелите
46 владетелка
67 владетелска
42 владетелската
70 владетелски
375 владетеля
169 владетелят
172 владеят
363 владика
220 владиката
871 владичество
56 владичеството
41 владишки
51 владишкия
41 владишкият
222 влажен
144 влажна
354 влажни
123 влажните
67 влажно
269 влажност
92 влажността
438 влак
236 влака
324 влакна
41 влакната
60 влакно
354 влакове
90 влаковете
48 влакът
534 власи
104 власинки
103 власите
7844 власт
82 властва
2625 власти
1115 властите
4069 властта
51 влах
173 влашки
52 влашките
92 влашкия
210 влашко
73 влашкото
49 влее
850 влезе
171 влезли
97 влечение
325 влечуги
118 влечугите
1087 влечуго
1279 влива
72 вливане
425 вливането
399 вливат
264 вливаща
112 вливащи
6397 влиза
133 влизайки
59 влизал
125 влизали
41 влизало
437 влизане
544 влизането
3614 влизат
93 влизащи
316 влияе
4757 влияние
1627 влиянието
324 влияния
181 влиятелен
123 влиятелна
50 влиятелната
256 влиятелни
47 влиятелните
86 влиятелния
214 влияят
94 вложени
46 вложените
460 влошава
158 влошаване
48 влошаването
197 влошават
89 влошено
67 влошеното
366 влюбва
72 влюбват
126 влюбен
92 влюбена
70 влюбени
192 вляво
226 влязат
61 влязла
223 влязъл
136 вместимост
2438 вместо
43 вмешателство
45 вмъква
49 вмъкване
421 внася
54 внасяне
53 внасянето
191 внасят
47 внедрени
44 внедрява
86 внедряване
86 внедряването
41 внезапен
49 внезапна
74 внезапната
466 внезапно
86 внесе
115 внесен
75 внесена
183 внесени
58 внимава
1542 внимание
1157 вниманието
337 внимателно
291 внос
167 вноса
44 вносител
54 вноска
107 вноски
61 вносни
1198 внук
161 внука
58 внукът
114 внуци
63 внуците
501 внучка
71 внучката
61 внушава
77 внушение
80 внушителен
106 внушителна
80 внушителни
6059 вода
3965 водата
962 водач
243 водача
193 водачеството
357 водачи
364 водачите
100 водачът
94 водейки
70 водел
42 водела
88 водели
827 воден
640 водена
88 водената
294 водене
106 воденето
832 водени
54 водените
117 воденица
102 воденици
151 водено
48 водеше
1379 водещ
862 водеща
269 водещата
723 водещи
876 водещите
141 водещия
109 водещият
159 водещо
52 водещото
10786 води
127 водил
52 водила
90 водили
1186 водите
65 водка
528 водна
225 водната
1046 водни
309 водните
172 водния
47 водният
1016 водно
61 водноелектрическа
67 водноелектрически
218 водното
158 вододел
135 вододела
65 водоем
55 водоема
285 водоеми
52 водоемите
54 водозащитни
190 водоизместимост
72 водолинията
282 водопад
202 водопада
179 водопади
64 водопадите
41 водопадът
175 водопровод
274 водорасли
305 водород
95 водорода
60 водороден
45 водородна
80 водородни
135 водосборен
81 водосборните
744 водосборния
268 водосборният
122 водоснабдено
171 водоснабдяване
110 водоснабдяването
72 водохранилище
2558 водят
620 военачалник
78 военачалника
170 военачалници
43 военачалниците
4209 военен
3428 военна
1570 военната
4556 военни
2184 военните
727 военния
134 военният
1890 военно
79 военновременните
44 военновъздушна
254 военновъздушни
139 военновъздушните
195 военноморска
70 военноморската
613 военноморски
168 военноморските
158 военноморския
74 военноморско
51 военнопленник
190 военнопленници
44 военнопленниците
201 военнослужещи
42 военнослужещите
869 военното
409 вожд
99 вожда
153 вождове
49 вождовете
206 воин
256 воини
87 воините
2784 войвода
693 войводата
212 войводи
161 войводите
91 войн
33965 война
9107 войната
3129 войни
686 войник
409 войника
1123 войните
3354 войници
878 войниците
99 войнишки
52 войнство
2703 войска
1271 войската
7531 войски
2192 войските
61 войскова
173 войскови
43 войсковите
562 вокал
80 вокала
115 вокален
504 вокали
198 вокалите
123 вокална
47 вокалната
138 вокални
64 вокалните
54 вокално
44 волан
113 волана
482 волейбол
53 волейбола
44 волейболен
78 волейболист
79 волове
47 волски
109 волските
55 волта
89 волфрам
543 воля
405 волята
97 восък
240 вот
121 вота
454 воюва
44 воювали
184 воюват
102 воюващи
89 воюващите
215 впечатлен
67 впечатлени
512 впечатление
77 впечатлението
136 впечатления
59 впечатленията
59 впечатли
193 впечатлява
56 впечатляват
83 впечатляващ
110 впечатляваща
120 впечатляващи
56 впечатляващите
68 впечатляващо
154 вписан
99 вписана
111 вписани
88 вписано
127 вписва
70 вписват
51 впише
42 вплетени
3358 впоследствие
55 впрочем
45 впръскване
58 впрягове
108 впуска
42 впускат
56 врабче
618 враг
298 врага
550 врагове
258 враговете
242 вражда
92 враждата
45 враждебна
92 враждебни
102 враждебно
83 враждебност
46 враждебността
58 вражди
67 враждуващи
53 враждуващите
58 вражеска
49 вражеската
247 вражески
128 вражеските
56 врана
1025 врата
825 вратар
70 вратари
87 вратарите
132 вратаря
114 вратарят
601 вратата
971 врати
302 вратите
100 вреда
139 вреди
79 вредители
142 вредни
62 вредните
45 вредно
57860 време
112 времеви
2072 времена
146 времената
329 временен
221 временна
59 временната
250 временни
45 временните
1365 временно
208 временното
11702 времето
101 времетраене
46 времетраенето
52 вродени
41 връв
5862 връзка
1248 връзката
2434 връзки
576 връзките
75 връстниците
5308 връх
56 връхна
66 връхната
42 връхни
453 връчва
55 връчвана
284 връчване
99 връчването
148 връчват
114 връчен
178 връчена
90 връчени
5211 връща
73 връщайки
607 връщане
680 връщането
913 връщат
46 врязани
50 врязва
8720 все
80 всевъзможни
9008 всеки
41 всекидневието
105 всекидневник
53 всекидневния
75 всекидневно
148 вселена
205 вселената
214 вселенски
48 всеобщ
93 всеобща
169 всеобщо
70 всеобщото
46 всестранно
62 всеядни
60 всичката
23810 всички
2212 всичките
3865 всичко
71 всичкото
1140 вследствие
56 всред
168 встрани
268 встъпва
69 встъпване
135 встъпването
44 встъпват
60 встъпи
1804 всъщност
6190 всяка
226 всякаква
707 всякакви
109 всякакво
299 всякакъв
2061 всяко
53 всякога
66 всячески
2840 втора
6789 втората
5623 втори
175 вторите
81 вторичен
67 вторична
49 вторичната
142 вторични
43 вторичните
269 вторично
4109 втория
3217 вторият
308 вторник
2184 второ
135 второкласен
68 второстепенен
107 второстепенна
147 второстепенни
45 второстепенните
1978 второто
191 вуйчо
286 вулкан
412 вулкана
217 вулкани
63 вулканите
164 вулканичен
173 вулканична
45 вулканичната
193 вулканични
50 вулканичните
45 вулканично
86 вулканът
703 вход
973 входа
65 входна
133 входната
58 входни
59 входните
49 входния
53 входното
87 входове
52 входовете
80 входът
42 вчера
63457 във
68 въведат
239 въведе
665 въведен
590 въведена
393 въведени
56 въведение
358 въведено
1467 въвежда
402 въвеждане
748 въвеждането
336 въвеждат
71 въвел
102 въвлечен
47 въвлечена
76 въвлечени
55 въвлича
102 въглеводороди
53 въглен
200 въглерод
89 въглерода
347 въглероден
162 въглеродни
85 въглеродния
145 въглехидрати
50 въглехидратите
843 въглища
60 въглищата
58 въглищни
74 въдворен
194 въже
125 въжета
57 въжетата
83 въжето
1010 въз
61 възбуда
44 възведен
350 възвишение
249 възвишението
569 възвишения
143 възвишенията
287 възвръща
78 възвръщане
70 възвръщането
79 възвръщат
93 възвърнат
196 възвърне
61 възглавница
65 възглавници
154 възглавява
51 възглавявана
150 възглед
48 възгледа
734 възгледи
250 възгледите
97 въздейства
625 въздействие
396 въздействието
82 въздействия
47 въздига
43 въздигнат
957 въздух
1409 въздуха
61 въздухоплаване
47 въздухоплаването
47 въздухоплавателни
93 въздухът
349 въздушен
394 въздушна
108 въздушната
664 въздушни
230 въздушните
125 въздушния
296 въздушно
46 въздушнодесантна
172 въздушното
47 въздържа
65 въздържал
91 въздържали
51 въздържание
83 въздържат
740 възел
466 възела
390 възкачва
293 възкачването
52 възкачи
45 възкликва
358 възлага
70 възлагат
328 възли
1591 възлиза
220 възлизат
48 възлите
109 възложена
47 възложени
226 възложено
56 възмездие
304 възможен
309 възможна
750 възможни
200 възможните
2453 възможно
3749 възможност
1191 възможности
593 възможностите
1450 възможността
69 възмущение
157 възнаграждение
51 възнаграждения
218 възнамерява
1531 възниква
272 възникване
416 възникването
600 възникват
42 възникващи
228 възникнал
174 възникнала
259 възникнали
64 възникналите
266 възникнало
51 възникнат
70 възникне
98 възобновен
98 възобновена
54 възобновени
48 възобновено
57 възобнови
209 възобновява
76 възобновяване
56 възобновяването
68 възобновяват
83 възобновяеми
180 възпаление
51 възпира
85 възпитава
70 възпитаван
64 възпитан
363 възпитание
153 възпитанието
137 възпитаник
194 възпитаници
101 възпитаниците
119 възпитател
490 възползва
112 възползвайки
238 възползват
126 възпоменателен
123 възпрепятства
70 възпрепятстват
54 възприели
625 възприема
45 възприеман
41 възприемана
140 възприемане
105 възприемането
53 възприемани
370 възприемат
50 възприеме
136 възприет
140 възприета
105 възприети
124 възприето
124 възприятие
70 възприятието
55 възприятия
41 възприятията
107 възпроизвежда
160 възпроизвеждане
45 възпроизвеждането
59 възпроизвеждат
174 възражда
426 възраждане
185 възраждането
56 възражения
44 възраженията
44 възразява
7711 възраст
222 възрастен
97 възрасти
60 възрастна
727 възрастни
535 възрастните
58 възрастния
44 възрастов
88 възрастова
162 възрастови
557 възрастта
65 възроди
86 възрожденец
370 възрожденска
92 възрожденската
270 възрожденски
45 възрожденския
51 възрожденци
691 възстановен
645 възстановена
122 възстановената
253 възстановени
305 възстановено
659 възстанови
52 възстановил
987 възстановява
1124 възстановяване
990 възстановяването
310 възстановяват
195 възстановят
69 възторг
51 възторжено
51 възхвала
67 възхвалява
75 възхищава
89 възхищение
52 възхищението
234 възход
162 възхода
72 възцаряването
284 вълк
65 вълка
1243 вълна
408 вълната
43 вълнен
53 вълнени
82 вълнение
234 вълнения
56 вълненията
740 вълни
174 вълните
56 вълновата
43 вълнува
198 вълци
111 вълците
122 вън
1076 външен
813 външна
998 външната
768 външни
1508 външните
552 външния
142 външният
400 външно
45 външнополитическа
117 външнополитически
77 външност
144 външното
41 въображаем
47 въображаеми
114 въображение
122 въображението
513 въобще
43 въоръжава
