
\data\
ngram 1=52104
ngram 2=2875

\1-grams:
1 <unk>
1 <s>
1 </s>
1 <num>
748 -chlorid
622 -fach
405 -fluorid
285 -funktionär
3856 -mal
1230 -oxid
3041 -trainer
328 -verarbeitung
540 A-Dur
300 A-Gruppe
1200 A-Jugend
330 A-Junioren
283 A-Kader
563 A-Klasse
401 A-Länderspiel
411 A-Länderspiele
357 A-Mannschaft
2678 A-Nationalmannschaft
415 A-Seite
523 A-Team
298 A-Weltmeisterschaften
2741 AB
2490 ABC
1076 AD
1093 ADAC
1678 AEG
55781 AG
426 AGS
273 AI
1510 AIDS
262 ALBA
326 ALP
1337 AMD
730 AOK
466 AOL
649 API
420 AR
4939 ARD
274 ARD-Serie
371 ARGE
261 ARM
529 ART
774 ARTE
320 ASCII
1449 AT
554 AU
17223 Aachen
4786 Aachener
368 Aachens
515 Aal
370 Aale
1940 Aalen
268 Aalst
3326 Aargau
867 Aas
1975 Ab
8443 Abbau
493 Abbaus
600 Abberufung
1793 Abbild
318 Abbilder
7588 Abbildung
4047 Abbildungen
254 Abbrennen
5528 Abbruch
1498 Abdankung
1086 Abdeckung
596 Abdichtung
802 Abdruck
396 Abdrücke
2159 Abel
12648 Abend
334 Abendblatt
387 Abenddämmerung
415 Abende
461 Abenden
940 Abendessen
339 Abendgymnasium
459 Abendland
435 Abendlandes
1679 Abendmahl
396 Abendmahls
263 Abendprogramm
1341 Abends
458 Abendschule
708 Abendstunden
348 Abendzeitung
6178 Abenteuer
917 Abenteuerfilm
883 Abenteuern
1192 Abenteurer
346 Aberglaube
570 Aberglauben
451 Aberkennung
384 Abessinien
7287 Abfahrt
1310 Abfahrten
2194 Abfall
305 Abfallwirtschaft
339 Abfangjäger
877 Abfassung
418 Abfertigung
319 Abfeuern
711 Abfindung
365 Abflug
3501 Abfluss
559 Abflussmenge
301 Abflüsse
2726 Abfolge
454 Abfrage
252 Abfragen
356 Abfuhr
1445 Abfälle
687 Abfällen
294 Abfüllung
2989 Abgabe
3422 Abgaben
273 Abgabenordnung
1478 Abgang
452 Abgas
737 Abgase
8328 Abgeordnete
13418 Abgeordneten
3510 Abgeordnetenhaus
1807 Abgeordnetenhauses
1471 Abgeordnetenkammer
668 Abgeordnetenmandat
23807 Abgeordneter
315 Abgesandte
431 Abgesandten
258 Abgesandter
710 Abgeschiedenheit
580 Abgleich
7043 Abgrenzung
445 Abgrenzungen
825 Abgrund
258 Abgründe
427 Abgänge
3140 Abhandlung
2496 Abhandlungen
1013 Abhang
336 Abheben
675 Abhilfe
660 Abholzung
363 Abhängen
7893 Abhängigkeit
896 Abhängigkeiten
285 Abhören
330 Abi
28986 Abitur
498 Abiturienten
447 Abiturprüfung
400 Abiturs
2040 Abkehr
268 Abklingen
291 Abklärung
7753 Abkommen
1600 Abkommens
297 Abkunft
607 Abkömmling
546 Abkömmlinge
504 Abkühlen
1264 Abkühlung
8929 Abkürzung
1069 Abkürzungen
510 Ablage
931 Ablagerung
2635 Ablagerungen
523 Ablass
8859 Ablauf
1750 Ableben
670 Ablegen
2491 Ableger
564 Ablegung
6946 Ablehnung
672 Ableistung
3386 Ableitung
934 Ableitungen
805 Ablenkung
570 Ablieferung
1393 Abläufe
322 Abläufen
704 Ablöse
1670 Ablösesumme
3388 Ablösung
444 Abmachung
254 Abmachungen
2713 Abmessungen
266 Abmischung
2413 Abnahme
1090 Abnehmer
1447 Abneigung
561 Abnutzung
562 Abonnement
266 Abonnements
1029 Abonnenten
686 Abordnung
6014 Abraham
490 Abrahams
439 Abraum
1518 Abrechnung
1818 Abreise
307 Abrieb
5720 Abriss
426 Abruf
771 Abrüstung
1281 Absage
4740 Absatz
303 Absatzes
345 Absatzmarkt
320 Absatzmärkte
5225 Abschaffung
403 Abschalten
683 Abschaltung
361 Abscheidung
322 Abscheu
538 Abschiebung
4643 Abschied
423 Abschiedsbrief
294 Abschiedskonzert
260 Abschiedsspiel
501 Abschirmung
352 Abschlag
40816 Abschluss
466 Abschlussarbeit
607 Abschlussbericht
327 Abschlusses
262 Abschlussfilm
1061 Abschlussprüfung
724 Abschlusstabelle
307 Abschläge
1083 Abschlüsse
377 Abschlüssen
382 Abschmelzen
1077 Abschneiden
32604 Abschnitt
6011 Abschnitte
3428 Abschnitten
818 Abschnittes
1635 Abschnitts
696 Abschreckung
365 Abschreibungen
1391 Abschrift
936 Abschriften
1203 Abschuss
481 Abschwächung
821 Abschätzung
415 Abschüsse
520 Abseits
806 Absender
945 Absenkung
629 Absetzen
2643 Absetzung
1938 Absicherung
6923 Absicht
1894 Absichten
286 Absichtserklärung
691 Absinken
448 Absolute
253 Absoluten
957 Absolutismus
1174 Absolvent
2651 Absolventen
868 Absolvierung
1082 Absorption
3167 Abspaltung
335 Abspaltungen
1833 Abspann
318 Absperrbauwerk
532 Abspielen
1577 Absprache
620 Absprachen
307 Absprung
13023 Abstammung
17206 Abstand
252 Abstandes
773 Abstecher
2395 Absteiger
374 Abstellen
736 Absterben
12111 Abstieg
339 Abstiegs
252 Abstiegsgefahr
803 Abstiegskampf
623 Abstiegsplatz
933 Abstiegsrunde
6027 Abstimmung
943 Abstimmungen
622 Abstinenz
379 Abstrahlung
436 Abstrakten
1253 Abstraktion
473 Abstufung
465 Abstufungen
2742 Absturz
1051 Abstände
4953 Abständen
358 Absätze
12606 Abt
276 Abtastung
11546 Abtei
447 Abteien
409 Abteil
332 Abteile
30596 Abteilung
6762 Abteilungen
2775 Abteilungsleiter
1527 Abtes
422 Abteufen
577 Abtragung
1300 Abtransport
968 Abtreibung
1490 Abtrennung
1305 Abtretung
259 Abtrieb
478 Abwahl
2011 Abwanderung
1139 Abwandlung
628 Abwandlungen
1269 Abwasser
270 Abwasserentsorgung
666 Abwechslung
5798 Abwehr
272 Abwehrkampf
2910 Abwehrspieler
264 Abwehrspielers
2572 Abweichung
3304 Abweichungen
662 Abwendung
703 Abwertung
5293 Abwesenheit
1907 Abwicklung
590 Abwurf
455 Abwägung
477 Abwärme
905 Abwässer
266 Abwässern
2162 Abzeichen
5412 Abzug
266 Abzweigstelle
1394 Abzweigung
352 Abzweigungen
351 Abzüge
295 Abänderung
718 Accessoires
370 Account
372 Accounting
551 Acer
418 Aceton
847 Ach
755 Achilles
1769 Achim
6344 Achse
258 Achsel
534 Achseln
4199 Achsen
809 Achsenmächte
876 Achsfolge
426 Achslast
2131 Acht
1014 Achte
257 Achteck
614 Achtel
5031 Achtelfinale
3133 Achter
824 Achterbahn
299 Achterbahnen
278 Achterdeck
261 Achterschiff
339 Achttausender
1377 Achtung
523 Achtungserfolg
490 Achtziger
413 Achtzigjährigen
2657 Acker
4864 Ackerbau
273 Ackerbauern
1048 Ackerfläche
826 Ackerflächen
2083 Ackerland
1345 Ackermann
291 Acryl
552 Acta
3424 Action
1125 Actionfilm
256 Actionkomödie
966 Ad
1121 Ada
12949 Adam
6382 Adams
669 Adapter
2221 Adaption
617 Adaptionen
1693 Addition
257 Additive
7343 Adel
291 Adelboden
1105 Adele
1250 Adelige
1819 Adeligen
691 Adeliger
4128 Adels
3472 Adelsfamilie
1352 Adelsfamilien
5550 Adelsgeschlecht
746 Adelsgeschlechter
290 Adelsgeschlechtern
423 Adelsgeschlechtes
1917 Adelsgeschlechts
273 Adelsprädikat
540 Adelssitz
2918 Adelsstand
1315 Adelstitel
2055 Adenauer
405 Adenauers
513 Ader
1150 Adern
366 Adidas
1465 Adjektiv
515 Adjektive
270 Adjektiven
643 Adjunkt
2392 Adjutant
605 Adjutanten
9756 Adler
299 Adlern
715 Adlerorden
362 Adlerordens
798 Adlers
1789 Adlige
3031 Adligen
1536 Adliger
4201 Administration
1037 Administrative
2439 Administrator
419 Administratoren
7306 Admiral
1577 Admiralität
1253 Admirals
1047 Adobe
24122 Adolf
558 Adolfs
3596 Adolph
382 Adonis
1086 Adoption
553 Adoptivsohn
317 Adoptivtochter
568 Adorno
446 Adrenalin
657 Adressaten
586 Adressbuch
4479 Adresse
1504 Adressen
344 Adressierung
2149 Adria
2948 Adrian
435 Adrianopel
260 Adsorption
514 Advent
307 Adventszeit
916 Advokat
426 Advokaten
836 Aerodynamik
478 Affe
350 Affekt
343 Affekte
2009 Affen
986 Affinität
269 Affront
5158 Affäre
827 Affären
310 Afghanen
6247 Afghanistan
925 Afghanistans
16049 Afrika
333 Afrikaforscher
322 Afrikakorps
673 Afrikameisterschaft
1153 Afrikaner
296 Afrikanern
971 Afrikanische
1293 Afrikanischen
3725 Afrikas
1697 Afroamerikaner
3911 Afroamerikanern
1637 After
1839 Afterflosse
266 Agadir
836 Agave
270 Agaven
1027 Agenda
304 Agenden
4239 Agent
3569 Agenten
608 Agentin
3651 Agentur
935 Agenturen
532 Agfa
1713 Agglomeration
283 Agglomerationen
537 Aggregat
729 Aggregate
250 Aggregation
941 Aggression
368 Aggressionen
684 Aggressivität
656 Agios
1012 Agitation
564 Agrarpolitik
427 Agrarwirtschaft
490 Agrarwissenschaften
409 Agrarwissenschaftler
1092 Ahlen
1385 Ahnen
328 Ahnherr
580 Ahnung
705 Ahorn
624 Aids
452 Airbags
2397 Airbus
841 Airline
6313 Airlines
42475 Akademie
1749 Akademien
1009 Akademiker
313 Akademikern
970 Akademische
1797 Akademischen
649 Akademischer
375 Akazien
607 Akkord
751 Akkorde
508 Akkorden
1235 Akkordeon
666 Akkreditierung
561 Akku
432 Akkumulation
677 Akkumulatoren
548 Akkus
471 Akkusativ
394 Akquisition
1304 Akronym
1090 Akropolis
4301 Akt
2195 Akte
4776 Akten
449 Aktenzeichen
418 Aktes
826 Akteur
2913 Akteure
1119 Akteuren
1319 Aktie
5667 Aktien
6721 Aktiengesellschaft
707 Aktiengesellschaften
747 Aktienindex
390 Aktienkapital
255 Aktienkapitals
799 Aktienmehrheit
12396 Aktion
7585 Aktionen
281 Aktionsgemeinschaft
261 Aktionsplan
299 Aktionsradius
449 Aktionär
1215 Aktionäre
404 Aktionären
437 Aktiv
341 Aktiva
659 Aktive
942 Aktiven
571 Aktiver
2107 Aktivierung
1511 Aktivist
2097 Aktivisten
441 Aktivistin
6191 Aktivität
18711 Aktivitäten
295 Aktivkohle
265 Aktoren
747 Aktualisierung
262 Aktualisierungen
763 Aktualität
310 Aktuell
306 Aktuelle
343 Akupunktur
1350 Akustik
1518 Akzent
1322 Akzente
2658 Akzeptanz
5690 Alabama
377 Alabaster
1295 Alarm
400 Alarmierung
5202 Alaska
851 Alaskas
2762 Alb
343 Alb-Donau-Kreis
2536 Alba
1302 Albaner
335 Albanern
3799 Albanien
501 Albanisch
665 Albatros
19708 Alben
23863 Albert
1631 Albert-Ludwigs-Universität
449 Alberts
268 Albino
1288 Albion
14404 Albrecht
1024 Albrechts
270 Albtraum
96301 Album
866 Album-Charts
13156 Albums
600 Alchemie
321 Alchemist
261 Alchemisten
353 Aldi
745 Alemannen
305 Alert
6080 Alex
34244 Alexander
954 Alexanderplatz
2355 Alexanders
2767 Alexandra
4868 Alexandria
777 Alf
2236 Alfa
3559 Alfons
20742 Alfred
2216 Algebra
2041 Algen
4244 Algerien
264 Algerienkrieg
531 Algeriens
1819 Algier
1771 Algorithmen
2950 Algorithmus
400 Alias
485 Alibi
6070 Alice
6099 Alkohol
945 Alkoholgehalt
623 Alkoholiker
756 Alkoholismus
685 Alkoholkonsum
10950 All
2766 All-Star
597 All-Star-Team
443 All-Stars
514 Allah
1961 Alle
3973 Allee
663 Alleen
841 Allegorie
571 Allegorien
592 Allegro
500 Allein
864 Alleingang
425 Alleinherrschaft
313 Alleinherrscher
262 Alleininhaber
5937 Allen
1412 Aller
264 Allergie
489 Allergien
895 Allerheiligen
353 Allerheiligsten
2126 Alles
567 Allesfresser
265 Allgemein
424 Allgemeinbildung
6924 Allgemeine
18827 Allgemeinen
510 Allgemeiner
454 Allgemeines
1618 Allgemeinheit
278 Allgemeinmedizin
2730 Allgäu
6559 Allianz
482 Allianzen
356 Allianzwappen
323 Alligator
471 Alliierte
9796 Alliierten
272 Allmacht
1424 Allradantrieb
5093 Alltag
1091 Alltags
250 Alltagsgegenstände
344 Alltagskultur
883 Alltagsleben
709 Alltagssprache
1208 Alm
506 Almanach
410 Almen
475 Almosen
268 Almost
839 Alp
14142 Alpen
748 Alpenraum
494 Alpenverein
814 Alpenvereins
901 Alpenvorland
2110 Alpha
3027 Alphabet
1356 Alphabets
295 Alpin
1400 Alpine
901 Alpinen
325 Alpinisten
594 Alster
5478 Alt
12219 Altar
459 Altaraufsatz
255 Altarbereich
1791 Altarbild
455 Altarbilder
678 Altarblatt
342 Altares
283 Altargemälde
345 Altarm
1995 Altarraum
1945 Altars
400 Altartisch
328 Altarwand
674 Altbau
331 Altbauten
986 Altbischof
1685 Altdorf
12744 Alte
18056 Alten
256 Altenau
1728 Altenberg
3077 Altenburg
698 Altendorf
893 Altenheim
1334 Altenkirchen
350 Altenmarkt
377 Altenpflege
521 Altenstadt
351 Altenstein
76384 Alter
463 Altern
9006 Alternative
2565 Alternativen
698 Alternativtitel
4133 Alters
308 Altersbestimmung
266 Altersdurchschnitt
834 Altersgrenze
1321 Altersgruppe
1041 Altersgruppen
1497 Altersgründen
905 Altersheim
1359 Altersklasse
1007 Altersklassen
272 Alterspräsident
313 Altersstruktur
516 Altersstufen
458 Altersversorgung
353 Altersvorsorge
1779 Altertum
794 Altertums
840 Altertumskunde
574 Altertumswissenschaft
418 Altertumswissenschaften
485 Alterung
389 Alterzbischof
1455 Altes
473 Altgriechisch
424 Altgriechischen
377 Althaus
471 Altheim
1011 Althistoriker
421 Althochdeutschen
483 Altkreis
299 Altlasten
610 Altmann
1723 Altmark
293 Altmarkt
295 Altmeister
3364 Altona
863 Altphilologe
272 Altphilologen
363 Altphilologie
515 Altsaxophon
16957 Altstadt
748 Altsteinzeit
457 Altstädter
293 Altstätten
307 Altvögel
260 Altweltmäuse
2229 Altäre
595 Altären
4463 Aluminium
315 Aluminiumoxid
405 Alzheimer
346 Alzheimer-Krankheit
13373 Am
2922 Amadeus
2975 Amateur
329 Amateurastronomen
583 Amateurbereich
332 Amateurboxer
2811 Amateure
1212 Amateuren
335 Amateurlager
1513 Amateurliga
309 Amateurligen
843 Amateurmannschaft
254 Amateurmeister
645 Amateurmeisterschaft
364 Amateurnationalmannschaft
262 Amateuroberliga
414 Amateurverein
890 Amazon
1453 Amazonas
273 Amazone
411 Amazonen
694 Ambiente
1711 Ambitionen
332 Ambivalenz
304 Amboss
334 Ambulanz
305 Ameise
1929 Ameisen
286 Amen
15948 Amerika
8126 Amerikaner
670 Amerikanerin
2132 Amerikanern
1637 Amerikanische
4541 Amerikanischen
485 Amerikanischer
2472 Amerikas
410 Ami
877 Aminosäure
2203 Aminosäuren
352 Amis
558 Amme
1548 Ammoniak
373 Ammoniten
271 Amnesie
1173 Amnestie
934 Amnesty
474 Amoklauf
844 Amor
372 Ampel
298 Ampeln
365 Ampere
1813 Amphibien
904 Amphitheater
1118 Amplitude
360 Amplituden
322 Amputation
446 Amrum
338 Amsel
15669 Amsterdam
1833 Amsterdamer
286 Amsterdams
97295 Amt
290 Amte
10520 Amtes
282 Amtliche
2346 Amtmann
276 Amtmanns
2707 Amts
2571 Amtsantritt
909 Amtsbezeichnung
3274 Amtsbezirk
554 Amtsbezirks
775 Amtsblatt
477 Amtsdauer
277 Amtseid
1127 Amtseinführung
454 Amtsenthebung
287 Amtsenthebungsverfahren
756 Amtsführung
6263 Amtsgericht
490 Amtsgerichte
601 Amtsgerichten
265 Amtsgerichtes
1243 Amtsgerichts
272 Amtsgerichtsbezirk
1174 Amtsgeschäfte
255 Amtshandlung
449 Amtshandlungen
522 Amtshauptmann
900 Amtshauptmannschaft
861 Amtshaus
2346 Amtsinhaber
337 Amtsjahr
397 Amtskollegen
518 Amtsleiter
374 Amtsnachfolger
1287 Amtsperiode
354 Amtsperioden
631 Amtsrichter
1883 Amtssitz
1983 Amtssprache
471 Amtssprachen
1048 Amtsträger
256 Amtsträgern
315 Amtsverwaltung
523 Amtsvorgänger
340 Amtsvorsteher
23342 Amtszeit
1218 Amtszeiten
428 Amtsübernahme
386 Amulett
292 Anagramm
354 Anale
257 Analog
1666 Analogie
425 Analogien
325 Analogon
352 Analphabeten
11279 Analyse
3331 Analysen
2220 Analysis
270 Analysten
536 Analytik
325 Analytiker
296 Analytische
362 Anamnese
487 Ananas
617 Anarchie
950 Anarchismus
492 Anarchist
1195 Anarchisten
340 Anatol
1301 Anatolien
3411 Anatomie
260 Anatomischen
9484 Anbau
766 Anbaufläche
509 Anbauflächen
615 Anbaugebiet
317 Anbaugebiete
436 Anbaus
1564 Anbauten
723 Anbeginn
1158 Anbetracht
1419 Anbetung
5628 Anbieter
1277 Anbietern
352 Anbieters
5609 Anbindung
1521 Anblick
489 Anbringen
668 Anbringung
365 Anbruch
571 Andacht
328 Andachten
1027 Andalusien
2218 Anden
1151 Anden-Staat
2578 Andenken
1450 Andere
1563 Anderem
2411 Anderen
2700 Anders
273 Andeutung
587 Andeutungen
1111 Andorra
305 Andrang
1171 Andre
5567 Andrea
18857 Andreas
691 Andres
1052 Androhung
494 Andromeda
5276 Andy
620 Aneignung
451 Aneinanderreihung
816 Anekdote
973 Anekdoten
18129 Anerkennung
430 Anfahren
361 Anfahrt
661 Anfall
95225 Anfang
1133 Anfangs
918 Anfangsbuchstaben
1809 Anfangsjahren
1046 Anfangsphase
2434 Anfangszeit
303 Anfangszeiten
319 Anfechtung
824 Anfeindungen
1045 Anfertigung
752 Anflug
1428 Anforderung
12796 Anforderungen
2723 Anfrage
1594 Anfragen
509 Anfälle
275 Anfällen
526 Anfälligkeit
3287 Anfänge
3064 Anfängen
1192 Anfänger
7382 Anführer
303 Anführerin
389 Anführern
355 Anführers
344 Anführungszeichen
5868 Angabe
33080 Angaben
18549 Angebot
5233 Angebote
1358 Angeboten
329 Angebotes
781 Angebots
8769 Angehörige
10000 Angehörigen
3392 Angehöriger
1242 Angeklagte
3189 Angeklagten
258 Angeklagter
3552 Angel
2917 Angela
2583 Angelegenheit
10225 Angelegenheiten
27112 Angeles
1294 Angelika
1473 Angeln
374 Angelpunkt
528 Angelsachsen
514 Angermünde
900 Angesicht
4237 Angestellte
4468 Angestellten
4228 Angestellter
2314 Angewandte
276 Angewandten
330 Angina
266 Angle
728 Angleichung
563 Angler
321 Anglern
937 Angliederung
418 Anglikanischen
1852 Anglistik
3004 Angola
6143 Angreifer
722 Angreifern
383 Angreifers
24313 Angriff
8179 Angriffe
4110 Angriffen
406 Angriffes
2416 Angriffs
262 Angriffsziel
9754 Angst
2267 Anhalt
668 Anhalt-Dessau
902 Anhalter
460 Anhaltspunkt
1041 Anhaltspunkte
2836 Anhang
345 Anheben
698 Anhebung
5137 Anhieb
331 Anhänge
415 Anhängen
16430 Anhänger
4973 Anhängern
960 Anhängerschaft
715 Anhängsel
435 Anhäufung
4413 Anhöhe
884 Anhöhen
1132 Anhörung
363 Anhörungen
332 Anilin
2120 Animation
714 Animationen
766 Animationsfilm
269 Animationsstudio
990 Anionen
274 Anis
1723 Anita
1147 Anja
3063 Ankara
1686 Ankauf
775 Anke
2846 Anker
271 Ankerplatz
4784 Anklage
578 Anklagen
305 Anklagepunkten
440 Anklageschrift
1711 Anklang
521 Anklicken
569 Ankläger
592 Anklänge
326 Anklängen
461 Anknüpfung
7984 Ankunft
430 Ankäufe
1909 Ankündigung
327 Ankündigungen
41059 Anlage
18135 Anlagen
575 Anlagenbau
11292 Anlass
1996 Anlauf
356 Anlaufpunkt
775 Anlaufstelle
1356 Anlegen
1610 Anleger
259 Anlegern
693 Anlegestelle
267 Anlegestellen
7728 Anlehnung
593 Anleihe
1801 Anleihen
2621 Anleitung
546 Anleitungen
374 Anlieferung
4916 Anliegen
984 Anlässe
2789 Anlässen
281 Anläufe
387 Anläufen
342 Anmarsch
1547 Anmeldung
862 Anmerkung
1255 Anmerkungen
406 Anmut
25443 Anna
10349 Annahme
1987 Annahmen
1699 Annalen
688 Annas
7956 Anne
257 Anne-Marie
573 Anneliese
1096 Annemarie
274 Annes
1760 Annette
2620 Annexion
2356 Annie
981 Anno
310 Annullierung
3424 Annäherung
251 Annäherungen
813 Anode
440 Anomalie
448 Anomalien
277 Anonyme
617 Anonymität
10460 Anordnung
1227 Anordnungen
269 Anorganische
5573 Anpassung
1717 Anpassungen
364 Anpassungsfähigkeit
298 Anpflanzung
286 Anpflanzungen
1570 Anraten
299 Anrechnung
484 Anrecht
1152 Anrede
4336 Anregung
1924 Anregungen
765 Anreicherung
606 Anreise
921 Anreiz
578 Anreize
1329 Anruf
451 Anrufe
493 Anrufer
458 Anrufung
503 Ansage
296 Ansagen
1443 Ansammlung
489 Ansammlungen
10072 Ansatz
756 Ansatzes
328 Ansatzpunkt
4011 Ansbach
1254 Anschaffung
402 Anschaffungskosten
1179 Anschauung
955 Anschauungen
1480 Anschein
3871 Anschlag
412 Anschlags
41652 Anschluss
480 Anschlussbahn
567 Anschlusses
727 Anschlussgleis
4767 Anschlussstelle
1187 Anschlussstellen
258 Anschlusstreffer
1830 Anschläge
1236 Anschlägen
1602 Anschlüsse
521 Anschlüssen
668 Anschrift
299 Anschuldigung
1385 Anschuldigungen
6621 Ansehen
414 Ansehens
14478 Ansicht
6671 Ansichten
361 Ansichtskarten
8050 Ansiedlung
1993 Ansiedlungen
816 Ansinnen
481 Ansitz
404 Anspannung
3641 Anspielung
1760 Anspielungen
1408 Ansprache
413 Ansprachen
273 Ansprechen
1247 Ansprechpartner
17430 Anspruch
540 Anspruchs
6760 Ansprüche
2213 Ansprüchen
5089 Anstalt
1791 Anstalten
300 Anstand
353 Ansteckung
372 Ansteigen
7642 Anstellung
453 Anstellungen
575 Ansteuerung
6583 Anstieg
460 Anstiege
278 Anstiegs
413 Anstiftung
883 Anstrengung
2931 Anstrengungen
1220 Anstrich
580 Ansturm
297 Ansuchen
5356 Ansätze
1769 Ansätzen
2474 Antarktis
302 Antarktischen
36885 Anteil
9206 Anteile
1479 Anteilen
934 Anteilnahme
1124 Anteils
950 Anteilseigner
2924 Antenne
1872 Antennen
329 Antennenträger
1394 Anthologie
1390 Anthologien
732 Anthropologe
524 Anthropologen
2996 Anthropologie
382 Anthroposophie
329 Anti
1208 Antibiotika
327 Antibiotikum
470 Antichrist
400 Antidepressiva
458 Antifaschisten
429 Antigen
454 Antigene
11030 Antike
281 Antiken
1971 Antikörper
575 Antikörpern
1144 Antillen
331 Antilopen
392 Antimon
257 Antipater
312 Antiquar
296 Antiquariat
502 Antiquitäten
262 Antisemit
475 Antisemiten
3046 Antisemitismus
605 Antje
461 Antlitz
20022 Anton
12632 Antonio
4274 Antonius
284 Antons
9934 Antrag
308 Antrags
631 Antragsteller
282 Antreten
8151 Antrieb
808 Antriebe
281 Antrieben
579 Antriebs
510 Antriebsanlage
285 Antriebskraft
369 Antriebsleistung
283 Antriebsstrang
259 Antriebssystem
502 Antriebstechnik
292 Antriebswelle
813 Antritt
474 Antrittsrede
281 Antrittsvorlesung
1400 Anträge
281 Anträgen
6010 Antwerpen
7272 Antwort
2433 Antworten
861 Anwachsen
10106 Anwalt
649 Anwalts
288 Anwaltschaft
1076 Anwaltskammer
1536 Anwaltskanzlei
313 Anwar
305 Anwartschaft
3577 Anweisung
2651 Anweisungen
549 Anwendbarkeit
2470 Anwender
493 Anwendern
25788 Anwendung
8614 Anwendungen
828 Anwendungsbereich
368 Anwendungsbereiche
410 Anwendungsfall
428 Anwendungsgebiet
445 Anwendungsgebiete
273 Anwendungsmöglichkeiten
516 Anwerbung
9764 Anwesen
1234 Anwesenden
7187 Anwesenheit
1144 Anwesens
1569 Anwohner
671 Anwohnern
1284 Anwälte
447 Anwälten
653 Anwältin
962 Anwärter
47644 Anzahl
2903 Anzeichen
3603 Anzeige
2026 Anzeigen
272 Anzeigenblatt
269 Anzeigenblätter
1139 Anzeiger
433 Anziehung
794 Anziehungskraft
1037 Anziehungspunkt
1045 Anzug
341 Anzüge
572 Anästhesie
1262 Apache
762 Apachen
1052 Apartheid
618 Apartment
268 Apertur
1409 Apfel
438 Aphorismen
770 Aphrodite
754 Apokalypse
2647 Apollo
4647 Apostel
542 Apostelgeschichte
282 Apostelkirche
789 Aposteln
842 Apostels
3828 Apostolische
6814 Apostolischen
1985 Apostolischer
623 Apostolisches
2644 Apotheke
1008 Apotheken
2453 Apotheker
571 Apothekers
637 Appalachen
1199 Apparat
731 Apparate
439 Apparatur
297 Apparaturen
616 Appartement
398 Appartements
1022 Appell
528 Appellationsgericht
301 Appetit
410 Applaus
4261 Apple
445 Apples
799 Applikation
823 Applikationen
1092 Approbation
367 Approximation
65290 April
844 Apsiden
4758 Apsis
1138 Apulien
675 Aquarell
1413 Aquarelle
525 Aquarellen
641 Aquarien
1394 Aquarium
1919 Aquitanien
626 Aquädukt
1144 Ar
2886 Araber
1218 Arabern
1035 Arabien
1757 Arabisch
1715 Arabische
4099 Arabischen
402 Arafat
379 Ararat
97387 Arbeit
54380 Arbeiten
16728 Arbeiter
262 Arbeiter-Zeitung
2781 Arbeiterbewegung
757 Arbeiterfamilie
292 Arbeiterin
903 Arbeiterinnen
455 Arbeiterjugend
498 Arbeiterkammer
1405 Arbeiterklasse
3410 Arbeitern
2824 Arbeiterpartei
550 Arbeiters
1233 Arbeiterschaft
622 Arbeitersiedlung
349 Arbeiterverein
271 Arbeitervereine
353 Arbeiterviertel
889 Arbeiterwohlfahrt
8638 Arbeitgeber
968 Arbeitgebern
786 Arbeitgebers
294 Arbeitgeberverband
379 Arbeitgeberverbände
5041 Arbeitnehmer
976 Arbeitnehmern
460 Arbeitnehmers
261 Arbeitsabläufe
480 Arbeitsamt
330 Arbeitsaufwand
1775 Arbeitsbedingungen
623 Arbeitsbereich
575 Arbeitsdienst
488 Arbeitseinsatz
269 Arbeitserlaubnis
349 Arbeitsfeld
497 Arbeitsfront
311 Arbeitsgang
672 Arbeitsgebiet
445 Arbeitsgebiete
6464 Arbeitsgemeinschaft
893 Arbeitsgemeinschaften
892 Arbeitsgericht
3878 Arbeitsgruppe
1303 Arbeitsgruppen
364 Arbeitskollegen
1299 Arbeitskraft
2319 Arbeitskreis
358 Arbeitskreise
1238 Arbeitskreises
2426 Arbeitskräfte
1083 Arbeitskräften
1208 Arbeitslager
395 Arbeitsleben
496 Arbeitsleistung
629 Arbeitslose
772 Arbeitslosen
622 Arbeitslosengeld
1129 Arbeitslosenquote
432 Arbeitslosenversicherung
3768 Arbeitslosigkeit
1473 Arbeitsmarkt
394 Arbeitsminister
274 Arbeitsmittel
295 Arbeitsmöglichkeiten
384 Arbeitsorganisation
1666 Arbeitsort
357 Arbeitspartei
2863 Arbeitsplatz
252 Arbeitsplatzes
5526 Arbeitsplätze
1425 Arbeitsplätzen
262 Arbeitsproduktivität
261 Arbeitsraum
953 Arbeitsrecht
252 Arbeitsräume
353 Arbeitsschritte
505 Arbeitsschutz
575 Arbeitsschwerpunkt
589 Arbeitsschwerpunkte
362 Arbeitssicherheit
944 Arbeitsspeicher
1285 Arbeitsstelle
324 Arbeitsstellen
387 Arbeitsstunden
338 Arbeitsstätte
903 Arbeitsstätten
359 Arbeitstag
906 Arbeitsteilung
981 Arbeitstitel
640 Arbeitsverhältnis
332 Arbeitsverhältnisse
278 Arbeitsverhältnisses
297 Arbeitsvermittlung
424 Arbeitsvertrag
1787 Arbeitsweise
828 Arbeitswelt
1584 Arbeitszeit
545 Arbeitszeiten
546 Arbeitszimmer
1010 Arche
442 Archimedes
1419 Archipel
895 Archipels
17079 Architekt
26774 Architekten
327 Architektenbüro
423 Architektenwettbewerb
662 Architektin
19260 Architektur
2402 Architekturbüro
683 Architekturbüros
453 Architekturen
401 Architekturgeschichte
283 Architekturpreis
276 Architekturstil
545 Architekturstudium
398 Architekturwettbewerb
7769 Archiv
623 Archivalien
1478 Archivar
1942 Archive
1437 Archiven
265 Archivgut
615 Archivierung
273 Archivmaterial
1344 Archivs
2696 Archäologe
3441 Archäologen
6971 Archäologie
520 Archäologin
835 Archäologische
2992 Archäologischen
8449 Areal
908 Areale
379 Arealen
1499 Areals
7581 Arena
275 Arenen
321 Argen
13141 Argentinien
2402 Argentiniens
394 Argon
290 Argonauten
3041 Argument
1911 Argumentation
2315 Argumente
883 Argumenten
399 Argus
328 Argwohn
604 Ariadne
937 Ariane
1377 Arie
827 Arien
277 Arier
637 Aristokraten
1039 Aristokratie
4240 Aristoteles
666 Arithmetik
6055 Arizona
389 Arkade
2099 Arkaden
367 Arkadenbögen
3936 Arkansas
1272 Arktis
418 Arktischen
7425 Arm
741 Armada
322 Armagnac
434 Armaturen
796 Armaturenbrett
312 Armband
298 Armbanduhren
482 Armbrust
276 Armdecken
5065 Arme
57376 Armee
271 Armeeführung
262 Armeegruppe
888 Armeekorps
3687 Armeen
285 Armeeoberkommando
6123 Armen
544 Armenhaus
3295 Armenien
1527 Armenier
849 Armeniern
390 Armenische
540 Armenischen
467 Armes
1492 Arms
471 Armschwingen
3347 Armstrong
5209 Armut
5350 Armutsgrenze
1549 Arndt
2253 Arno
11063 Arnold
388 Arnolds
3477 Arnsberg
1006 Aroma
589 Aromen
1210 Arosa
1409 Arrangement
2173 Arrangements
597 Array
289 Arrays
744 Arrest
310 Arroganz
10044 Arrondissement
2128 Arrondissements
259 Arsch
940 Arsen
3609 Arsenal
146126 Art
418 Artaxerxes
1510 Arte
387 Artefakt
1846 Artefakte
584 Artefakten
956 Artemis
64203 Arten
262 Artenreichtum
400 Artenschutz
1306 Artenvielfalt
285 Arterie
501 Arterien
358 Arteriosklerose
1481 Artgenossen
641 Arthritis
292 Arthrose
14386 Arthur
344 Arthurs
35036 Artikel
3913 Artikeln
1819 Artikels
293 Artikelserie
379 Artikulation
6487 Artillerie
744 Artilleriebeschuss
574 Artilleriefeuer
2389 Artist
471 Artisten
287 Artland
568 Artname
274 Artnamen
325 Artstatus
868 Artus
2350 Arzneimittel
1043 Arzneimitteln
250 Arzneimittels
1328 Arzneistoff
580 Arzneistoffe
299 Arzneistoffen
19378 Arzt
3005 Arztes
436 Arztpraxen
534 Arztpraxis
395 Asbest
3636 Aschaffenburg
3570 Asche
433 Aschermittwoch
572 Ascona
2927 Aserbaidschan
413 Aserbaidschans
4581 Asiaten
492 Asiatische
574 Asiatischen
11077 Asien
258 Asienmeister
786 Asienmeisterschaft
405 Asienmeisterschaften
2086 Asiens
846 Asienspielen
520 Askese
5382 Aspekt
8152 Aspekte
3046 Aspekten
977 Asphalt
539 Ass
445 Asse
342 Assembler
383 Assen
1937 Assessor
858 Assimilation
1138 Assisi
15385 Assistent
2698 Assistenten
2172 Assistentin
548 Assistenz
1041 Assistenzarzt
899 Assistenzprofessor
1990 Assistenztrainer
1368 Assoziation
988 Assoziationen
432 Assyrien
2156 Ast
327 Aster
773 Asterix
7501 Asteroid
2525 Asteroiden
263 Asteroiden-Hauptgürtels
706 Asthma
425 Astoria
1064 Astrid
265 Astrologen
1081 Astrologie
811 Astronaut
1563 Astronauten
2814 Astronom
6134 Astronomen
4799 Astronomie
393 Astronomin
562 Astronomische
950 Astronomischen
839 Astrophysik
414 Astrophysiker
1654 Asyl
394 Asylbewerber
331 Asymmetrie
1650 Atari
6803 Atelier
256 Atelierhaus
1396 Ateliers
944 Atem
468 Atemluft
436 Atemnot
830 Atemwege
370 Atemzug
573 Atheismus
366 Atheist
421 Atheisten
16521 Athen
807 Athene
2032 Athener
1813 Athens
1122 Athlet
5394 Athleten
621 Athletin
718 Athletinnen
344 Athlon
6180 Atlanta
432 Atlanten
5691 Atlantik
1629 Atlantikküste
590 Atlantiks
2088 Atlantis
314 Atlantische
1528 Atlantischen
3642 Atlas
350 Atmen
7658 Atmosphäre
1398 Atmung
1319 Atoll
437 Atolls
1456 Atom
278 Atom-U-Boot
270 Atomausstieg
979 Atombombe
375 Atombomben
1865 Atome
1034 Atomen
411 Atomenergie
321 Atomkern
305 Atomkerne
276 Atomkrieg
280 Atomphysik
447 Atoms
971 Atomwaffen
512 Attaché
1198 Attacke
1186 Attacken
4507 Attentat
517 Attentate
738 Attentats
1230 Attentäter
990 Attika
1031 Attila
1903 Attraktion
1540 Attraktionen
1517 Attraktivität
1446 Attribut
1779 Attribute
834 Attributen
2714 Au
3326 Audi
692 Audienz
859 Auditorium
813 Audrey
3806 Aue
655 Auen
299 Auerochsen
2669 Aufarbeitung
26500 Aufbau
266 Aufbauarbeit
1353 Aufbaus
609 Aufbaustudium
2599 Aufbauten
1461 Aufbereitung
1258 Aufbewahrung
313 Aufbewahrungsort
268 Aufbrechen
301 Aufbringen
1281 Aufbruch
931 Aufdeckung
488 Aufdruck
1168 Aufeinandertreffen
9521 Aufenthalt
1259 Aufenthalte
1104 Aufenthalten
1421 Aufenthaltes
1982 Aufenthalts
325 Aufenthaltserlaubnis
1575 Aufenthaltsort
336 Aufenthaltsraum
2303 Auferstehung
835 Auferstehungskirche
772 Auffahrt
11351 Auffassung
1975 Auffassungen
905 Auffinden
667 Auffindung
2499 Aufforderung
285 Aufforderungen
407 Aufforstung
281 Auffrischung
411 Auffälligkeiten
7798 Aufführung
5033 Aufführungen
865 Aufführungspraxis
32899 Aufgabe
31100 Aufgaben
1052 Aufgabenbereich
387 Aufgabenbereiche
641 Aufgabengebiet
743 Aufgabenstellung
388 Aufgabenstellungen
877 Aufgang
4760 Aufgebot
638 Aufgrund
9426 Aufhebung
726 Aufhängung
355 Aufkauf
476 Aufkleber
1293 Aufklärer
9813 Aufklärung
280 Aufklärungsarbeit
3690 Aufkommen
534 Aufladung
14313 Auflage
6414 Auflagen
348 Auflassung
2259 Auflistung
262 Auflösen
25596 Auflösung
442 Auflösungen
307 Auflösungsvermögen
471 Aufmachung
392 Aufmarsch
12841 Aufmerksamkeit
25411 Aufnahme
298 Aufnahmeleiter
21547 Aufnahmen
798 Aufnahmeprüfung
373 Aufnahmesession
366 Aufnahmestudio
313 Aufnehmen
783 Aufprall
898 Aufpreis
1974 Aufrechterhaltung
918 Aufregung
273 Aufrichtigkeit
296 Aufriss
3369 Aufruf
570 Aufrufe
1162 Aufruhr
398 Aufräumarbeiten
1172 Aufrüstung
4044 Aufsatz
831 Aufschlag
1684 Aufschluss
383 Aufschlüsse
2635 Aufschrift
317 Aufschub
7809 Aufschwung
412 Aufschwungs
5967 Aufsehen
866 Aufseher
416 Aufsetzen
5631 Aufsicht
724 Aufsichtsbehörde
278 Aufsichtsbehörden
3971 Aufsichtsrat
1418 Aufsichtsrates
1059 Aufsichtsrats
627 Aufsichtsratsmitglied
258 Aufsichtsratsvorsitzenden
1359 Aufsichtsratsvorsitzender
253 Aufsichtsräte
430 Aufsichtsräten
1025 Aufspaltung
350 Aufspüren
10994 Aufstand
2326 Aufstandes
1541 Aufstands
274 Aufsteigen
4714 Aufsteiger
629 Aufstellen
7253 Aufstellung
26844 Aufstieg
305 Aufstiege
717 Aufstiegs
295 Aufstiegsplatz
3014 Aufstiegsrunde
468 Aufstiegsspielen
1019 Aufstockung
1845 Aufstände
1289 Aufständen
688 Aufständische
3939 Aufständischen
3613 Aufsätze
1237 Aufsätzen
2274 Auftakt
327 Auftaktspiel
958 Auftauchen
4981 Aufteilung
40035 Auftrag
634 Auftrage
278 Auftragen
307 Auftrages
3534 Auftraggeber
474 Auftraggebern
390 Auftraggebers
362 Auftragnehmer
502 Auftrags
438 Auftragsarbeit
624 Auftragsarbeiten
267 Auftragslage
270 Auftragsmörder
307 Auftragswerk
354 Auftreffen
7294 Auftreten
885 Auftretens
1848 Auftrieb
14236 Auftritt
11950 Auftritte
5175 Auftritten
582 Auftritts
5245 Aufträge
1158 Aufträgen
6188 Aufwand
1078 Aufwendungen
1350 Aufwertung
269 Aufwind
1880 Aufzeichnung
6371 Aufzeichnungen
878 Aufzucht
1562 Aufzug
1040 Aufzählung
911 Aufzüge
565 Aufzügen
12079 Auge
19980 Augen
563 Augenarzt
2294 Augenblick
284 Augenblicke
430 Augenbrauen
659 Augenheilkunde
479 Augenhöhe
329 Augenhöhle
260 Augenklinik
328 Augenlicht
2004 Augenmerk
399 Augenring
337 Augenschein
581 Augenzeuge
721 Augenzeugen
1689 Auges
15696 Augsburg
5632 Augsburger
88769 August
252 Augustdorf
2301 Augustin
428 Augustiner-Chorherren
279 Augustinerkirche
414 Augustinerkloster
647 Augusts
4412 Augustus
998 Auktion
605 Auktionen
461 Auktionshaus
1638 Aula
937 Aura
851 Aurel
2788 Aurich
7367 Aus
2567 Ausarbeitung
19053 Ausbau
1304 Ausbaus
270 Ausbaustrecke
679 Ausbaustufe
536 Ausbauten
1104 Ausbeute
2304 Ausbeutung
1413 Ausbilder
60216 Ausbildung
962 Ausbildungen
768 Ausbildungsberuf
269 Ausbildungsbetrieb
1194 Ausbildungsstätte
512 Ausbildungsstätten
435 Ausbildungszeit
600 Ausbildungszentrum
620 Ausbleiben
1622 Ausblick
414 Ausblicke
4687 Ausbreitung
14418 Ausbruch
759 Ausbruchs
886 Ausbrüche
446 Ausbrüchen
399 Ausbuchtung
4310 Auschwitz
837 Auschwitz-Birkenau
988 Ausdauer
8271 Ausdehnung
22336 Ausdruck
1054 Ausdrucks
328 Ausdrucksform
673 Ausdrucksformen
295 Ausdruckskraft
337 Ausdrucksmittel
588 Ausdrucksweise
1926 Ausdrücke
651 Ausdrücken
320 Auseinanderbrechen
13126 Auseinandersetzung
14146 Auseinandersetzungen
1883 Ausfahrt
453 Ausfahrten
3186 Ausfall
287 Ausfalls
327 Ausfertigung
1167 Ausflug
251 Ausflugs
281 Ausflugsgaststätte
442 Ausflugslokal
372 Ausflugsverkehr
2216 Ausflugsziel
310 Ausflugsziele
586 Ausfluss
984 Ausflüge
314 Ausflügen
505 Ausformung
612 Ausfuhr
1064 Ausfälle
646 Ausfällen
383 Ausführen
12080 Ausführung
4234 Ausführungen
21723 Ausgabe
11711 Ausgaben
6298 Ausgang
430 Ausgangs
386 Ausgangsbasis
436 Ausgangslage
580 Ausgangsmaterial
337 Ausgangsposition
7393 Ausgangspunkt
315 Ausgangspunkte
297 Ausgangssignal
268 Ausgangssituation
411 Ausgangsspannung
459 Ausgangsstoff
3188 Ausgestaltung
261 Ausgewogenheit
5460 Ausgleich
330 Ausgleichs
863 Ausgliederung
1711 Ausgrabung
8293 Ausgrabungen
780 Ausgrenzung
715 Ausgänge
258 Ausgängen
463 Aushub
266 Aushändigung
684 Aushängeschild
662 Auskommen
561 Auskopplung
3427 Auskunft
584 Auskünfte
537 Auslagerung
24235 Ausland
320 Auslandes
302 Auslands
396 Auslandsaufenthalt
279 Auslandsaufenthalte
308 Auslandseinsatz
262 Auslandseinsätze
254 Auslandseinsätzen
348 Auslandskorrespondent
338 Auslandsreise
557 Auslandsreisen
1345 Auslastung
472 Auslauf
1278 Auslaufen
631 Ausleger
4019 Auslegung
356 Auslegungen
391 Ausleihe
347 Auslenkung
416 Auslese
292 Auslesen
2997 Auslieferung
924 Auslosung
4252 Ausländer
925 Ausländeranteil
1154 Ausländern
4391 Ausläufer
2592 Ausläufern
410 Auslöschung
412 Auslösen
2586 Auslöser
818 Auslösung
23200 Ausnahme
1998 Ausnahmefällen
404 Ausnahmegenehmigung
5684 Ausnahmen
727 Ausnahmezustand
1478 Ausnutzung
3332 Ausprägung
1392 Ausprägungen
1417 Ausreise
9046 Ausrichtung
285 Ausrichtungen
827 Ausrottung
577 Ausruf
7692 Ausrüstung
468 Ausrüstungen
567 Ausrüstungsgegenstände
516 Aussaat
15219 Aussage
662 Aussagekraft
12997 Aussagen
346 Ausschalten
659 Ausschaltung
375 Ausschank
504 Ausschau
7629 Ausscheiden
278 Ausscheidens
941 Ausscheidung
393 Ausscheidungen
1045 Ausschlag
3477 Ausschluss
1270 Ausschnitt
994 Ausschnitte
322 Ausschnitten
2790 Ausschreibung
496 Ausschreibungen
2112 Ausschreitungen
9223 Ausschuss
4801 Ausschusses
1410 Ausschüsse
1381 Ausschüssen
642 Ausschüttung
8943 Aussehen
812 Aussehens
289 Aussendung
357 Aussetzen
623 Aussetzung
5558 Aussicht
815 Aussichten
1709 Aussichtsplattform
1224 Aussichtspunkt
298 Aussichtspunkte
2560 Aussichtsturm
303 Aussiedler
344 Aussparung
286 Aussparungen
329 Ausspielung
4453 Aussprache
1347 Ausspruch
12216 Ausstattung
507 Ausstattungen
320 Ausstattungsstücke
357 Ausstattungsvarianten
301 Aussteigen
954 Aussteller
279 Ausstellern
21056 Ausstellung
12913 Ausstellungen
1032 Ausstellungsfläche
300 Ausstellungsgebäude
304 Ausstellungsgelände
476 Ausstellungshalle
254 Ausstellungsort
633 Ausstellungsraum
612 Ausstellungsräume
297 Ausstellungsräumen
819 Ausstellungsstücke
305 Ausstellungsstücken
6141 Aussterben
2668 Ausstieg
4878 Ausstrahlung
345 Ausstrahlungen
887 Aussöhnung
8921 Austausch
284 Austausches
275 Austauschs
375 Auster
573 Austern
3375 Austragung
451 Austragungen
2954 Austragungsort
406 Austragungsorte
27438 Australien
1708 Australier
300 Australierin
861 Australische
921 Australischen
3028 Austritt
282 Austrocknen
309 Ausverkauf
17262 Auswahl
779 Auswahlmannschaft
548 Auswahlmannschaften
546 Auswahlverfahren
1323 Auswanderer
424 Auswanderern
2372 Auswanderung
325 Auswanderungswelle
1227 Ausweg
489 Ausweichen
774 Ausweis
1936 Ausweisung
3029 Ausweitung
4319 Auswertung
544 Auswertungen
1756 Auswirkung
11319 Auswirkungen
1830 Auswärtige
5099 Auswärtigen
325 Auswärtssieg
1766 Auswärtsspiel
278 Auswärtsspiele
312 Auswärtsspielen
571 Auswärtstorregel
464 Auswüchse
976 Auszahlung
293 Auszahlungen
16688 Auszeichnung
9095 Auszeichnungen
872 Auszeit
883 Auszubildende
731 Auszubildenden
2142 Auszug
316 Auszählung
788 Auszüge
376 Auszügen
3669 Ausübung
406 Authentifizierung
1418 Authentizität
14957 Auto
292 Auto-Salon
14431 Autobahn
262 Autobahnabfahrt
756 Autobahnanschluss
485 Autobahnanschlussstelle
409 Autobahnbrücke
832 Autobahndreieck
3198 Autobahnen
1394 Autobahnkreuz
600 Autobahnnetz
408 Autobahnring
430 Autobahnzubringer
2166 Autobiografie
2202 Autobiographie
1423 Autodidakt
760 Autofahrer
261 Autofahrt
307 Autofähre
326 Autograph
297 Autohaus
400 Autohersteller
637 Automarke
358 Automat
1367 Automaten
479 Automatik
721 Automatikgetriebe
522 Automation
833 Automatisierung
424 Automatisierungstechnik
1938 Automobil
465 Automobilbau
2479 Automobile
3562 Automobilen
2363 Automobilhersteller
1023 Automobilherstellers
1553 Automobilindustrie
418 Automobilmarke
275 Automobilproduktion
698 Automobilrennfahrer
328 Automobils
334 Automobilzulieferer
250 Automodell
1095 Automotive
1183 Autonome
4395 Autonomen
4090 Autonomie
285 Autonomiebehörde
318 Autopsie
34872 Autor
25067 Autoren
1603 Autorenkürzel
700 Autorennen
1006 Autorennfahrer
338 Autorenschaft
8045 Autorin
1020 Autorinnen
4365 Autorität
1065 Autoritäten
801 Autoroute
4918 Autors
432 Autorschaft
6482 Autos
320 Autosalon
2428 Autounfall
252 Autounfalls
741 Autoverkehr
1710 Auvergne
1895 Avantgarde
3341 Aviv
4443 Axel
362 Axiom
445 Axiome
266 Axiomen
1162 Axt
1115 Azoren
916 Azteken
1310 Azur
527 B-Charts
492 B-Dur
352 B-Gruppe
495 B-Jugend
272 B-Kader
317 B-Klasse
474 B-Mannschaft
390 B-Nationalmannschaft
2074 B-Seite
376 B-Seiten
280 B-Sängerin
363 B-Team
1338 BASF
548 BASIC
250 BAT
6573 BBC
6776 BGB
1214 BGH
378 BIOS
1954 BIP
458 BKA
6634 BMW
603 BND
1778 BP
2183 BRD
278 BSP
519 BUND
1181 BVG
564 Babel
5013 Baby
2199 Babylon
300 Babylonier
803 Babys
21390 Bach
413 Bachbett
9996 Bachelor
1248 Bachelor-Abschluss
3288 Baches
866 Bachlauf
267 Bachläufe
1296 Bachmann
2709 Bachs
300 Bachtal
3386 Back
470 Backbord
335 Backbordseite
262 Backe
771 Backen
563 Backenzähne
866 Backhaus
476 Backofen
2143 Backstein
1093 Backsteinbau
943 Backsteinen
277 Backsteingebäude
370 Backsteinkirche
286 Backup
532 Backwaren
51881 Bad
672 Bade
637 Badeanstalt
362 Badebetrieb
368 Badegäste
657 Badehaus
14764 Baden
3833 Baden-Baden
21467 Baden-Württemberg
296 Baden-Württembergischen
1073 Baden-Württembergs
793 Badeort
575 Bades
751 Badesee
271 Badestelle
302 Badestrand
639 Badewanne
604 Badezimmer
1072 Badische
2523 Badischen
6337 Badminton
277 Badminton-Weltmeisterschaft
271 Badminton-Weltmeisterschaften
2908 Bagdad
527 Bagger
348 Baggersee
1410 Bahamas
28684 Bahn
265 Bahn-Weltmeisterschaften
356 Bahnanbindung
1016 Bahnanlagen
1537 Bahnanschluss
660 Bahnbau
569 Bahnbetrieb
1248 Bahnbetriebswerk
827 Bahndamm
5425 Bahnen
431 Bahnexzentrizität
1677 Bahngesellschaft
914 Bahngesellschaften
252 Bahngleise
59120 Bahnhof
1594 Bahnhofes
6597 Bahnhofs
283 Bahnhofsbereich
2594 Bahnhofsgebäude
298 Bahnhofsgebäudes
357 Bahnhofsgelände
370 Bahnhofshalle
375 Bahnhofskategorie
298 Bahnhofsviertel
647 Bahnhofsvorplatz
4821 Bahnhöfe
2990 Bahnhöfen
377 Bahnkörper
5361 Bahnlinie
850 Bahnlinien
276 Bahnneigung
588 Bahnnetz
256 Bahnradsport
473 Bahnradsportler
3030 Bahnstation
378 Bahnstationen
2858 Bahnsteig
2500 Bahnsteige
1056 Bahnsteigen
455 Bahnsteiggleise
307 Bahnsteighalle
330 Bahnsteigs
26223 Bahnstrecke
1804 Bahnstrecken
1059 Bahntrasse
948 Bahnverbindung
661 Bahnverkehr
908 Bahnübergang
498 Bahnübergänge
1230 Bahrain
458 Bai
394 Bajonett
5881 Bakterien
1115 Bakterium
1199 Balance
305 Balboa
751 Balearen
962 Bali
3278 Balkan
837 Balkanhalbinsel
321 Balkankrieg
3667 Balken
295 Balkendecke
386 Balkenspiralgalaxie
1936 Balkon
434 Balkone
260 Balkonen
9009 Ball
2290 Ballade
1466 Balladen
441 Ballast
368 Ballei
374 Ballen
442 Balles
2995 Ballett
443 Balletts
376 Ballettschule
302 Balletttänzerin
459 Ballhaus
1239 Ballon
807 Ballons
619 Balls
467 Ballsaal
977 Ballungsraum
308 Ballungsräumen
317 Ballungszentren
1746 Baltikum
394 Baltische
1085 Baltischen
8250 Bamberg
555 Bambi
775 Bambus
300 Banane
1136 Bananen
137511 Band
3221 Bandbreite
5572 Bande
983 Banden
1701 Bandes
572 Bandgeschichte
338 Bandit
1108 Banditen
479 Bandkollegen
912 Bandmitglied
3212 Bandmitglieder
712 Bandmitgliedern
855 Bandname
982 Bandnamen
14751 Bands
1925 Bang
3565 Bangkok
1407 Bangladesch
914 Banjo
29326 Bank
299 Bankangestellter
285 Bankdirektor
7707 Banken
255 Bankenaufsicht
255 Bankenkrise
370 Banker
416 Bankett
555 Bankgeschäft
290 Bankgeschäfte
382 Bankgewerbe
1569 Bankhaus
540 Bankhauses
2975 Bankier
1530 Bankiers
749 Bankkaufmann
395 Banklehre
269 Bankmanager
1695 Banknoten
1043 Bankrott
270 Bankverein
500 Bankwesen
1758 Bann
2339 Banner
299 Banners
561 Bantu
3731 Baptist
1165 Baptisten
361 Baptisterium
5421 Bar
667 Baracke
1265 Baracken
279 Barackenlager
256 Barak
822 Barbados
9979 Barbara
336 Barbarei
826 Barbaren
1900 Barbarossa
355 Barbarossas
299 Barbie
640 Barbier
13467 Barcelona
310 Barden
343 Barentssee
964 Bargeld
1079 Bariton
565 Bark
339 Barkeeper
693 Barmherzigen
671 Barmherzigkeit
5299 Barock
288 Barockbau
382 Barockgarten
396 Barockkirche
348 Barockmusik
451 Barockschloss
777 Barockstil
1262 Barockzeit
8755 Baron
962 Barone
282 Baronen
802 Baroness
782 Baronin
1225 Barons
839 Barrel
675 Barren
947 Barriere
562 Barrieren
456 Barrikaden
272 Barrington
692 Barrio
570 Barrios
2232 Bars
337 Barsch
270 Barsche
2664 Bart
1134 Bartholdy
957 Barton
1321 Basalt
330 Basar
4621 Base
2610 Baseball
697 Baseballspieler
21121 Basel
835 Basel-Landschaft
750 Basel-Stadt
2356 Basen
1143 Basic
5619 Basilika
41639 Basis
429 Basislager
363 Basismodell
298 Basisversion
280 Basiswert
355 Basken
905 Baskenland
4795 Basketball
900 Basketball-Bundesliga
326 Basketballmannschaft
312 Basketballnationalmannschaft
2127 Basketballspieler
381 Basketballverein
4479 Basler
10429 Bass
561 Bassgitarre
427 Bassin
5552 Bassist
3043 Bassisten
270 Bassistin
330 Bassklarinette
351 Bast
505 Bastard
541 Bastille
1147 Bastion
1011 Bastionen
500 Bat
3102 Bataillon
1510 Bataillone
676 Bataillonen
922 Bataillons
428 Bataillonskommandeur
253 Bator
2414 Batterie
2228 Batterien
105552 Bau
1554 Bauabschnitt
259 Bauabschnitte
558 Bauabschnitten
606 Bauakademie
287 Bauamt
9780 Bauarbeiten
969 Bauarbeiter
5894 Bauart
742 Bauarten
256 Bauaufsicht
415 Bauauftrag
780 Bauausführung
287 Bauausstellung
436 Baubeamter
2896 Baubeginn
341 Bauboom
4586 Bauch
1034 Bauchflossen
398 Bauchhöhle
305 Bauchschmerzen
1101 Bauchseite
527 Bauchspeicheldrüse
2430 Baudenkmal
4134 Baudenkmäler
450 Baudenkmälern
354 Baudirektor
575 Baue
435 Bauelement
1234 Bauelemente
515 Bauelementen
1653 Bauen
8056 Bauer
21059 Bauern
424 Bauernaufstand
299 Bauernbefreiung
366 Bauernbund
348 Bauernbundes
1535 Bauerndorf
790 Bauernfamilie
860 Bauernhaus
3031 Bauernhof
963 Bauernhäuser
1660 Bauernhöfe
838 Bauernhöfen
1315 Bauernkrieg
337 Bauernkrieges
471 Bauernpartei
882 Bauernschaft
331 Bauernschaften
260 Bauernsohn
287 Bauers
841 Baues
866 Baufirma
299 Baufirmen
2551 Bauform
1254 Bauformen
1468 Baufälligkeit
330 Baugebiet
274 Baugebiete
771 Baugenehmigung
259 Baugenossenschaft
900 Baugeschichte
340 Baugesellschaft
597 Baugewerbe
258 Baugewerbes
461 Baugrube
645 Baugrund
629 Baugruppe
975 Baugruppen
859 Bauhauptgewerbe
1201 Bauhaus
415 Bauhauses
1163 Bauherr
1024 Bauherren
764 Bauherrn
396 Bauhof
690 Bauholz
380 Bauhöhe
383 Bauhütte
439 Bauindustrie
1436 Bauingenieur
993 Bauingenieurwesen
339 Bauinschrift
278 Bauinspektor
1564 Baujahr
3742 Baukosten
306 Baukultur
1507 Baukunst
1544 Baukörper
255 Baukörpers
706 Bauland
595 Bauleiter
1179 Bauleitung
326 Baulos
11293 Baum
1954 Baumann
631 Baumart
1106 Baumarten
510 Baumaschinen
2704 Baumaterial
929 Baumaterialien
303 Baumbach
1216 Baumbestand
373 Baumbewohner
6898 Baumeister
327 Baumeistern
1084 Baumeisters
1356 Baumes
1166 Baumgarten
501 Baumgrenze
298 Baumgruppen
594 Baumhöhlen
272 Baumkrone
419 Baumkronen
341 Baumrinde
408 Baums
449 Baumschule
308 Baumschulen
437 Baumstamm
520 Baumstämme
680 Baumstämmen
2509 Baumwolle
521 Baumwollspinnerei
996 Baunummer
1898 Bauphase
754 Bauphasen
491 Bauplan
254 Bauplastik
971 Bauplatz
649 Baupläne
277 Bauprogramm
627 Bauprojekt
557 Bauprojekte
273 Bauprojekten
825 Baurat
469 Baurecht
12513 Baureihe
2098 Baureihen
278 Baureihenbezeichnung
4047 Baus
415 Bausch
294 Bauschule
289 Bauschutt
359 Bauserie
431 Bausparkasse
816 Baustein
894 Bausteine
274 Bausteinen
1835 Baustelle
752 Baustellen
2132 Baustil
268 Baustile
609 Baustoff
733 Baustoffe
373 Baustoffen
321 Baustopp
3004 Bausubstanz
480 Bautechnik
1971 Bauteil
4169 Bauteile
1551 Bauteilen
552 Bauteils
13512 Bauten
258 Bauträger
1946 Bautätigkeit
327 Bautätigkeiten
1099 Bauunternehmen
1147 Bauunternehmer
260 Bauunternehmung
353 Bauverwaltung
1660 Bauvorhaben
5980 Bauweise
370 Bauweisen
358 Bauwerft
12517 Bauwerk
6245 Bauwerke
2132 Bauwerken
562 Bauwerkes
2267 Bauwerks
2133 Bauwesen
589 Bauwirtschaft
294 Bauxit
6092 Bauzeit
289 Bauzustand
1255 Bavaria
5705 Bayer
314 Bayerisch
6069 Bayerische
19381 Bayerischen
1293 Bayerischer
403 Bayerisches
45897 Bayern
317 Bayern-Landshut
2751 Bayerns
455 Bayeux
605 Bayonne
5378 Bayreuth
1360 Bayreuther
596 Bayrischen
922 Bde
6251 Beachtung
4605 Beamte
7221 Beamten
357 Beamtenlaufbahn
282 Beamtenschaft
4571 Beamter
814 Beanspruchung
320 Beantragung
637 Beantwortung
424 Bearbeiten
632 Bearbeiter
6251 Bearbeitung
1352 Bearbeitungen
999 Beate
2945 Beatles
396 Beatmung
1276 Beatrice
1322 Beatrix
298 Beaufsichtigung
537 Beauftragte
954 Beauftragten
1382 Beauftragter
343 Beauftragung
6423 Bebauung
264 Bebauungsdichte
811 Bebauungsplan
920 Beben
1697 Becher
4763 Beck
8876 Becken
568 Beckenbauer
2486 Beckens
6136 Becker
418 Beckers
1329 Beckmann
11686 Bedarf
1085 Bedarfs
537 Bedarfsfall
371 Bedauern
367 Bedeckung
3310 Bedenken
498 Bedenkzeit
91501 Bedeutung
2133 Bedeutungen
646 Bedeutungslosigkeit
348 Bedeutungsverlust
259 Bedeutungswandel
284 Bedienelemente
339 Bediener
628 Bedienstete
1154 Bediensteten
2759 Bedienung
5288 Bedingung
20059 Bedingungen
6159 Bedrohung
906 Bedrohungen
1034 Bedrängnis
2014 Bedürfnis
3911 Bedürfnisse
2081 Bedürfnissen
409 Bedürftige
285 Bedürftigen
1941 Beeinflussung
1311 Beeinträchtigung
937 Beeinträchtigungen
8555 Beendigung
2485 Beerdigung
548 Beerdigungen
372 Beere
2767 Beeren
3249 Beethoven
1848 Beethovens
526 Befahren
1287 Befall
13106 Befehl
2729 Befehle
754 Befehlen
542 Befehls
526 Befehlsgewalt
5162 Befehlshaber
448 Befehlshabers
4468 Befestigung
2117 Befestigungen
1464 Befestigungsanlage
2100 Befestigungsanlagen
337 Befolgung
1053 Befragten
1730 Befragung
658 Befragungen
416 Befreier
8265 Befreiung
327 Befreiungsarmee
292 Befreiungsbewegung
298 Befreiungsfront
325 Befreiungskrieg
923 Befreiungskriege
811 Befreiungskriegen
987 Befriedigung
449 Befriedung
275 Befristung
1269 Befruchtung
700 Befugnis
1834 Befugnisse
351 Befugnissen
1521 Befund
2103 Befunde
636 Befunden
738 Befähigung
7262 Beförderung
387 Beförderungen
732 Befürchtung
900 Befürchtungen
2626 Befürworter
730 Befürwortern
284 Befürwortung
2480 Begabung
351 Begabungen
380 Begattung
1022 Begebenheit
1206 Begebenheiten
8073 Begegnung
5236 Begegnungen
602 Begehren
905 Begehung
2861 Begeisterung
596 Begierde
91583 Beginn
439 Beginns
753 Begleitband
3910 Begleiter
396 Begleiterin
626 Begleitern
287 Begleitmusiker
5344 Begleitung
788 Begnadigung
326 Begradigung
2937 Begrenzung
388 Begrenzungen
70474 Begriff
10020 Begriffe
3024 Begriffen
1295 Begriffes
362 Begrifflichkeit
285 Begrifflichkeiten
3455 Begriffs
370 Begriffsklärung
1677 Begräbnis
474 Begräbnisplatz
261 Begräbnisse
1046 Begräbnisstätte
263 Begräbnisstätten
8612 Begründer
275 Begründerin
472 Begründern
359 Begründers
7978 Begründung
437 Begründungen
950 Begutachtung
354 Begünstigung
1440 Behaarung
19818 Behandlung
1031 Behandlungen
275 Behandlungsmethode
397 Behandlungsmethoden
270 Beharrlichkeit
3481 Behauptung
1525 Behauptungen
508 Behausung
585 Behausungen
588 Behebung
398 Beheizung
1162 Beherrschung
1029 Behinderte
697 Behinderten
3464 Behinderung
1374 Behinderungen
700 Behr
2365 Behälter
530 Behältern
286 Behältnis
7510 Behörde
16498 Behörden
2015 Beibehaltung
665 Beichte
269 Beichtstuhl
279 Beichtstühle
625 Beichtvater
316 Beide
832 Beiden
298 Beiersdorf
687 Beifahrer
889 Beifall
261 Beifang
302 Beigabe
776 Beigaben
303 Beigeordnete
418 Beigeordneten
861 Beigeordneter
1193 Beihilfe
264 Beihilfen
715 Beil
1354 Beilage
444 Beilagen
308 Beile
699 Beilegung
377 Beimischung
3465 Bein
1397 Beiname
4959 Beinamen
7797 Beine
2725 Beinen
310 Beines
385 Beinhaus
300 Beinpaar
299 Beinpaare
3469 Beirat
670 Beirates
1067 Beirats
265 Beiratsmitglied
2196 Beirut
1904 Beisein
1372 Beisetzung
1295 Beisitzer
106233 Beispiel
9156 Beispiele
1450 Beispielen
959 Beistand
12290 Beitrag
471 Beitrags
3908 Beitritt
285 Beitritts
288 Beitrittsverhandlungen
14196 Beiträge
2907 Beiträgen
1982 Beiwagen
960 Bekannte
1890 Bekannten
358 Bekanntenkreis
440 Bekannter
1126 Bekanntgabe
8577 Bekanntheit
2411 Bekanntheitsgrad
1529 Bekanntmachung
279 Bekanntmachungen
3567 Bekanntschaft
325 Bekanntschaften
1154 Bekanntwerden
938 Bekehrung
1012 Bekennenden
3329 Bekenntnis
473 Bekenntnisse
676 Bekenntnisses
276 Beklagte
368 Beklagten
1549 Bekleidung
539 Bekunden
6564 Bekämpfung
634 Beladung
606 Belag
544 Belagerer
275 Belagerten
10923 Belagerung
665 Belagerungen
434 Belang
3432 Belange
896 Belangen
604 Belastbarkeit
5539 Belastung
2572 Belastungen
640 Belebung
3032 Beleg
3477 Belege
451 Belegen
1839 Belegschaft
372 Belegschaftszahlen
856 Belegung
439 Belehrung
1215 Beleidigung
420 Beleidigungen
3753 Beleuchtung
2130 Belfast
20078 Belgien
1867 Belgiens
1878 Belgier
471 Belgische
727 Belgischen
6468 Belgrad
654 Belgrader
950 Belichtung
449 Belichtungszeit
263 Belichtungszeiten
758 Belieben
5259 Beliebtheit
416 Belieferung
323 Beliehenen
926 Belize
1842 Belle
810 Belletristik
877 Bellevue
2112 Belohnung
316 Belohnungen
416 Belästigung
590 Belüftung
1200 Bemalung
1268 Bemerkung
1120 Bemerkungen
418 Bemessung
1444 Bemühen
290 Bemühung
8021 Bemühungen
7982 Ben
715 Benachteiligung
254 Benachteiligungen
8263 Benedikt
1581 Benediktiner
1152 Benediktinerabtei
405 Benediktinerinnen
334 Benediktinerinnenkloster
1415 Benediktinerkloster
553 Benediktinerklosters
335 Benediktinermönch
317 Benediktinern
568 Benehmen
3825 Benennung
356 Benennungen
430 Benetton
306 Bengalisch
7187 Benjamin
1108 Bentley
5562 Benutzer
1124 Benutzern
1208 Benutzeroberfläche
298 Benutzeroberflächen
606 Benutzers
4700 Benutzung
1560 Benz
2312 Benzin
488 Benzinmotor
378 Benzinmotoren
267 Benzinverbrauch
760 Benzol
327 Beobachten
4933 Beobachter
729 Beobachtern
611 Beobachters
6176 Beobachtung
5693 Beobachtungen
257 Beobachtungsposten
594 Bepflanzung
275 Bequemlichkeit
454 Beratenden
11915 Berater
790 Beraterin
570 Beratern
5294 Beratung
1456 Beratungen
477 Beratungsstelle
349 Beratungsstellen
282 Beratungsunternehmen
2191 Berchtesgaden
7446 Berechnung
2896 Berechnungen
315 Berechtigten
1348 Berechtigung
303 Beredsamkeit
108542 Bereich
13700 Bereiche
19514 Bereichen
748 Bereicherung
787 Bereiches
1437 Bereichs
275 Bereinigung
2563 Bereitschaft
408 Bereitschaftspolizei
2503 Bereitstellung
41345 Berg
1085 Bergakademie
383 Bergamt
936 Bergarbeiter
443 Bergbahn
437 Bergbahnen
8017 Bergbau
1461 Bergbaus
350 Bergbauunternehmen
561 Bergdorf
11659 Berge
12037 Bergen
5436 Berger
5709 Berges
650 Bergführer
658 Berggipfel
680 Berghang
352 Berghaus
1346 Bergheim
316 Berghof
347 Berghänge
578 Berghängen
400 Berghütte
1589 Bergisch
664 Bergische
1811 Bergischen
306 Bergkamm
1140 Bergkette
476 Bergketten
323 Bergkirche
270 Bergkristall
566 Bergkuppe
3442 Bergland
778 Berglandes
356 Berglands
297 Berglandschaft
2747 Bergleute
1492 Bergleuten
2473 Bergmann
269 Bergmanns
468 Bergmassiv
350 Bergmeister
307 Bergneustadt
325 Bergpredigt
296 Bergrat
321 Bergregion
649 Bergregionen
542 Bergrennen
1575 Bergrücken
1335 Bergs
287 Bergsee
770 Bergsporn
556 Bergstadt
1102 Bergstation
481 Bergsteigen
2059 Bergsteiger
466 Bergsteigern
254 Bergsturz
1408 Bergung
268 Bergwelt
4687 Bergwerk
1358 Bergwerke
910 Bergwerken
1376 Bergwerks
964 Bergwertung
264 Bergwiesen
371 Bergwäldern
13506 Bericht
8317 Berichte
4060 Berichten
820 Berichterstatter
3943 Berichterstattung
250 Berichtes
630 Berichts
4822 Berkeley
194369 Berlin
1666 Berlin-Brandenburg
360 Berlin-Brandenburgischen
276 Berlin-Buch
1443 Berlin-Charlottenburg
301 Berlin-Friedrichshain
850 Berlin-Kreuzberg
355 Berlin-Marathon
1060 Berlin-Mitte
448 Berlin-Neukölln
280 Berlin-Pankow
569 Berlin-Schöneberg
262 Berlin-Schönefeld
491 Berlin-Spandau
279 Berlin-Tegel
415 Berlin-Tempelhof
448 Berlin-Wilmersdorf
342 Berlin-Zehlendorf
63791 Berliner
267 Berlinern
254 Berlinischen
4829 Berlins
762 Berlusconi
765 Bermuda
347 Bermudas
20043 Bern
586 Bernadotte
6084 Bernd
5870 Berner
15776 Bernhard
608 Bernhards
635 Bernhardt
409 Bernoulli
381 Berns
2965 Bernstein
308 Bernsteins
1871 Bert
990 Berta
1134 Bertelsmann
3141 Berthold
19123 Beruf
2581 Berufe
1711 Berufen
431 Berufes
306 Berufliche
1264 Berufs
332 Berufsakademie
2334 Berufsausbildung
341 Berufsausübung
1019 Berufsbezeichnung
504 Berufsbild
565 Berufsbildung
322 Berufsbildungsgesetz
515 Berufserfahrung
761 Berufsfachschule
1052 Berufsfeuerwehr
375 Berufsgenossenschaft
400 Berufsgenossenschaften
257 Berufsgruppe
757 Berufsgruppen
421 Berufskolleg
258 Berufslaufbahn
940 Berufsleben
343 Berufsmusiker
320 Berufsoffizier
273 Berufspraxis
2017 Berufsschule
608 Berufsschulen
305 Berufssoldat
430 Berufssoldaten
270 Berufsstand
420 Berufstitel
321 Berufstätige
781 Berufstätigkeit
796 Berufsverband
901 Berufsverbot
495 Berufsverkehr
320 Berufswahl
307 Berufswunsch
8998 Berufung
683 Berufungen
619 Berufungsgericht
316 Berufungsverfahren
500 Beruhigung
5827 Berücksichtigung
2158 Berühmtheit
329 Berühmtheiten
283 Berühren
3857 Berührung
299 Berührungen
268 Berührungspunkte
253 Besatz
1592 Besatzer
832 Besatzern
15337 Besatzung
1526 Besatzungen
657 Besatzungsbehörden
3441 Besatzungsmacht
423 Besatzungsmitglied
2715 Besatzungsmitglieder
559 Besatzungsmitgliedern
636 Besatzungsmächte
253 Besatzungsmächten
1343 Besatzungstruppen
1275 Besatzungszeit
4880 Besatzungszone
846 Besatzungszonen
2159 Beschaffenheit
3139 Beschaffung
2725 Bescheid
516 Bescheidenheit
425 Bescheinigung
831 Beschichtung
366 Beschichtungen
523 Beschilderung
275 Beschimpfungen
341 Beschlag
661 Beschlagnahme
383 Beschlagnahmung
2481 Beschleunigung
9578 Beschluss
556 Beschlusses
373 Beschlussfassung
305 Beschläge
3322 Beschlüsse
701 Beschlüssen
1048 Beschneidung
14091 Beschreibung
3273 Beschreibungen
869 Beschriftung
2372 Beschränkung
2036 Beschränkungen
385 Beschuldigte
844 Beschuldigten
363 Beschuldigungen
2729 Beschuss
1756 Beschwerde
3653 Beschwerden
261 Beschwörung
1409 Beschädigung
2014 Beschädigungen
4160 Beschäftigte
5575 Beschäftigten
6651 Beschäftigung
351 Beschäftigungen
766 Beschützer
3387 Beseitigung
490 Besen
386 Besessenheit
21622 Besetzung
1183 Besetzungen
1302 Besichtigung
341 Besichtigungen
2695 Besiedelung
11122 Besiedlung
397 Besinnung
60836 Besitz
20430 Besitzer
1077 Besitzerin
1683 Besitzern
1001 Besitzers
2254 Besitzes
322 Besitzrechte
362 Besitztum
1851 Besitztümer
385 Besitztümern
470 Besitzung
8933 Besitzungen
739 Besitzverhältnisse
588 Besoldung
302 Besoldungsgruppe
1226 Besondere
1944 Besonderen
392 Besonderes
11695 Besonderheit
4301 Besonderheiten
319 Besonders
556 Besorgnis
1195 Besprechung
614 Besprechungen
331 Besser
1231 Besserung
13898 Bestand
815 Bestandes
726 Bestandsaufnahme
275 Bestandszahlen
22292 Bestandteil
4681 Bestandteile
1147 Bestandteilen
298 Bestatteten
2055 Bestattung
1571 Bestattungen
7312 Beste
260 Bestechlichkeit
767 Bestechung
250 Besteck
5629 Bestehen
3541 Bestehens
1611 Besteigung
2766 Bestellung
814 Bestellungen
2402 Besten
392 Bestenliste
7019 Bester
2003 Bestes
1375 Besteuerung
458 Bestie
278 Bestimmtheit
10353 Bestimmung
6953 Bestimmungen
326 Bestimmungsort
1580 Bestleistung
516 Bestmarke
1965 Bestrafung
685 Bestrahlung
2069 Bestreben
4777 Bestrebungen
1917 Bestseller
458 Bestuhlung
1672 Bestzeit
5979 Bestände
1649 Beständen
683 Beständigkeit
4238 Bestätigung
24382 Besuch
1729 Besuche
940 Besuchen
17200 Besucher
5897 Besuchern
252 Besucherrekord
506 Besucherzahl
1074 Besucherzahlen
800 Besucherzentrum
594 Besuches
1012 Besuchs
1183 Beta
532 Beteiligte
4530 Beteiligten
256 Beteiligter
14047 Beteiligung
1797 Beteiligungen
616 Beteiligungsgesellschaft
313 Beten
1202 Bethlehem
4588 Beton
256 Betons
2735 Betonung
3763 Betracht
466 Betrachten
3433 Betrachter
628 Betrachters
4894 Betrachtung
1430 Betrachtungen
790 Betrachtungsweise
4478 Betrag
250 Betrages
4432 Betreiben
5956 Betreiber
970 Betreibergesellschaft
308 Betreiberin
617 Betreibern
437 Betreibers
1360 Betreten
1459 Betreuer
273 Betreuten
6261 Betreuung
68977 Betrieb
14726 Betriebe
4498 Betrieben
2132 Betriebes
2480 Betriebs
312 Betriebsart
488 Betriebsaufnahme
325 Betriebsbahnhof
301 Betriebseinstellung
282 Betriebserlaubnis
1521 Betriebsführung
426 Betriebsgebäude
597 Betriebsgelände
395 Betriebsgesellschaft
1113 Betriebshof
309 Betriebsjahren
964 Betriebskosten
352 Betriebskrankenkasse
623 Betriebsleiter
273 Betriebsleitung
484 Betriebsmittel
327 Betriebsnummer
693 Betriebsnummern
1052 Betriebsrat
250 Betriebssicherheit
409 Betriebsspannung
811 Betriebssportgemeinschaft
320 Betriebssportgemeinschaften
252 Betriebsstätte
259 Betriebsstätten
3849 Betriebssystem
1388 Betriebssysteme
1045 Betriebssystemen
993 Betriebssystems
314 Betriebsteil
251 Betriebstemperatur
350 Betriebswerk
435 Betriebswirt
1529 Betriebswirtschaft
3114 Betriebswirtschaftslehre
477 Betriebszeit
257 Betriebszählung
1553 Betroffene
4820 Betroffenen
264 Betroffenheit
1556 Betrug
278 Betruges
512 Betrugs
1110 Beträge
699 Betrüger
4818 Bett
597 Bette
275 Bettelorden
3558 Betten
1339 Bettina
831 Bettler
2179 Betty
324 Betätigen
2249 Betätigung
622 Betätigungsfeld
304 Betäubung
332 Betäubungsmittel
591 Beugung
331 Beurkundung
336 Beurlaubung
4300 Beurteilung
330 Beurteilungen
5659 Beute
1175 Beutel
281 Beutetier
1162 Beutetiere
415 Beutetieren
667 Bevollmächtigten
883 Bevollmächtigter
318 Bevormundung
833 Bevorzugung
90667 Bevölkerung
301 Bevölkerungen
270 Bevölkerungsanstieg
969 Bevölkerungsanteil
10946 Bevölkerungsdichte
772 Bevölkerungsentwicklung
1138 Bevölkerungsgruppe
1578 Bevölkerungsgruppen
901 Bevölkerungsmehrheit
699 Bevölkerungsrückgang
1055 Bevölkerungsschichten
290 Bevölkerungsstruktur
438 Bevölkerungsteile
387 Bevölkerungsverteilung
2906 Bevölkerungswachstum
299 Bevölkerungswachstums
6241 Bevölkerungszahl
502 Bevölkerungszahlen
1048 Bevölkerungszunahme
556 Bevölkerungszuwachs
260 Bewacher
1221 Bewachung
4145 Bewaffnung
1455 Bewahrung
300 Bewegen
532 Beweggründe
1527 Beweglichkeit
29444 Bewegung
8192 Bewegungen
264 Bewegungsablauf
424 Bewegungsabläufe
267 Bewegungsenergie
646 Bewegungsfreiheit
501 Bewegungsrichtung
7207 Beweis
3275 Beweise
954 Beweisen
348 Beweisführung
579 Beweismittel
284 Bewerben
2712 Bewerber
799 Bewerbern
2102 Bewerbung
611 Bewerbungen
6393 Bewertung
1305 Bewertungen
1104 Bewilligung
2073 Bewirtschaftung
263 Bewirtung
26790 Bewohner
9020 Bewohnern
832 Bewuchs
683 Bewunderer
1106 Bewunderung
430 Bewusstlosigkeit
6260 Bewusstsein
1147 Bewusstseins
1940 Bewährung
280 Bewährungsstrafe
1370 Bewältigung
1655 Bewässerung
2837 Bezahlung
71979 Bezeichnung
10138 Bezeichnungen
21107 Beziehung
23757 Beziehungen
33524 Bezirk
5241 Bezirke
2216 Bezirken
1558 Bezirkes
6283 Bezirks
2524 Bezirksamt
253 Bezirksamtes
369 Bezirksbürgermeister
278 Bezirksebene
1766 Bezirksgericht
285 Bezirksgerichts
252 Bezirksgrenze
2014 Bezirkshauptmannschaft
1103 Bezirkshauptstadt
871 Bezirksklasse
323 Bezirksleiter
363 Bezirksleitung
3365 Bezirksliga
254 Bezirksmeister
344 Bezirksoberliga
291 Bezirksobmann
323 Bezirksrat
1207 Bezirksregierung
392 Bezirksrichter
377 Bezirksschule
936 Bezirksstaatsanwalt
287 Bezirksstadt
474 Bezirksteil
268 Bezirksverband
275 Bezirksverbandes
479 Bezirksversammlung
446 Bezirksvertretung
438 Bezirksverwaltung
463 Bezirksvorsitzender
275 Bezirksvorstand
264 Bezirksvorstandes
387 Bezirksvorsteher
22877 Bezug
800 Bezugnahme
315 Bezugsperson
313 Bezugspersonen
565 Bezugspunkt
432 Bezugssystem
2286 Bezüge
714 Bezügen
369 Biarritz
1398 Biathlet
345 Biathleten
1041 Biathletin
1394 Biathlon
276 Biathlon-Europacup
638 Biathlon-Europameisterschaften
1292 Biathlon-Weltmeisterschaften
8013 Bibel
360 Bibeln
622 Bibelübersetzung
258 Bibelübersetzungen
1346 Biber
748 Bibliographie
18546 Bibliothek
2473 Bibliothekar
263 Bibliothekare
362 Bibliothekarin
4993 Bibliotheken
324 Bibliothekswesen
307 Biblische
912 Biedenkopf
443 Biedermeier
593 Biegung
9017 Bielefeld
1236 Bielefelder
771 Biene
2150 Bienen
5603 Bier
361 Bierbrauer
549 Bierbrauerei
533 Biere
294 Bieres
655 Biergarten
605 Biermann
452 Biest
358 Bieter
1028 Bigband
280 Bikini
3255 Bilanz
278 Bilanzen
273 Bilanzierung
895 Bilanzsumme
40283 Bild
428 Bild-Zeitung
495 Bildband
312 Bildbearbeitung
340 Bildbände
320 Bilddaten
260 Bildebene
2547 Bildende
3333 Bildenden
894 Bildender
24198 Bilder
441 Bilderbuch
250 Bilderbücher
8980 Bildern
302 Bildersturm
3343 Bildes
506 Bildfläche
254 Bildgebung
14858 Bildhauer
2421 Bildhauerei
1147 Bildhauerin
623 Bildhauern
3041 Bildhauers
424 Bildmaterial
279 Bildmitte
2101 Bildnis
834 Bildnisse
257 Bildnissen
294 Bildprogramm
263 Bildpunkte
508 Bildqualität
615 Bildrand
2226 Bildschirm
363 Bildschirme
281 Bildschirmen
322 Bildschnitzer
572 Bildsprache
471 Bildstock
260 Bildtafeln
31949 Bildung
280 Bildungen
296 Bildungsangebot
325 Bildungsanstalt
745 Bildungsarbeit
428 Bildungsbereich
1024 Bildungseinrichtung
1708 Bildungseinrichtungen
316 Bildungsforschung
532 Bildungsminister
477 Bildungsministerium
740 Bildungspolitik
435 Bildungsreise
516 Bildungsstätte
760 Bildungssystem
292 Bildungssystems
638 Bildungsweg
265 Bildungswerk
1109 Bildungswesen
459 Bildungswesens
794 Bildungszentrum
423 Bildverarbeitung
436 Bildwerke
12083 Bill
467 Billard
349 Billigfluggesellschaft
700 Billigung
633 Billionen
557 Bills
6787 Billy
828 Bin
894 Binde
680 Bindegewebe
1205 Bindeglied
851 Bindemittel
736 Binden
1107 Binder
515 Bindestrich
5764 Bindung
2042 Bindungen
1841 Bingen
271 Binnen
321 Binnengewässer
298 Binnengewässern
452 Binnenhafen
1060 Binnenland
483 Binnenmarkt
681 Binnenschifffahrt
362 Binnensee
284 Binsen
1860 Biochemie
626 Biochemiker
402 Biodiesel
440 Biogas
258 Biogasanlage
269 Biogasanlagen
344 Biograf
274 Biografen
3234 Biografie
1085 Biografien
694 Biograph
434 Biographen
3934 Biographie
1177 Biographien
1035 Biologe
897 Biologen
6499 Biologie
434 Biologische
402 Biologischen
1233 Biomasse
473 Biophysik
384 Biosphäre
492 Biosynthese
960 Biotechnologie
783 Biotop
714 Biotope
348 Biotopen
296 Bioverfügbarkeit
312 Biowissenschaften
1220 Birgit
557 Birke
1550 Birken
276 Birkenau
1263 Birkenfeld
4814 Birmingham
643 Birnbaum
333 Birne
518 Birnen
57786 Bischof
7684 Bischofs
634 Bischofsamt
364 Bischofsheim
705 Bischofskirche
2317 Bischofskonferenz
3553 Bischofssitz
372 Bischofsstab
324 Bischofsstadt
389 Bischofsstuhl
261 Bischofssynode
6833 Bischofsweihe
7422 Bischöfe
2124 Bischöfen
369 Bischöfliche
771 Bischöflichen
432 Biskaya
4334 Bismarck
1133 Bismarcks
777 Biss
23224 Bistum
10005 Bistums
1926 Bistümer
661 Bistümern
3275 Bit
1150 Bits
3834 Bitte
1835 Bitten
626 Bitter
343 Bitumen
1452 Björn
273 Blackout
1675 Blair
819 Blank
719 Blase
667 Blasen
382 Blasinstrumente
259 Blaskapelle
427 Blasmusik
728 Blasorchester
651 Blast
7570 Blatt
740 Blattachseln
429 Blattadern
291 Blattbasis
1187 Blattes
432 Blattfedern
327 Blattgold
348 Blattgrund
1135 Blattoberfläche
1466 Blattoberflächen
770 Blattoberseite
2517 Blattrand
708 Blattränder
566 Blattscheiden
621 Blattspitze
2005 Blattstiel
845 Blattstiele
888 Blattunterseite
399 Blattwerk
8103 Blau
2195 Blaue
2064 Blauen
594 Blauer
381 Blausäure
1364 Blech
406 Bleche
402 Blechen
3310 Blei
418 Bleibe
260 Bleiburg
322 Bleiche
262 Bleichen
398 Bleiglasfenster
515 Bleistift
824 Blende
425 Blenden
15068 Blick
525 Blicke
300 Blicken
333 Blickfang
1048 Blickfeld
765 Blickpunkt
450 Blickrichtung
1107 Blickwinkel
252 Blickwinkeln
284 Blies
1238 Blind
753 Blinde
639 Blinden
438 Blindheit
338 Blinker
2382 Blitz
429 Blitze
292 Blitzeinschlag
288 Blitzen
839 Blitzschlag
6381 Block
2087 Blockade
295 Blockaden
429 Blockbuster
468 Blockflöte
469 Blockhaus
260 Blockierung
1252 Blocks
1238 Blog
339 Blogger
727 Blogs
379 Blonde
268 Bloomberg
11606 Blues
538 Bluetooth
704 Bluff
1979 Blume
3863 Blumen
367 Blumenau
289 Blumenberg
11345 Blut
496 Blut-Hirn-Schranke
487 Blutbad
298 Blutbahn
817 Blutdruck
1342 Blutes
388 Blutgerinnung
339 Blutgruppe
508 Bluthochdruck
509 Blutkreislauf
930 Blutkörperchen
321 Blutplasma
496 Blutung
1035 Blutungen
275 Blutvergiftung
292 Blutzellen
276 Bläschen
806 Bläser
295 Bläsern
793 Blättchen
16651 Blätter
6442 Blättern
2426 Blöcke
1139 Blöcken
7172 Blüte
23664 Blüten
406 Blütenbecher
610 Blütenblätter
1002 Blütenhülle
538 Blütenkrone
372 Blütenpflanzen
746 Blütenröhre
4121 Blütenstand
343 Blütenstandes
669 Blütenstiel
1095 Blütenstiele
1107 Blütenstielen
3036 Blütenstände
1239 Blütenständen
8115 Blütezeit
378 Boa
365 Boas
9749 Bob
273 Bobfahrer
263 Bobsport
9844 Bochum
1770 Bochumer
2179 Bock
416 Bockwindmühle
36996 Boden
285 Bodenbearbeitung
262 Bodenbelag
382 Bodenbeschaffenheit
1263 Bodendenkmal
296 Bodendenkmalpflege
461 Bodendenkmäler
312 Bodenerosion
346 Bodenfreiheit
339 Bodenfunde
307 Bodengrund
467 Bodenkultur
537 Bodenkunde
268 Bodenmechanik
299 Bodenniveau
470 Bodennähe
452 Bodenplatte
1360 Bodenreform
2560 Bodens
263 Bodenschichten
811 Bodenschätze
606 Bodenschätzen
4185 Bodensee
434 Bodenseekreis
560 Bodensees
398 Bodenstation
252 Bodenstationen
309 Bodenstein
568 Bodentruppen
5455 Boeing
8189 Bogen
624 Bogenbrücke
277 Bogenminuten
825 Bogens
477 Bogenschütze
919 Bogenschützen
529 Bogensekunden
1185 Bohlen
286 Bohne
1472 Bohnen
622 Bohr
319 Bohren
468 Bohrer
384 Bohrloch
1755 Bohrung
1319 Bohrungen
4983 Bolivien
621 Boliviens
655 Bollwerk
5710 Bologna
260 Bologna-Prozesses
1666 Bolschewiki
497 Bolzen
754 Bombardement
577 Bombardements
1635 Bombardierung
589 Bombardierungen
1957 Bombay
2847 Bombe
3865 Bomben
2113 Bombenangriff
1311 Bombenangriffe
941 Bombenangriffen
582 Bombenanschlag
652 Bombentreffer
3396 Bomber
641 Bombern
393 Bombers
1685 Bon
3246 Bonaparte
520 Bonapartes
373 Bongo
663 Bonhoeffer
407 Boni
371 Bonität
28727 Bonn
4815 Bonner
979 Bonus
389 Bonusmaterial
999 Boogie
810 Booklet
1676 Boom
13457 Boot
7959 Boote
3125 Booten
1506 Bootes
560 Boots
445 Bootshaus
436 Bootsklasse
255 Bootsklassen
15906 Bord
296 Bordcomputer
4811 Bordeaux
685 Bordell
290 Bordelle
320 Borden
252 Bordingenieur
268 Bordwand
4579 Boris
1108 Borke
1172 Borken
684 Borkum
276 Borland
1611 Borsten
7244 Borussia
2708 Bosch
4144 Bosnien
1275 Bosnien-Herzegowina
303 Bosniens
823 Bosporus
1855 Boss
683 Bosse
15926 Boston
287 Boston-Marathon
3192 Botanik
4470 Botaniker
340 Botanikers
798 Botanische
2339 Botanischen
265 Botanischer
980 Bote
1403 Boten
10155 Botschaft
2014 Botschaften
12743 Botschafter
826 Botschafterin
1271 Botschafters
523 Botschaftsrat
349 Botschaftssekretär
1025 Botswana
418 Bougainville
404 Bouillon
2650 Boulevard
312 Boulevardpresse
381 Boulevards
436 Boulevardzeitung
726 Bourbonen
592 Bourgeoisie
558 Bourgogne
271 Boutique
338 Boutiquen
674 Bowling
3665 Box
551 Boxberg
2128 Boxen
3509 Boxer
254 Boxkampf
308 Boxsport
4587 Boy
1158 Boykott
271 Boykotts
5668 Boys
3439 Bozen
1508 Brabant
305 Brachland
410 Bracht
648 Brackwasser
364 Brahmanen
1752 Brahms
2965 Branche
2407 Branchen
17309 Brand
374 Brandanschlag
605 Brandbekämpfung
552 Brandbomben
498 Brandeis
21882 Brandenburg
569 Brandenburg-Ansbach
2665 Brandenburger
357 Brandenburgische
881 Brandenburgischen
1152 Brandenburgs
1367 Brandes
268 Brandgefahr
401 Brandkatastrophe
267 Brandrodung
744 Brands
906 Brandschutz
314 Brandstifter
1093 Brandstiftung
3253 Brandt
368 Brandts
473 Brandung
434 Branntwein
1500 Brasilianer
303 Brasilianischen
18701 Brasilien
2666 Brasiliens
396 Braten
434 Bratsche
3288 Brauch
1202 Brauchtum
295 Brauchtums
1101 Brauer
8910 Brauerei
1610 Brauereien
1051 Brauhaus
259 Braumeister
5530 Braun
1251 Braunau
388 Braunbären
815 Braune
573 Braunen
957 Brauner
534 Braunfels
1828 Braunkohle
412 Braunlage
18748 Braunschweig
1288 Braunschweig-Lüneburg
3567 Braunschweiger
481 Braunschweigs
3579 Braut
250 Brautpaar
559 Brauweiler
348 Brave
382 Braves
369 Brechen
2946 Brecht
416 Brechung
480 Brechungsindex
2521 Bregenz
484 Brei
706 Breisach
21138 Breite
2186 Breiten
322 Breitenau
721 Breitenbach
297 Breitenfeld
475 Breitengrad
657 Breitensport
310 Breitkopf
530 Breitspur
31684 Bremen
747 Bremens
10814 Bremer
5317 Bremerhaven
372 Bremsanlage
1164 Bremse
1969 Bremsen
253 Bremsscheiben
543 Brennelemente
665 Brennen
1893 Brenner
1586 Brennerei
296 Brennereien
707 Brennholz
438 Brennkammer
369 Brennmaterial
849 Brennpunkt
312 Brennraum
1614 Brennstoff
605 Brennstoffe
395 Brennstoffen
298 Brennstoffzellen
1162 Brennweite
361 Bresche
14765 Breslau
2919 Brest
459 Brest-Litowsk
3245 Brett
554 Bretter
507 Brettern
545 Brettspiel
14063 Brief
7278 Briefe
3248 Briefen
726 Briefes
302 Briefkasten
392 Briefkontakt
1220 Briefmarke
2470 Briefmarken
2376 Briefwechsel
5689 Brigade
2582 Brigadegeneral
1665 Brigaden
715 Brigadier
1848 Brighton
2502 Brigitte
464 Brikettfabrik
301 Brillanten
306 Brillanz
1061 Brille
366 Brillen
379 Bring
445 Brisanz
4613 Bristol
1250 Brite
13437 Briten
490 Britin
331 Britisch
811 Britisch-Amerikanischen
704 Britisch-Indien
1583 Britische
4559 Britischen
449 Britta
1677 Brixen
614 Broadcast
871 Brocken
747 Brockhaus
271 Bronchien
310 Bronchitis
12841 Bronze
263 Bronzefigur
312 Bronzeglocke
562 Bronzeglocken
13482 Bronzemedaille
1174 Bronzemedaillen
381 Bronzemedaillengewinner
304 Bronzen
361 Bronzeplastik
547 Bronzestatue
262 Bronzetafel
4859 Bronzezeit
1116 Broschüre
884 Broschüren
4745 Brot
1385 Browser
7440 Bruch
345 Bruchs
705 Bruchstein
805 Bruchsteinen
413 Bruchsteinmauerwerk
363 Bruchstück
1156 Bruchstücke
324 Bruchstücken
969 Bruchteil
67378 Bruder
8067 Bruders
2239 Bruderschaft
448 Bruderschaften
10516 Brunnen
353 Brunnenanlage
269 Brunnenhaus
1004 Brunnens
9286 Bruno
7233 Brust
297 Brustbild
1154 Brustflossen
485 Brustkorb
786 Brustkrebs
799 Brustseite
282 Bruststern
2007 Brut
999 Brutalität
378 Brutdauer
789 Brutgebiet
493 Brutgebiete
301 Brutgebieten
473 Brutkolonien
961 Brutpaare
309 Brutpaaren
418 Brutpflege
320 Brutplatz
309 Brutplätze
276 Brutsaison
890 Bruttoinlandsprodukt
314 Bruttoinlandsprodukts
265 Bruttoleistung
475 Brutvogel
509 Brutvögel
2546 Brutzeit
2203 Bryan
1579 Brände
1017 Bränden
1287 Bräuche
400 Bräuchen
1199 Bräutigam
276 Bräutigams
435 Brötchen
1048 Brüche
422 Brüchen
34611 Brücke
8497 Brücken
300 Brückenau
758 Brückenbau
275 Brückenbauwerk
1444 Brückenkopf
326 Brückenpfeiler
22815 Brüder
374 Brüderlichkeit
7561 Brüdern
2144 Brügge
329 Brühe
11497 Brüssel
257 Brüssel-Hauptstadt
1334 Brüsseler
513 Brüste
985 Brüstung
391 Brüstungen
462 Bsp
255 Bube
438 Buben
63127 Buch
583 Buchau
321 Buchausgabe
1444 Buchautor
301 Buchautorin
323 Buchberg
503 Buchbinder
546 Buchdruck
1084 Buchdrucker
518 Buchdruckerei
443 Buchdrucks
1866 Buche
1985 Buchen
443 Buchenau
2818 Buchenwald
251 Buchenwälder
7558 Buches
1193 Buchform
694 Buchführung
1082 Buchhalter
601 Buchhaltung
840 Buchhandel
630 Buchhandels
1921 Buchhandlung
444 Buchhandlungen
319 Buchheim
2320 Buchholz
1929 Buchhändler
284 Buchhändlers
400 Buchillustrationen
597 Buchkunst
308 Buchladen
741 Buchmalerei
302 Buchmarkt
972 Buchmesse
253 Buchpreis
1326 Buchreihe
1430 Buchs
3000 Buchstabe
10297 Buchstaben
323 Buchstabens
11436 Bucht
1399 Buchten
471 Buchtitel
284 Buchung
519 Buchverlag
288 Buchveröffentlichung
363 Buchveröffentlichungen
408 Buchwald
501 Buckel
862 Buckingham
12628 Budapest
1927 Buddha
673 Buddhas
4596 Buddhismus
315 Buddhist
636 Buddhisten
322 Buden
4180 Budget
732 Budgets
8779 Buenos
3626 Bug
744 Bugatti
592 Bugs
6861 Bukarest
9586 Bulgarien
1503 Bulgariens
559 Bulgarische
1048 Bulgarischen
3257 Bull
297 Bulldog
3287 Bulle
947 Bullen
824 Bulletin
17733 Bund
666 Bunde
12300 Bundes
665 Bundesagentur
2837 Bundesamt
755 Bundesamtes
1637 Bundesanstalt
348 Bundesanwaltschaft
333 Bundesarbeitsgemeinschaft
467 Bundesarbeitsgericht
507 Bundesarchiv
7156 Bundesautobahn
476 Bundesautobahnen
3073 Bundesbahn
1159 Bundesbahnen
993 Bundesbank
306 Bundesbehörde
562 Bundesbehörden
269 Bundesdenkmalamt
2119 Bundesebene
707 Bundesgartenschau
1098 Bundesgebiet
414 Bundesgenossen
721 Bundesgericht
2155 Bundesgerichtshof
256 Bundesgerichtshofes
501 Bundesgerichtshofs
1993 Bundesgesetz
301 Bundesgesetzblatt
351 Bundesgrenzschutz
297 Bundesgymnasium
1197 Bundeshauptstadt
1059 Bundesheer
721 Bundesheeres
323 Bundesinnenminister
256 Bundesinnenministerium
408 Bundesinstitut
285 Bundeskabinett
3816 Bundeskanzler
821 Bundeskanzleramt
698 Bundeskanzlerin
721 Bundeskanzlers
369 Bundeskartellamt
383 Bundeskriminalamt
7319 Bundesland
2307 Bundeslandes
13826 Bundesliga
342 Bundesliga-Saison
292 Bundesligadebüt
385 Bundesligamannschaft
484 Bundesligasaison
614 Bundesligaspiel
767 Bundesligaspiele
390 Bundesligaspielen
367 Bundesligator
257 Bundesligist
2441 Bundesligisten
4450 Bundesländer
6602 Bundesländern
812 Bundesmarine
2149 Bundesminister
325 Bundesministerien
421 Bundesministerin
5267 Bundesministerium
1554 Bundesministeriums
322 Bundesministers
265 Bundesnachrichtendienst
600 Bundesnetzagentur
402 Bundesparteitag
271 Bundespolitik
1122 Bundespolizei
1576 Bundespost
2433 Bundespräsident
2849 Bundespräsidenten
434 Bundesprüfstelle
4301 Bundesrat
1605 Bundesrates
406 Bundesrats
345 Bundesrealgymnasium
335 Bundesrecht
9624 Bundesregierung
23992 Bundesrepublik
518 Bundesrichter
350 Bundessozialgericht
25652 Bundesstaat
6028 Bundesstaaten
10405 Bundesstaates
1227 Bundesstaats
315 Bundesstaatsanwalt
293 Bundesstiftung
9809 Bundestag
4338 Bundestages
711 Bundestags
408 Bundestagsabgeordnete
583 Bundestagsabgeordneten
272 Bundestagsabgeordneter
368 Bundestagsfraktion
4961 Bundestagswahl
612 Bundestagswahlen
1117 Bundestagswahlkreis
1515 Bundestrainer
2477 Bundesverband
827 Bundesverbandes
3493 Bundesverdienstkreuz
562 Bundesverdienstkreuzes
606 Bundesvereinigung
958 Bundesverfassung
2628 Bundesverfassungsgericht
987 Bundesverfassungsgerichts
260 Bundesverkehrsministerium
1368 Bundesversammlung
406 Bundesverwaltung
787 Bundesverwaltungsgericht
314 Bundesvorsitzende
394 Bundesvorsitzenden
916 Bundesvorsitzender
1183 Bundesvorstand
411 Bundesvorstandes
12728 Bundeswehr
399 Bundeswettbewerb
532 Bundeszentrale
292 Bundesärztekammer
3097 Bunker
449 Bunkern
250 Bunkers
399 Bunsen
319 Buntbarsche
634 Bunte
311 Bunten
288 Buntglasfenster
1202 Buntsandstein
331 Buntsandsteins
898 Burchard
476 Burda
451 Burenkrieg
83001 Burg
4746 Burganlage
416 Burganlagen
466 Burgau
1195 Burgberg
1143 Burgdorf
6419 Burgen
3744 Burgenland
526 Burgenlandes
268 Burggelände
705 Burggraben
946 Burggraf
1544 Burggrafen
336 Burggrafschaft
267 Burghardt
374 Burgherr
556 Burgherren
854 Burghof
486 Burghügel
972 Burgkapelle
326 Burgmann
530 Burgmannen
321 Burgmauer
465 Burgplatz
3869 Burgruine
2132 Burgstall
302 Burgsteinfurt
477 Burgstelle
1659 Burgtheater
441 Burgtheaters
471 Burgtor
5358 Burgund
471 Burgunder
378 Burgundischen
604 Burgwall
1306 Burma
273 Bursche
676 Burschen
3796 Burschenschaft
854 Burschenschaften
706 Burundi
5713 Bus
1399 Busbahnhof
305 Busbetrieb
4895 Busch
606 Buschland
251 Buschmann
311 Buschwerk
327 Busfahrer
2295 Bush
777 Bushaltestelle
424 Bushaltestellen
6898 Business
2895 Buslinie
4392 Buslinien
357 Busnetz
4933 Busse
1820 Bussen
258 Busses
526 Busunternehmen
514 Busverbindung
829 Busverbindungen
990 Busverkehr
3132 Butler
255 Butlers
1880 Butter
1261 Button
254 Butzen
819 Buxtehude
1158 Byte
799 Bytes
746 Byzantiner
350 Byzantinern
512 Byzantinische
1107 Byzantinischen
2261 Byzanz
3171 Bäche
1666 Bächen
1537 Bäcker
1463 Bäckerei
467 Bäckereien
292 Bäckermeister
327 Bäckers
1203 Bäder
454 Bädern
1232 Bälle
404 Bällen
9162 Bände
5344 Bänden
1993 Bänder
1218 Bändern
917 Bänke
530 Bänken
2977 Bär
534 Bärbel
3786 Bären
275 Bärenstein
404 Bäuerin
9383 Bäume
7053 Bäumen
1397 Böblingen
8542 Böden
3692 Bögen
1211 Böhme
11700 Böhmen
602 Böhmisch
720 Böhmische
1833 Böhmischen
1624 Börde
6036 Börse
740 Börsen
831 Börsengang
253 Börsenverein
551 Böschung
542 Böschungen
2378 Böse
1888 Bösen
296 Böses
632 Bösewicht
29042 Bücher
1470 Bücherei
340 Büchereien
9885 Büchern
351 Büchersammlung
348 Bücherverbrennung
415 Büchlein
788 Büchner
266 Büchners
371 Büchse
592 Büffel
473 Bügel
16992 Bühne
6497 Bühnen
272 Bühnenautor
1065 Bühnenbild
498 Bühnenbilder
464 Bühnendebüt
374 Bühnenfassung
269 Bühnenkarriere
312 Bühnenmusik
256 Bühnenschauspieler
343 Bühnenshow
876 Bühnenstück
362 Bühnenstücke
386 Bühnenwerke
1623 Bünde
903 Bündel
552 Bündelung
418 Bünden
9606 Bündnis
514 Bündnispartner
776 Bündnisse
252 Bündnissen
937 Bündnisses
311 Bürgen
25960 Bürger
282 Bürgerausschuss
391 Bürgerbegehren
325 Bürgerbeteiligung
436 Bürgerbewegung
620 Bürgerentscheid
1222 Bürgerhaus
648 Bürgerhäuser
343 Bürgerhäusern
256 Bürgerin
1664 Bürgerinitiative
659 Bürgerinitiativen
604 Bürgerinnen
9017 Bürgerkrieg
419 Bürgerkriege
4383 Bürgerkrieges
3238 Bürgerkriegs
562 Bürgerliche
907 Bürgerlichen
729 Bürgerliches
582 Bürgerliste
39312 Bürgermeister
712 Bürgermeisteramt
2855 Bürgermeisterei
1709 Bürgermeisterin
528 Bürgermeistern
5439 Bürgermeisters
657 Bürgermeisterwahl
341 Bürgermeisterwahlen
6373 Bürgern
321 Bürgerpark
312 Bürgerpartei
284 Bürgerplattform
2070 Bürgerrecht
1420 Bürgerrechte
440 Bürgerrechtler
1042 Bürgerrechtsbewegung
1059 Bürgers
7404 Bürgerschaft
754 Bürgerschaftswahl
1510 Bürgerschule
292 Bürgerstiftung
1822 Bürgertum
1142 Bürgertums
349 Bürgerverein
654 Bürgerwehr
616 Bürgschaft
261 Bürgschaften
10096 Büro
1366 Bürogebäude
888 Bürokratie
394 Büroleiter
624 Büroräume
5239 Büros
348 Bürsten
442 Büsche
412 Büschel
402 Büscheln
878 Büschen
1936 Büste
925 Büsten
923 C-Dur
259 C-Jugend
302 C-Klasse
575 CAD
14835 CD
278 CD-Aufnahmen
305 CD-Version
255 CDC
295 CDS
27546 CDU
1193 CDU-Fraktion
513 CDU-Kreisverbandes
386 CDU-Landtagsfraktion
365 CDU-Politiker
4149 CDs
2432 CH
2558 CIA
587 CM
589 CNN
841 CO
1218 CPU
477 CPUs
6121 CSU
583 CSU-Bundestagsfraktion
362 CSU-Fraktion
745 Cabaret
672 Cabrio
1330 Cabriolet
398 Cabriolets
668 Cache
1247 Cadillac
1342 Caen
556 Cafeteria
5254 Café
1496 Cafés
1043 Calcium
338 Calciumcarbonat
1469 Calvin
346 Calvinisten
10394 Cambridge
4111 Camp
258 Camper
559 Camping
1633 Campingplatz
586 Campingplätze
670 Camps
5588 Campus
1359 Canberra
4050 Cannes
1119 Canon
276 Canossa
468 Caravan
434 Carbonate
1003 Caritas
6526 Carlo
9252 Carlos
1810 Carol
715 Carola
550 Cartoon
799 Cartoons
397 Caruso
621 Casanova
2209 Casino
527 Casinos
281 Castor
3362 Castro
350 Castros
485 Cathy
280 Cayenne
258 CeBIT
3825 Celle
906 Cellist
582 Cellisten
1848 Cello
450 Cellulose
2179 Celsius
365 Cembalist
1146 Cembalo
2156 Cent
16915 Center
1481 Centers
1056 Ceylon
464 Ch
542 Champagner
2414 Champion
8089 Champions
9420 Chance
3929 Chancen
554 Chancengleichheit
505 Chanel
1330 Chanson
1101 Chansons
3433 Chaos
1069 Chaplin
20076 Charakter
432 Charakterdarsteller
371 Charakterdesign
5641 Charaktere
385 Charaktereigenschaften
1352 Charakteren
1357 Charakterisierung
890 Charakteristik
993 Charakteristika
277 Charakterrollen
2232 Charakters
431 Charge
381 Charisma
29478 Charles
6561 Charlie
8763 Charlotte
3039 Charlottenburg
411 Charlottenburg-Wilmersdorf
1360 Charme
300 Chart
2104 Charta
261 Charterfluggesellschaft
493 Charterflüge
944 Chartres
14146 Charts
1934 Chassis
632 Chat
284 Chateau
608 Chauffeur
2145 Chaussee
379 Check
257 Checkpoint
14895 Chef
1246 Chefarzt
261 Chefdesigner
1056 Chefdirigent
253 Chefdirigenten
455 Chefin
561 Chefingenieur
310 Chefkameramann
433 Chefkonstrukteur
7161 Chefredakteur
633 Chefredakteurin
344 Chefredakteurs
458 Chefredaktion
1586 Chefs
4765 Cheftrainer
411 Cheftrainers
18011 Chemie
284 Chemieindustrie
259 Chemiestudium
250 Chemieunternehmen
275 Chemikalie
1515 Chemikalien
5758 Chemiker
466 Chemikers
1021 Chemische
949 Chemischen
7306 Chemnitz
892 Chemotherapie
465 Cheops
935 Cheyenne
1006 Chi
719 Chiapas
24010 Chicago
378 Chicagos
1037 Chiemsee
11027 Chile
1425 Chiles
41066 China
4651 Chinas
1365 Chinese
3239 Chinesen
351 Chinesin
1247 Chinesisch
1568 Chinesische
1858 Chinesischen
1509 Chip
1175 Chips
548 Chirac
2079 Chirurg
1481 Chirurgen
3094 Chirurgie
460 Chirurgischen
997 Chlor
313 Chloroform
370 Chlorophyll
1089 Cholera
349 Choleraepidemie
432 Cholesterin
424 Chomsky
940 Chopin
273 Chopins
22790 Chor
814 Choral
462 Chorapsis
251 Chorbereich
696 Chorbogen
528 Choreograf
350 Choreografen
623 Choreografie
313 Choreografien
370 Choreografin
333 Choreograph
302 Choreographen
580 Choreographie
2607 Chores
571 Chorfenster
294 Chorgesang
984 Chorgestühl
677 Chorherren
439 Chorherrenstift
362 Chorjoch
1328 Chorleiter
439 Chorleitung
509 Chormusik
373 Chororgel
1983 Chorraum
1608 Chors
315 Chorschluss
398 Chorturm
258 Chorturmkirche
403 Chorumgang
360 Chorwand
641 Chorwerke
4034 Christ
1398 Christa
827 Christdemokraten
12498 Christen
603 Christenheit
7184 Christentum
2483 Christentums
397 Christenverfolgung
11184 Christi
35762 Christian
1119 Christian-Albrechts-Universität
2231 Christiane
1844 Christianisierung
716 Christians
451 Christin
3240 Christina
4768 Christine
319 Christlich
1504 Christliche
1612 Christlichen
553 Christlicher
18485 Christoph
547 Christophorus
11671 Christus
837 Chrom
1138 Chromosom
1168 Chromosomen
284 Chromosomensatz
1591 Chromosomenzahl
5680 Chronik
1742 Chroniken
1567 Chronist
1406 Chronisten
1359 Chronologie
737 Chruschtschow
2305 Chrysler
3074 Chur
2504 Churchill
299 Churchills
2965 Château
1775 Chöre
848 Chören
1957 Circus
396 Cisco
53795 City
296 Citys
2277 Civil
349 Claim
5892 Claude
3263 Claudia
264 Clausewitz
6516 Clemens
1098 Clement
1801 Client
962 Clients
3136 Clinton
499 Clip
441 Clips
557 Clique
949 Clown
421 Clowns
31692 Club
463 Clubhaus
7636 Clubs
819 Cluny
1224 Cluster
19317 Co
909 Co-Autor
371 Co-Produktion
418 Co-Produzent
2793 Co-Trainer
506 Cobalt
4100 Coburg
317 Coca
870 Coca-Cola
2620 Cockpit
262 Cockpits
430 Cocktail
308 Cocktails
456 Cocteau
5869 Code
457 Codename
520 Codenamen
1483 Codes
3757 Codex
382 Codierung
530 Cognac
729 Cola
529 Collage
602 Collagen
1291 Colmar
1208 Colombo
1175 Colt
904 Colts
2824 Columbus
3895 Comeback
3036 Comic
341 Comicautor
324 Comicfigur
6305 Comics
700 Comicserie
1294 Comiczeichner
672 Commerzbank
1708 Commodore
4477 Commonwealth
263 Commune
1000 Compiler
10699 Computer
367 Computergrafik
1676 Computern
534 Computerprogramm
312 Computerprogramme
290 Computerprogrammen
1207 Computers
1286 Computerspiel
1044 Computerspiele
909 Computerspielen
257 Computersystem
273 Computersysteme
418 Computertechnik
425 Computertomographie
592 Concorde
1589 Connor
378 Connors
902 Consulting
1886 Container
613 Containern
476 Containerschiffe
321 Contra
1139 Controller
253 Cookies
1127 Cool
459 Copyright
1389 Cornelia
2149 Cornwall
4810 Cottbus
301 Couch
409 Couleur
546 Countdown
846 Coup
1694 Coupe
1399 Courage
4991 Cousin
2338 Cousine
1154 Cousins
466 Couture
1365 Coventry
4761 Cover
324 Cover-Version
429 Covers
985 Cowboy
1799 Cowboys
617 Crash
381 Creme
3485 Crew
272 Crews
5739 Cruz
393 Cum
350 Cupsieger
608 Curie
364 Curriculum
577 Curry
2511 Cuxhaven
847 Cäsar
713 D-Dur
1384 D-Mark
313 DAX
6740 DB
449 DB-Baureihe
49726 DDR
373 DDR-Bürger
265 DDR-Fernsehen
251 DDR-Führung
1864 DDR-Liga
957 DDR-Meister
517 DDR-Meisterschaft
709 DDR-Meisterschaften
271 DDR-Meistertitel
311 DDR-Nationalmannschaft
1605 DDR-Oberliga
333 DDR-Regierung
902 DDR-Zeit
1473 DDR-Zeiten
1126 DE
2924 DFB
2598 DFB-Pokal
834 DFB-Pokals
896 DGB
5517 DIN
416 DIN-Norm
682 DKP
9255 DM
3949 DNA
275 DNA-Analyse
517 DNS
1974 DNVP
1051 DOS
777 DRK
399 DSL
9796 DVD
305 DVD-Veröffentlichung
2038 DVDs
3730 Da
1024 Dabei
16104 Dach
4484 Dachau
743 Dachauer
888 Dachboden
889 Daches
256 Dachfirst
353 Dachflächen
1170 Dachgeschoss
284 Dachgesellschaft
772 Dachkonstruktion
334 Dachmarke
1356 Dachorganisation
2730 Dachreiter
650 Dachs
325 Dachstein
1307 Dachstuhl
3121 Dachverband
422 Dachverbandes
273 Dachverbände
350 Dachziegel
274 Dachziegeln
1051 Dagmar
1631 Daimler
1226 Daimler-Benz
337 DaimlerChrysler
1410 Dakar
687 Dalai
5159 Dallas
1311 Dalmatien
2642 Damaskus
6244 Dame
7328 Damen
1785 Damendoppel
1182 Dameneinzel
1004 Damenmannschaft
708 Damenstift
253 Damenteam
783 Damit
4882 Damm
479 Dammes
420 Damms
2570 Dampf
272 Dampfbetrieb
307 Dampfdom
478 Dampfdruck
2128 Dampfer
258 Dampfers
586 Dampfkessel
905 Dampflokomotive
2807 Dampflokomotiven
1739 Dampfmaschine
1096 Dampfmaschinen
1105 Dampfschiff
535 Dampfschiffe
276 Dampfschiffen
284 Dampfschifffahrt
277 Dampfturbine
426 Dampfturbinen
280 Danach
260 Dandy
295 Daneben
17558 Daniel
1047 Daniela
1175 Daniels
3252 Dank
1222 Dankbarkeit
1381 Dante
459 Dantes
7691 Danzig
1946 Danziger
686 Dar
1115 Darbietung
988 Darbietungen
316 Dargestellten
297 Darlegung
1767 Darlehen
1905 Darm
302 Darmkrebs
11542 Darmstadt
1956 Darmstädter
1076 Darstellende
267 Darstellenden
5895 Darsteller
1768 Darstellerin
433 Darstellerinnen
1150 Darstellern
35508 Darstellung
12173 Darstellungen
328 Darstellungsform
250 Darstellungsformen
453 Darstellungsweise
2565 Darwin
580 Darwins
345 Darüber
54306 Das
1560 Dasein
621 Daseins
10075 Datei
3458 Dateien
396 Dateiformat
705 Dateisystem
28951 Daten
628 Datenaustausch
4146 Datenbank
2005 Datenbanken
262 Datenlage
335 Datenmenge
433 Datenmengen
529 Datenrate
253 Datenraten
467 Datensatz
1078 Datenschutz
304 Datenstrom
341 Datenstruktur
331 Datenstrukturen
621 Datensätze
773 Datenträger
383 Datentypen
1326 Datenverarbeitung
272 Datenverkehr
1082 Datenübertragung
261 Datenübertragungsrate
3672 Datierung
479 Datierungen
460 Dativ
610 Datteln
6417 Datum
1082 Datums
11943 Dauer
2114 Dauerausstellung
254 Dauerbetrieb
658 Dauergrünfläche
329 Dauerhaftigkeit
439 Dauerleihgabe
377 Daum
1330 Daumen
36432 David
1168 Davids
1017 Davidson
9451 Davis
2152 Davos
18976 De
1356 Deal
347 Dealer
333 Debakel
5339 Debatte
2384 Debatten
381 Debian
619 Debussy
19918 Debüt
1020 Debüt-Album
266 Debütanten
288 Debüts
2886 Deck
260 Deckblätter
5769 Decke
1959 Deckel
3628 Decken
318 Deckenfresken
343 Deckenfresko
1097 Deckengemälde
306 Deckenmalereien
562 Deckflügel
274 Deckmantel
442 Deckname
1304 Decknamen
1118 Decks
277 Deckschicht
612 Deckstein
503 Decksteine
269 Decksteinen
2570 Deckung
1139 Defekt
672 Defekte
353 Defekten
1960 Defensive
562 Defensivspieler
11317 Definition
1753 Definitionen
774 Defizit
986 Defizite
337 Deformation
1010 Degen
377 Degeneration
322 Degussa
564 Dehnung
1229 Deich
821 Deiche
263 Deichsel
613 Dein
589 Deine
952 Dekade
414 Dekaden
364 Dekadenz
6258 Dekan
3856 Dekanat
440 Dekanate
723 Dekanats
528 Dekans
813 Deklaration
535 Deklination
998 Dekor
1701 Dekoration
782 Dekorationen
363 Dekorationsmaler
3358 Dekret
340 Dekrete
2918 Delaware
5729 Delegation
613 Delegationen
1130 Delegierte
2099 Delegierten
324 Delegiertenversammlung
4662 Delegierter
361 Delfin
470 Delfine
1947 Delhi
404 Delikatesse
278 Delikt
682 Delikte
251 Delikten
642 Dell
430 Delle
1181 Delphi
340 Delphin
307 Delphine
3452 Delta
295 Deltas
318 Demarkationslinie
525 Demenz
2868 Demo
334 Demoaufnahme
391 Demoaufnahmen
451 Demobilisierung
1182 Demokrat
5750 Demokraten
8488 Demokratie
489 Demokratien
738 Demokratisch-Republikanischen
4611 Demokratische
12456 Demokratischen
363 Demokratischer
1177 Demokratisierung
2729 Demonstranten
3518 Demonstration
3614 Demonstrationen
870 Demontage
1523 Demos
448 Demut
524 Demütigung
291 Demütigungen
535 Denk
6249 Denken
2176 Denkens
1281 Denker
280 Denkern
443 Denkfabrik
14006 Denkmal
293 Denkmalbehörde
348 Denkmalbehörden
6036 Denkmalliste
369 Denkmallisten
257 Denkmalnummer
3479 Denkmalpflege
376 Denkmalpfleger
2024 Denkmals
12403 Denkmalschutz
455 Denkmalschutzbehörde
453 Denkmalschutzes
538 Denkmalschutzgesetz
2489 Denkmalschutzgesetzes
1851 Denkmalschutzvorschriften
608 Denkmalverzeichnis
4227 Denkmäler
819 Denkmälern
1202 Denkschrift
563 Denkweise
254 Denkweisen
286 Denn
3715 Dennis
453 Denunziation
3445 Departement
1693 Departements
388 Dependance
645 Deponie
2503 Deportation
992 Deportationen
423 Deportierten
2742 Depot
931 Depots
466 Depp
2948 Depression
1877 Depressionen
343 Deputierten
424 Deputierter
94103 Der
313 Deregulierung
494 Derivat
819 Derivate
282 Derivaten
922 Desaster
1053 Descartes
360 Deserteure
13899 Design
3345 Designer
462 Designerin
338 Designern
374 Designers
1188 Designs
403 Desinfektion
360 Desinteresse
746 Desktop
318 Despoten
3946 Dessau
262 Dessert
783 Destillation
366 Destination
361 Destinationen
2771 Detail
7932 Details
346 Detektion
1030 Detektiv
375 Detektive
672 Detektor
500 Detektoren
314 Determinante
335 Determinismus
1253 Detlef
925 Detlev
617 Detonation
7647 Detroit
17157 Deutsch
422 Deutsch-Dänischen
2811 Deutsch-Französischen
278 Deutsch-Neuguinea
574 Deutsch-Ostafrika
336 Deutsch-Sowjetischen
552 Deutsch-Südwestafrika
353 Deutsch-Westungarn
66903 Deutsche
146629 Deutschen
17602 Deutscher
3203 Deutsches
238069 Deutschland
579 Deutschlandfunk
576 Deutschlandradio
27882 Deutschlands
324 Deutschmeister
592 Deutschschweiz
392 Deutschsprachigen
285 Deutschunterricht
405 Deutschösterreich
4141 Deutung
1213 Deutungen
634 Devise
781 Devisen
1876 Devon
62775 Dezember
522 Dezentralisierung
325 Dezernat
477 Dezernent
274 Dezimalsystem
989 Dhabi
368 Dia
1991 Diabetes
250 Diabetiker
292 Diadem
3793 Diagnose
369 Diagnosen
355 Diagnosestellung
2113 Diagnostik
542 Diagonale
342 Diagonalen
944 Diagramm
302 Diagramme
2000 Diakon
405 Diakone
996 Diakonie
441 Diakonischen
6556 Dialekt
3363 Dialekte
1908 Dialekten
1060 Dialektik
374 Dialekts
5702 Dialog
387 Dialogbuch
2338 Dialoge
1104 Dialogen
321 Dialogregie
661 Dialogs
901 Diamant
1900 Diamanten
3200 Diana
678 Dias
1071 Diaspora
1105 Dich
5715 Dichte
383 Dichten
16621 Dichter
1784 Dichterin
1178 Dichtern
3589 Dichters
889 Dichtkunst
5230 Dichtung
1569 Dichtungen
4011 Dick
350 Dickblattgewächse
291 Dickdarm
3185 Dicke
409 Dicken
320 Dickicht
1366 Didaktik
152381 Die
1072 Dieb
652 Diebe
1867 Diebstahl
574 Diebstahls
393 Diebstähle
393 Diele
286 Dielektrikum
3401 Diener
426 Dienerin
308 Dienern
288 Dienerschaft
42179 Dienst
1355 Dienstag
376 Dienstboten
12150 Dienste
5741 Diensten
2625 Dienstes
339 Dienstgebäude
2743 Dienstgrad
597 Dienstgrade
405 Dienstherrn
363 Dienstjahren
1424 Dienstleister
268 Dienstleistern
1524 Dienstleistung
6356 Dienstleistungen
415 Dienstleistungsbereich
349 Dienstleistungsbetriebe
1648 Dienstleistungssektor
695 Dienstleistungsunternehmen
340 Dienstleistungszentrum
268 Dienstmannen
698 Dienstmädchen
500 Dienstposten
650 Dienstsitz
2193 Dienststelle
1635 Dienststellen
555 Dienststellung
308 Dienstverhältnis
381 Dienstwohnung
2506 Dienstzeit
1694 Dies
3611 Diese
2142 Diesel
257 Dieselgeneratoren
360 Dieselkraftstoff
282 Diesellokomotive
1156 Diesellokomotiven
376 Dieselloks
1668 Dieselmotor
2004 Dieselmotoren
796 Dieseltriebwagen
842 Dieses
322 Diesseits
8852 Dieter
10087 Dietrich
487 Dietrichs
541 Differential
643 Differentialgeometrie
773 Differentialgleichung
1556 Differentialgleichungen
3360 Differenz
4672 Differenzen
2195 Differenzierung
849 Diffusion
3556 Digital
649 Digitale
284 Digitalen
695 Digitalisierung
477 Digitalkameras
264 Digitaltechnik
1991 Diktator
833 Diktators
3490 Diktatur
436 Diktaturen
751 Dilemma
648 Dill
4237 Dimension
3330 Dimensionen
318 Dimensionierung
301 Diminutiv
339 Dinar
1452 Ding
8306 Dinge
3563 Dingen
267 Dinkel
1930 Dinosaurier
524 Dinosauriern
360 Diode
297 Dioden
779 Diogenes
841 Dionysios
316 Diphtherie
250 Diphthonge
6833 Diplom
872 Diplom-Ingenieur
521 Diplom-Kaufmann
458 Diplom-Volkswirt
1099 Diplomarbeit
6771 Diplomat
2763 Diplomaten
1065 Diplomatie
499 Diplomatischen
319 Diplome
401 Diplomingenieur
411 Diplomprüfung
337 Diplomstudium
1071 Dir
280 Direkt
330 Direkteinspritzung
1996 Direktion
280 Direktive
1005 Direktkandidat
662 Direktkandidaten
1788 Direktmandat
37534 Direktor
254 Direktorat
1446 Direktoren
2025 Direktorin
1009 Direktorium
607 Direktoriums
1923 Direktors
382 Direktverbindung
327 Direktverbindungen
641 Direktwahl
7263 Dirigent
3053 Dirigenten
1175 Dirigieren
3243 Dirk
405 Diskette
390 Disketten
698 Diskografie
862 Diskothek
700 Diskotheken
542 Diskrepanz
2521 Diskriminierung
386 Diskriminierungen
1745 Diskurs
330 Diskurse
321 Diskurses
610 Diskus
10502 Diskussion
6109 Diskussionen
267 Diskussionsrunden
3720 Disney
442 Disneys
345 Dispens
399 Dispersion
1227 Display
437 Displays
1683 Disposition
673 Disput
603 Disqualifikation
11445 Dissertation
764 Dissertationen
684 Dissidenten
273 Dissonanzen
7996 Distanz
1600 Distanzen
462 Distanzierung
337 Distel
1503 Distribution
395 Distributionen
14969 Distrikt
2382 Distrikte
1117 Distrikten
616 Distriktes
2856 Distrikts
7157 Disziplin
309 Disziplinarverfahren
6081 Disziplinen
527 Diva
334 Divergenz
256 Diversifizierung
461 Dividende
366 Dividenden
27321 Division
3414 Divisionen
285 Divisionsgeneral
416 Divisionskommandeur
290 Diwan
442 Dixieland
654 Diät
279 Diäten
418 Diözesanbischof
288 Diözesanmuseum
10846 Diözese
1496 Diözesen
494 Doch
1182 Dock
686 Docks
550 Documenta
360 Doge
837 Dogen
641 Dogma
1113 Dogmatik
452 Dogmen
9407 Doktor
409 Doktorand
1492 Doktoranden
1926 Doktorarbeit
1268 Doktorgrad
583 Doktors
1682 Doktortitel
635 Doktorvater
414 Doktorwürde
933 Doktrin
4943 Dokument
5304 Dokumentarfilm
1427 Dokumentarfilme
632 Dokumentarfilmen
389 Dokumentarfilms
7296 Dokumentation
1985 Dokumentationen
383 Dokumentationszentrum
7486 Dokumente
3507 Dokumenten
421 Dokuments
847 Dolch
263 Dolche
14403 Dollar
282 Dollars
732 Dolly
1334 Dolmetscher
280 Dolmetscherin
12080 Dom
1477 Domain
572 Domains
505 Dombaumeister
250 Domberg
346 Domdekan
1158 Dome
1463 Domes
1920 Domherr
911 Domherren
340 Domherrn
321 Domina
743 Dominante
2781 Dominanz
496 Domini
1395 Dominik
1502 Dominikaner
294 Dominikanerinnen
289 Dominikanern
585 Dominikanische
1261 Dominikanischen
662 Domino
254 Dominus
1018 Domizil
280 Domkapellmeister
3846 Domkapitel
1572 Domkapitels
734 Domkirche
514 Domplatz
255 Domprediger
2450 Doms
787 Domschule
351 Domstift
2228 Domäne
758 Domänen
14801 Don
4499 Donald
14244 Donau
447 Donau-Ries
313 Donaubrücke
497 Donaukanal
761 Donaumonarchie
297 Donauraum
317 Donauschwaben
588 Donaustadt
359 Donautal
603 Donauufer
1002 Donner
1931 Donnerstag
605 Doping
656 Dopings
7873 Doppel
590 Doppel-CD
461 Doppeladler
560 Doppelalbum
388 Doppelbindung
381 Doppelbindungen
742 Doppeldecker
329 Doppelfunktion
270 Doppelgemeinde
480 Doppelgänger
260 Doppelhaus
830 Doppelkonkurrenz
309 Doppelleben
377 Doppelmonarchie
354 Doppelnamen
312 Doppelpack
346 Doppelrolle
338 Doppelrunde
431 Doppelsieg
1182 Doppelsitzer
278 Doppelspitze
329 Doppelsternsystem
503 Doppelstockwagen
799 Doppelte
657 Doppeltitel
378 Doppeltraktion
1306 Dora
391 Dorado
92000 Dorf
378 Dorfbach
442 Dorfbevölkerung
2212 Dorfbewohner
558 Dorfbewohnern
386 Dorfe
253 Dorferneuerung
19247 Dorfes
398 Dorffest
260 Dorfgemeinde
792 Dorfgemeinschaft
526 Dorfgemeinschaften
721 Dorfgemeinschaftshaus
1196 Dorfkern
523 Dorfkerns
4679 Dorfkirche
417 Dorfkirchen
268 Dorfleben
376 Dorfmitte
973 Dorfplatz
398 Dorfrand
1330 Dorfs
1133 Dorfschule
647 Dorfsowjet
492 Dorfzentrum
2229 Doris
735 Dormagen
2027 Dorn
3172 Dornen
280 Dornenkrone
1290 Dornier
291 Dornröschen
509 Dorothee
15255 Dortmund
279 Dortmund-Ems-Kanal
3433 Dortmunder
260 Dortmunds
604 Dose
1471 Dosen
938 Dosierung
1629 Dosis
262 Dossier
392 Dostojewski
385 Dotierung
3299 Double
257 Doubles
1492 Dover
899 Dow
2469 Download
576 Downloads
9984 Dozent
1978 Dozenten
1357 Dozentin
1333 Drache
3244 Drachen
314 Drachenfels
1037 Dracula
638 Dragoner
436 Dragoner-Regiment
1471 Draht
501 Drahtzieher
338 Drainage
9494 Drama
903 Dramas
752 Dramatik
2637 Dramatiker
369 Dramatikers
1609 Dramaturg
266 Dramaturgen
912 Dramaturgie
339 Dramaturgin
2564 Dramen
1061 Drang
507 Drechsler
373 Dreck
1099 Dreh
426 Drehachse
7812 Dreharbeiten
557 Drehbewegung
298 Drehbrücke
14165 Drehbuch
8388 Drehbuchautor
903 Drehbuchautoren
1371 Drehbuchautorin
263 Drehbuchautors
565 Drehbuchs
2865 Drehbücher
800 Drehbüchern
909 Drehen
908 Dreher
581 Drehgestell
787 Drehgestelle
473 Drehgestellen
321 Drehimpuls
496 Drehkreuz
2399 Drehmoment
891 Drehort
429 Drehorte
394 Drehrichtung
973 Drehscheibe
305 Drehstrom
1862 Drehung
520 Drehungen
2006 Drehzahl
716 Drehzahlen
5986 Drei
1035 Dreiberg
3720 Dreieck
725 Dreiecke
387 Dreiecken
1145 Dreiecks
890 Dreiecksgiebel
276 Dreieinigkeit
536 Dreier
262 Dreiergruppen
311 Dreifache
1480 Dreifaltigkeit
277 Dreiflügelanlage
452 Dreiganggetriebe
785 Dreijahresvertrag
366 Dreikampf
820 Dreiländereck
263 Dreirad
556 Dreisprung
505 Dreiteilung
291 Dreizehn
40815 Dresden
339 Dresden-Neustadt
1152 Dresdens
11897 Dresdner
769 Dress
452 Dressur
406 Drift
359 Dringlichkeit
383 Drink
6520 Dritte
17098 Drittel
1081 Dritteln
261 Drittels
10192 Dritten
8900 Dritter
375 Drittplatzierte
435 Drittplatzierten
997 Droge
4278 Drogen
287 Drogendealer
660 Drogenhandel
266 Drogenhändler
586 Drogenkonsum
300 Drogenmissbrauch
313 Drogensucht
454 Drohne
554 Drohnen
1138 Drohung
974 Drohungen
27516 Druck
1411 Drucke
722 Drucken
2308 Drucker
3601 Druckerei
582 Druckereien
404 Druckes
309 Druckfarben
251 Druckform
327 Druckgrafik
302 Druckkabine
279 Drucklegung
964 Druckluft
299 Druckluftbremse
344 Druckmaschinen
349 Druckmittel
294 Druckplatten
1156 Drucks
294 Drucksachen
281 Druckschriften
295 Drucktechnik
350 Druckverfahren
385 Druckwelle
449 Druiden
1261 Drummer
360 Drusen
565 Drähte
340 Drähten
2382 Drängen
370 Drücke
946 Drücken
292 Drüse
1274 Drüsen
622 Dschibuti
565 Dschihad
425 Dschingis
1310 Dschungel
5015 Du
653 Dual
783 Dualismus
2433 Dubai
6509 Dublin
270 Dudelsack
758 Duden
4153 Duell
492 Duelle
290 Duellen
255 Duells
2444 Duett
424 Duette
980 Duft
9005 Duisburg
505 Duisburg-Essen
1983 Duisburger
616 Dukaten
318 Duktus
694 Duldung
843 Dumas
369 Dummheit
278 Dung
961 Dunkel
2858 Dunkelheit
1380 Dunkeln
679 Dunkle
653 Dunklen
332 Dunst
7154 Duo
1126 Duos
541 Dur
540 Durchblutung
13549 Durchbruch
255 Durchbrüche
509 Durchdringung
425 Durcheinander
1571 Durchfahrt
258 Durchfahrtshöhe
968 Durchfall
489 Durchfluss
10959 Durchführung
3572 Durchgang
442 Durchgangsachsen
713 Durchgangsbahnhof
405 Durchgangslager
436 Durchgangsstrassen
923 Durchgangsverkehr
462 Durchgänge
416 Durchgängen
393 Durchlass
418 Durchlauf
254 Durchlaufen
409 Durchlässigkeit
908 Durchmarsch
27638 Durchmesser
891 Durchmessern
378 Durchmessers
455 Durchmischung
582 Durchquerung
337 Durchreise
255 Durchsatz
403 Durchschlag
391 Durchschlagskraft
7177 Durchschnitt
4415 Durchschnittsalter
9453 Durchschnittseinkommen
846 Durchschnittsgeschwindigkeit
1257 Durchschnittstemperatur
388 Durchschnittstemperaturen
292 Durchschnittswert
3271 Durchsetzung
279 Durchsicht
291 Durchstich
563 Durchsuchung
437 Durchzug
617 Durst
281 Durststrecke
436 Dusche
432 Duschen
4455 Dutzend
658 Dutzende
2901 Dynamik
630 Dynamit
6178 Dynamo
4876 Dynastie
889 Dynastien
1747 Dächer
957 Dächern
888 Dämme
462 Dämmen
1139 Dämmerung
1221 Dämon
2219 Dämonen
599 Dämpfe
360 Dämpfer
880 Dämpfung
457 Däne
20955 Dänemark
2163 Dänemarks
2577 Dänen
616 Dänisch
993 Dänische
1457 Dänischen
368 Dörfchen
17951 Dörfer
9014 Dörfern
282 Dörfler
274 Dümmer
633 Düne
1537 Dünen
493 Düngemittel
808 Dünger
665 Düngung
769 Dünkirchen
419 Dünndarm
1108 Dürer
416 Dürers
530 Dürr
870 Dürre
328 Dürren
411 Dürrenmatt
607 Düse
460 Düsen
27727 Düsseldorf
6878 Düsseldorfer
402 Düsseldorfs
1031 E-Bass
341 E-Dur
1278 E-Gitarre
384 E-Gitarren
1901 E-Mail
294 E-Mail-Adresse
1039 E-Mails
251 E-Werk
682 EADS
585 EDV
3440 EG
380 EKG
3973 EM
278 EM-Endrunde
273 EM-Qualifikation
335 EM-Qualifikationsspiel
309 EM-Titel
258 EMS
784 ESC
1125 ET
2213 ETH
10431 EU
508 EU-Beitritt
1064 EU-Kommission
436 EU-Mitgliedstaaten
321 EU-Recht
359 EU-Richtlinie
586 EU-Staaten
250 EU-Vertrag
348 EURO
429 EVA
1242 EWG
271 EX
271 EXPO
673 EZB
800 Ebbe
347 Eben
28395 Ebene
6445 Ebenen
656 Eber
8105 Eberhard
359 Eberhard-Karls-Universität
264 Eberhards
312 Ebern
2655 Ebert
343 Echnaton
2650 Echo
289 Echos
1060 Echte
1740 Echten
640 Echter
1146 Echtheit
1205 Echtzeit
1570 Eck
871 Eckart
9459 Ecke
4895 Ecken
1236 Eckernförde
479 Eckhaus
378 Eckpfeiler
401 Eckpunkte
537 Eckstein
505 Eckturm
450 Ecktürme
487 Ecktürmen
444 Eckzähne
3373 Ecuador
727 Ecuadors
490 Edel
642 Edelherren
261 Edelleute
750 Edelmann
478 Edelmetall
393 Edelmetalle
359 Edelmetallen
1042 Edelstahl
394 Edelstein
606 Edelsteine
658 Edelsteinen
1766 Eden
1906 Eder
4597 Edgar
6430 Edinburgh
1645 Edison
2405 Edith
6976 Edition
1002 Editionen
1184 Editor
465 Editorial
444 Editors
433 Edle
1113 Edlen
1050 Edler
4709 Edmund
255 Edmunds
13088 Eduard
532 Eduards
327 Efeu
8278 Effekt
5409 Effekte
1119 Effekten
993 Effektivität
335 Effekts
2189 Effizienz
334 Egge
865 Ego
447 Egoismus
3483 Egon
44919 Ehe
619 Ehebruch
306 Ehebruchs
24578 Ehefrau
1165 Ehefrauen
269 Ehegatte
961 Ehegatten
1592 Eheleute
281 Eheleuten
315 Ehemalige
11829 Ehemann
1058 Ehemannes
721 Ehemanns
368 Ehemänner
2230 Ehen
6057 Ehepaar
391 Ehepaare
676 Ehepaares
574 Ehepaars
734 Ehepartner
363 Ehevertrag
5251 Ehre
16709 Ehren
473 Ehrenamt
798 Ehrenberg
609 Ehrenbreitstein
469 Ehrenburg
3965 Ehrenbürger
437 Ehrenbürgerrecht
799 Ehrenbürgerschaft
819 Ehrenbürgerwürde
262 Ehrendivision
2295 Ehrendoktor
683 Ehrendoktortitel
3304 Ehrendoktorwürde
327 Ehrendoktorwürden
255 Ehrenfeld
