
\data\
ngram 1=53168
ngram 2=2773

\1-grams:
1 <unk>
1 <s>
1 </s>
1 <num>
34 ADORU
36 AI
176 AIS
26 AMO
29 AMOS
21 ANSI
17 ARIA
68 ARTE
32 ASCII
53 ASE
23 AVE
118 Aaron
518 Abatejo
29 Abatejon
53 Abato
37 Abelo
15 Abia
18 Abismo
372 Abraham
102 Abrahamo
19 Absoluta
41 Absoluto
16 Abstrakta
11 Absurda
19 Abuĝo
13 Abĥaza
16 AdE
106 Ada
652 Adam
17 Adama
275 Adamo
27 Adamon
31 Adela
25 Adele
13 Adiaŭ
83 Administra
38 Administracia
92 Administracio
90 Administrado
13 Administraj
22 Administrejo
14 Administro
31 Admiralo
185 Adolfo
30 Adorado
12 Adoru
39 Adresaro
23 Adriana
92 Adriano
12 Adventistoj
22 Advento
25 Advokato
54 Aera
62 Aero
89 Afero
330 Aferoj
18 Afgana
670 Afganio
32 Afganion
48 Afganujo
569 Afrika
60 Afrikaj
19 Afrikan
4739 Afriko
147 Afrikon
16 Aga
155 Agado
11 Agadoj
27 Agata
46 Age
270 Agentejo
14 Agento
164 Aglo
13 Agloj
41 Ago
290 Agoj
47 Agra
21 Agrara
12 Agronomia
33 Aidoso
12 Ajuno
13 Akacio
202 Akademia
56 Akademiaj
42 Akademiajn
44 Akademian
24 Akademiano
11 Akademianoj
95 Akademie
5519 Akademio
48 Akademioj
192 Akademion
51 Akcia
41 Akcipitro
15 Akcipitroj
32 Akordo
11 Akra
22 Akrao
16 Aksa
12 Aksaj
53 Akso
39 Aksumo
21 Aktiva
13 Aktivula
151 Akto
26 Aktoj
15 Akton
46 Aktoro
15 Aktoroj
21 Akuto
48 Akva
23 Akvario
162 Akvisto
290 Akvitanio
14 Akvitanion
79 Akvo
66 Akvobaraĵo
11 Akvodislimo
72 Akvofalo
32 Akvofaloj
14 Akvoj
19 Ala
63 Alaho
278 Alan
12 Alaŭdfalko
53 Albana
61 Albania
507 Albanio
35 Albanion
36 Albano
24 Albanujo
18 Albault
20 Albina
21 Albino
30 Albumo
76 Aldo
13 Aldone
70 Aldono
24 Aldonoj
16 Ale
151 Aleksandra
23 Aleksandria
619 Aleksandrio
1070 Aleksandro
40 Aleksandron
28 Alena
35 Aleo
23 Aleutaj
29 Aleutoj
90 Alfa
74 Alfabeto
20 Alfaro
11 Alfo
12 Algol
84 Alia
16 Alianca
11 Aliancaj
159 Aliancanoj
469 Alianco
17 Aliancon
19 Alka
11 Alko
108 Almanako
44 Almonte
98 Alpa
985 Alpoj
41 Alpojn
836 Alta
226 Altaj
50 Altaja
73 Altajo
29 Altan
63 Altaro
43 Altas
58 Altaĵo
83 Altaĵoj
14 Altaĵojn
56 Alte
310 Altebenaĵo
14 Alten
22 Alteo
36 Alternativa
25 Alternative
33 Alternativo
1210 Altlernejo
84 Altlernejon
250 Alto
41 Altos
22 Alunu
11 Alventaj
24 Alvoko
42 Alĝeria
528 Alĝerio
20 Alĝerion
202 Alĝero
17 Ama
26 Amado
12 Amadon
14 Aman
49 Amano
16 Amantoj
16 Amara
21 Amaro
17 Amato
160 Amazona
174 Amazono
24 Amazonoj
11 Amazonon
25 Ambasadoro
130 Ambaŭ
15 Ambrose
28 Ambrozia
83 Ambrozio
17 Amen
40 Amendo
582 Amerika
208 Amerikaj
22 Amerikan
2886 Ameriko
111 Amerikoj
117 Amerikon
12 Amfiteatro
17 Ami
37 Amika
128 Amikeco
45 Amiko
89 Amikoj
11 Aminta
35 Amis
46 Amnestio
204 Amo
15 Amon
14 Amora
24 Amoro
54 Amos
59 Amsterdama
725 Amsterdamo
11 Amsterdamon
12 Amu
11 Amuza
395 Ana
52 Analiza
21 Analizo
15 Anarkiismo
22 Anarkiista
14 Anarkio
180 Anas
30 Anaso
24 Anatole
16 Anatolia
322 Anatolio
29 Anatolion
22 Anatolo
19 Anatomia
32 Anatomio
20 Andaluza
16 Andaluzia
1071 Andaluzio
11 Andaluzion
104 Andersen
150 Andoro
13 Andoron
354 Andrea
604 Andreo
16 Andreon
14 Angelika
12 Angeliko
365 Angla
26 Anglaj
21 Anglalingva
27 Anglan
74 Angle
141 Anglia
41 Anglikana
13 Anglikanismo
4433 Anglio
336 Anglion
51 Angloj
50 Anglosaksa
444 Anglujo
25 Anglujon
46 Angola
554 Angolo
17 Angoroj
31 Angulemo
30 Angulo
11 Anguloj
25 Ani
27 Anima
50 Animo
13 Animoj
15 Anina
14 Anja
21 Anjo
41 Ankara
58 Ankaro
1400 Anna
70 Annan
424 Anne
78 Anno
24 Ano
13 Anonco
13 Anse
39 Antananarivo
107 Antaŭa
83 Antaŭen
12 Antaŭkongreso
19 Antaŭparolo
14 Antena
539 Antikva
32 Antikvaj
15 Antikvaĵoj
46 Antikveco
12 Antioĥia
232 Antioĥio
19 Antipodaj
179 Antologio
12 Antologion
22 Antonina
63 Antonino
84 Antono
40 Antropologio
20 Anu
63 Anunciacio
19 Anĝela
127 Anĝelo
63 Anĝeloj
11 Apartismo
20 Apelacia
60 Apendico
22 Apero
14 Apiano
17 Aplika
38 Aplikata
112 Apoganta
21 Apogo
156 Apokalipso
14 Apokalipson
15 Apokrifoj
11 Apologia
40 Apologio
59 Apolonio
395 Apostola
37 Apostolaj
14 Apostolan
98 Apostolo
227 Apostoloj
16 Apoteko
23 Apoteozo
425 Aprilo
37 Ara
437 Araba
183 Arabaj
31 Araban
20 Arabe
57 Arabia
542 Arabio
17 Arabion
50 Araboj
34 Arabujo
20 Aran
12 Aranĝo
12 Arba
123 Arbara
12 Arbaraj
751 Arbaro
37 Arbaron
793 Arbitracio
41 Arbo
15 Arboj
40 Arbon
62 Ardea
28 Ardeza
13 Ardo
25 Ardon
67 Are
62 Area
19 Areco
56 Arena
65 Areno
304 Areo
21 Areoj
13 Areto
437 Argentina
11 Argentinaj
17 Argentinan
2306 Argentino
44 Argentinon
19 Arguso
13 Aria
27 Arie
47 Ario
11 Aristotela
641 Aristotelo
36 Aristotelon
24 Arkeo
93 Arkeologia
41 Arkeologio
71 Arkimedo
44 Arkipelago
13 Arkitekto
12 Arkitektura
78 Arkitekturo
81 Arkivo
14 Arkivoj
218 Arko
11 Arkon
16 Armas
98 Armea
591 Armena
12 Armenaj
17 Armenan
56 Armenia
1604 Armenio
106 Armenion
29 Armenoj
23 Armenujo
1725 Armeo
87 Armeon
37 Armiloj
39 Armita
94 Armitaj
498 Aro
34 Aron
24 Arondismento
577 Arta
18 Artaj
20 Artan
89 Arte
14 Arthistoria
100 Artikolo
44 Artikoloj
32 Artilerio
39 Artista
11 Artistino
50 Artisto
73 Artistoj
427 Arto
424 Artoj
37 Artura
413 Arturo
34 Arturon
137 Arĝenta
31 Arĝentan
22 Arĝento
16 Asa
44 Asiria
23 Asirianoj
180 Asirio
29 Askio
43 Asocia
2747 Asocio
104 Asocioj
192 Asocion
28 Astra
27 Astro
13 Astronoma
612 Astronomia
19 Astronomiaj
22 Astronomian
12 Astronomie
200 Astronomio
18 Astronomoj
77 Asunciono
216 Atena
11 Atenanoj
16 Atenco
1016 Ateno
59 Atenon
15 Atentu
60 Atestantoj
13 Atesto
27 Atilo
560 Atlantika
52 Atlantikaj
47 Atlantikan
924 Atlantiko
117 Atlantikon
27 Atlasa
162 Atlaso
20 Atleta
13 Atletiko
15 Atmosfera
12 Ava
25 Avalon
75 Ave
15 Avena
35 Aventuro
57 Aventuroj
95 Avenue
431 Avenuo
12 Avenuoj
43 Aviada
32 Aviado
14 Avino
31 Avo
40 Avon
19 Azeno
108 Azerbajĝana
797 Azerbajĝano
24 Azerbajĝanon
249 Azia
60 Aziaj
11 Azian
4419 Azio
120 Azion
19 Azteka
28 Aztekoj
14 Aĝa
48 Aĝo
15 Aĥerono
164 Aĥilo
23 Aĥilon
20 Aŭditorio
27 Aŭgio
44 Aŭgusta
400 Aŭgusteno
24 Aŭgustenon
913 Aŭgusto
11 Aŭlo
64 Aŭrelio
20 Aŭrora
48 Aŭroro
11 Aŭskultu
188 Aŭstra
15 Aŭstraj
392 Aŭstralia
30 Aŭstraliaj
20 Aŭstralian
4092 Aŭstralio
95 Aŭstralion
274 Aŭstria
15 Aŭstrian
4116 Aŭstrio
101 Aŭstrion
14 Aŭstroj
22 Aŭstruja
319 Aŭstrujo
18 Aŭstrujon
12 Aŭtomata
17 Aŭtomobila
1357 Aŭtonoma
18 Aŭtonomaj
18 Aŭtonoman
11 Aŭtonomeca
21 Aŭtonomeco
15 Aŭtonomia
43 Aŭtonomio
61 Aŭtoritato
17 Aŭtoroj
87 Aŭtovojo
89 Aŭtoŝoseo
29 Aŭtuna
54 Aŭtuno
98 BA
22 BASIC
269 BE
26 BEJO
57 Ba
30 Baalo
36 Babela
32 Babelo
20 Babilema
43 Babilona
29 Babilonia
98 Babilonio
235 Babilono
34 Babilonon
332 Bagdado
25 Bagdadon
104 Bahamoj
41 Bakalaŭro
29 Bako
39 Baku
21 Bakua
223 Bakuo
21 Balado
112 Baldueno
408 Baleno
55 Baleta
80 Baleto
47 Baletoj
132 Balkana
15 Balkanaj
97 Balkano
46 Balkanoj
19 Balotoj
646 Balta
16 Baltaj
52 Baltan
44 Bamako
38 Ban
23 Banana
270 Banato
72 Banda
38 Bando
15 Bane
12 Banejo
22 Bangladeŝa
357 Bangladeŝo
12 Bangladeŝon
24 Banguo
23 Bani
26 Banja
20 Banka
544 Banko
35 Bankoj
28 Bankoko
30 Bankon
12 Bano
48 Banu
76 Baptista
68 Baptiste
305 Baptisto
49 Bapto
112 Barata
3041 Barato
62 Baraton
38 Baraĵo
88 Barbado
437 Barbara
62 Barbaro
19 Bardo
101 Barejno
84 Bari
20 Bariero
19 Bariloj
29 Barka
20 Baroka
67 Baroko
73 Baron
14 Baronino
155 Barono
99 Baronoj
16 Baru
47 Base
343 Baseno
13 Basenon
31 Basta
12 Bastiono
16 Bata
25 Batalado
20 Batalanta
12 Batalanto
35 Bataliono
1145 Batalo
14 Bataloj
29 Batalon
12 Batas
16 Batava
28 Batavia
37 Batavio
109 Batista
11 Bato
34 Baton
31 Batu
18 Batumo
82 Bavara
83 Bavaria
3881 Bavario
31 Bavarion
60 Bavarujo
98 Baza
20 Bazaj
25 Bazaro
63 Bazela
1411 Bazelo
384 Baziliko
18 Bazilikon
12 Bazlernejo
46 Bazo
11 Bazoj
92 Be
67 Beata
14 Beate
135 Beaufront
13 Bebo
112 Bede
12 Bedo
15 Beja
11 Bejo
97 Bejruto
16 Beke
198 Bela
29 Belaj
354 Belarta
111 Belartaj
43 Belartan
28 Belarto
213 Belartoj
21 Beleco
20 Belega
98 Beletra
59 Beletro
53 Beletroj
13 Beletron
261 Belga
15 Belgaj
12 Belgan
18 Belge
11 Belgia
2641 Belgio
50 Belgion
17 Belgoj
97 Belgujo
22 Beli
155 Belizo
234 Belo
11 Belon
170 Belorusa
13 Belorusia
402 Belorusio
11 Belorusujo
14 Belulino
11 Benata
26 Benda
16 Bene
49 Beni
16 Benina
237 Benino
11 Benita
252 Benito
13 Benke
11 Benu
11 Beograda
316 Beogrado
390 Berlina
38 Berlinaj
23 Berlinan
4108 Berlino
108 Berlinon
60 Berlioz
327 Berna
53 Bernaj
12 Berne
2342 Berno
14 Bero
68 Berta
34 Bertilo
14 Besta
26 Besto
15 Bestoj
66 Beta
49 Betula
13 Bharata
40 Bharato
151 Biblia
29 Bibliaj
16 Biblian
1766 Biblio
33 Bibliografia
62 Bibliografio
12 Bibliografion
12 Biblioj
154 Biblion
29 Biblioteka
1098 Biblioteko
20 Bibliotekoj
49 Bibliotekon
45 Bieno
16 Bildo
25 Bildoj
12 Bileto
13 Biografia
13 Biografio
53 Biologia
19 Biologiaj
42 Biologio
76 Birda
50 Birdo
101 Birdoj
14 Birma
551 Birmo
20 Birmon
79 Bisaŭa
13 Bit
12 Bita
357 Bizanca
11 Bizancaj
17 Bizancan
73 Bizancio
169 Bizanco
32 Biŝkeko
28 Blaga
1056 Blanka
117 Blankaj
38 Blankan
61 Blanke
19 Blanko
18 Blankulo
29 Blazio
37 Blazono
25 Blinda
31 Blindaj
12 Blindula
12 Blindulo
44 Blinduloj
150 Bloko
13 Blonde
444 Blua
54 Bluaj
436 Blue
16 Bluo
61 Bo
11 Bocvana
229 Bocvano
34 Boecio
238 Bogoto
11 Boletus
23 Bolivia
849 Bolivio
19 Bolivion
24 Bolonja
567 Bolonjo
25 Bolton
11 Bomba
61 Bon
370 Bona
22 Bonaj
22 Bonan
13 Bonfara
15 Bonfarto
156 Bono
28 Bonus
19 Borda
19 Bordhirundo
13 Bordi
147 Bordo
31 Bori
342 Boris
65 Boriso
13 Borna
40 Boros
68 Borso
26 Bosko
22 Bosnia
368 Bosnio
12 Bosnion
23 Bosnujo
163 Botanika
11 Botanikaj
13 Botanikan
29 Botaniko
56 Boulton
282 Bovisto
23 Bovo
12 Brajlo
16 Brama
28 Brando
38 Brandon
28 Branko
23 Branĉo
137 Bratislava
605 Bratislavo
123 Brava
17 Brave
122 Bravo
32 Brazavila
20 Brazavilo
920 Brazila
45 Brazilaj
43 Brazilan
141 Braziljo
4187 Brazilo
133 Brazilon
62 Breda
17 Breto
112 Breton
29 Bretona
1154 Bretonio
39 Bretonion
80 Bretonujo
17 Bretonujon
11 Brida
29 Bride
60 Brigado
38 Brigadoj
80 Brigo
33 Brila
1691 Brita
137 Britaj
11 Britajn
39 Britan
65 Britia
4574 Britio
162 Brition
39 Brito
72 Britoj
290 Britujo
27 Bronza
11 Bronze
267 Bruna
15 Brunaj
110 Brunejo
30 Bruni
432 Bruno
80 Brusela
64 Bruselan
856 Bruselo
11 Bruselon
50 Bruto
35 Bubo
514 Buda
232 Budapeŝta
12346 Budapeŝto
140 Budapeŝton
17 Budhana
20 Budhisma
158 Budhismo
13 Budhismon
184 Budho
23 Budhoj
13 Bufo
1036 Bukareŝto
17 Bukareŝton
14 Bukedo
18 Buleo
217 Bulgara
17 Bulgaria
973 Bulgario
30 Bulgarion
36 Bulgarujo
18 Bulonja
89 Bulonjo
154 Bulteno
25 Bultenon
130 Bulvardo
45 Bunta
32 Burbona
139 Burbono
72 Burbonoj
19 Burda
117 Burke
30 Burkina
134 Burkino
162 Buroo
16 Burunda
333 Burundo
11 Burĝa
17 Busto
354 Butano
16 Buĉisto
12 Buĝeto
43 Buĵumburo
11 Buŝo
13 CEDA
179 CIA
17 CIE
27 Cara
16 Care
71 Caro
21 Caron
11 Cedra
14 Cedro
20 Cela
20 Celoj
16 Cendojn
76 Censa
96 Censo
20 Census
80 Cent
234 Centaŭro
29 Centaŭroj
85 Centjara
18 Centjariĝo
3125 Centra
177 Centraj
14 Centrala
22 Centrale
20 Centralo
91 Centran
195 Centre
1847 Centro
24 Centroj
85 Centron
11 Ceremonia
20 Cerva
11 Cervo
12 Cezarea
154 Cezareo
580 Cezaro
29 Cezaron
17 Ci
40 Cicero
140 Cicerono
33 Cie
24 Cifereca
21 Cigana
19 Ciganoj
47 Cigna
107 Cigno
33 Ciklo
18 Ciklopoj
85 Cima
26 Cindrulino
38 Cipro
148 Cirilo
18 Cirkla
77 Cirklo
28 Cirko
12 Cirkulero
137 Ciro
11 Ciron
53 Citadelo
13 Citita
123 Civila
34 Civilaj
28 Civilizacio
12 Civilizo
33 Civita
149 Civitana
22 Civitanaj
44 Civitano
30 Civitanoj
100 Civito
16 Cola
144 Cole
22 DES
33 DM
667 DNA
30 DNS
26 DOS
13 Dagestana
137 Dagestano
17 Daka
92 Dakaro
66 Dako
18 Dalian
130 Dalmatio
14 Dama
218 Damasko
17 Damaskon
131 Dame
78 Damiano
202 Damo
16 Damoj
25 Damon
244 Dana
12 Danaj
73 Dance
80 Dancigo
55 Danco
20 Dane
16 Dania
61 Daniela
47 Daniele
110 Danielo
1216 Danio
27 Danion
13 Dankon
12 Danoj
100 Danuba
14 Danuban
1219 Danubo
95 Danubon
118 Danujo
12 Danĝera
43 Data
16 Date
15 Dati
27 Dato
14 Daŭra
15 Daŭriga
15 Daŭro
13 Debato
438 Decembro
13 Decidoj
39 Defenda
12 Defendado
13 Defendanto
194 Defendo
161 Dek
17 Deka
11 Dekano
11 Dekdua
23 Dekjara
185 Deklaracio
32 Deklaracion
110 Deklaro
22 Deklaron
34 Dekono
29 Dekonoj
12 Dekopo
60 Dekreto
645 Dekretoj
26 Dekstra
19 Dekstro
45 Delegacio
24 Delegitaro
28 Delegito
17 Delegitoj
34 Delfeno
49 Delhi
118 Delta
135 Delto
26 Demando
449 Demokrata
23 Demokratan
961 Demokratia
13 Demokratiaj
23 Demokratian
20 Demokratie
516 Demokratio
127 Demokratoj
13 Demono
16 Denton
96 Departementa
612 Departemento
16 Departementon
67 Depresio
13 Deputito
115 Deputitoj
109 Des
44 Destino
11 Detalo
11 Detektivo
252 Deva
28 Devi
14 Deviga
92 Devon
41 Dezerta
111 Dezerto
485 Dia
23 Diabla
90 Diablo
15 Diaj
39 Diakono
57 Dialogo
20 Dialogoj
20 Diamanta
13 Diamanto
49 Dian
21 Diantoj
15 Diasporo
1245 Die
78 Dieto
24 Digo
76 Diino
33 Dika
17 Diko
11 Dikto
17 Diluvo
11 Dimanĉa
41 Dimanĉo
22 Dinara
317 Dinastio
18 Dinastioj
21 Dinosaŭra
5853 Dio
74 Diocezo
63 Dioj
93 Diokleciano
523 Dion
49 Dionizio
416 Dipatrino
28 Dipatrinon
37 Diplomo
30 Direktivo
13 Direktorino
198 Direktoro
19 Direktoroj
11 Disaj
37 Diservo
18 Diservoj
18 Disiganta
12 Disko
18 Diskurso
11 Dispartigoj
19 Disputo
12 Disrabado
14 Dissenda
84 Distrikta
4786 Distrikto
29 Distriktoj
36 Distrikton
14 Distrito
18 Disvastigo
26 Disvolvado
47 Disvolviĝo
17 Disvolvo
21 Diverseco
16 Dividaĵo
57 Divido
89 Divizio
23 Dizajno
256 Do
48 Dobruĝo
18 Dodomao
14 Dogana
15 Dogma
12 Doktoreco
210 Doktoro
11 Doktoron
94 Doktrino
30 Dokumentado
22 Dokumentaro
14 Dokumento
15 Dokumentoj
15 Dolora
16 Doloroj
24 Dolorplena
14 Dolĉa
16 Doma
25 Domego
17 Dometo
43 Dominga
466 Domingo
96 Dominika
34 Dominikana
41 Dominikanoj
123 Dominiko
1039 Domo
47 Domoj
52 Domon
98 Dompasero
29 Dompaseroj
35 Donaco
65 Donato
17 Doni
16 Donkiĥoto
41 Dono
19 Donu
1301 Dosiero
94 Dostojevskij
14 Draka
80 Drake
347 Drako
21 Drakoj
71 Drama
22 Dramo
32 Draste
50 Dresdena
12 Dresdenaj
700 Dresdeno
17 Dresdenon
13 Drogo
321 Du
4371 Dua
119 Duan
19 Dublina
291 Dublino
47 Dudek
15 Due
61 Duka
12 Dukato
399 Duke
50 Dukino
538 Duko
44 Dukoj
54 Dukolora
11 Duma
61 Duna
13 Dune
31 Duobla
31 Duoninsula
707 Duoninsulo
25 Duoninsulon
12 Duonluno
29 Duŝanbeo
30 Dvina
13 Dvino
14 EA
14 EAN
22 ECO
67 EDE
11 EE
22 EGE
90 EK
50 ELA
33 EME
37 EMI
19 ENA
16 EO
12 ERA
48 ESPERANTO
56 ETA
307 EU
27 Ea
777 Ebenaĵo
66 Ebenaĵoj
14 Ebenaĵon
30 Ebla
15 Ebura
53 Eco
118 Ede
32 Edena
24 Edeno
35 Edikto
17 Edinburga
288 Edinburgo
72 Edmundo
11 Edmundon
133 Edo
13 Eduarda
1027 Eduardo
79 Eduardon
64 Eduka
304 Edukado
60 Eduko
14 Edziĝo
42 Egaleco
14 Egido
129 Egipta
12 Egiptaj
11 Egiptia
1875 Egiptio
148 Egiption
391 Egipto
34 Egiptoj
20 Egipton
352 Egiptujo
38 Egiptujon
46 Eichholz
17 Ejo
28 Ek
142 Eklezia
64 Ekleziaj
3726 Eklezio
182 Eklezioj
146 Eklezion
36 Ekologia
62 Ekologio
457 Ekonomia
52 Ekonomiaj
20 Ekonomian
57 Ekonomika
78 Ekonomiko
71 Ekonomio
17 Eksa
49 Eksperimenta
22 Eksperimento
12 Ekspozicia
277 Ekspozicio
17 Ekspozicioj
21 Ekspozicion
27 Ekspreso
14 Ekstaru
14 Ekster
142 Ekstera
149 Eksteraj
12 Ekstere
35 Eksterlanda
91 Eksterlandaj
19 Eksterlando
26 Eksterordinara
23 Ekstrema
92 Ekumena
14 Ekumenaj
21 Ekvacio
774 Ekvadoro
182 Ekvatora
59 Ekvatoro
11 Ekvinokso
38 Ekzamena
25 Ekzamenoj
24 Ekzemplo
18 Ekzemploj
24 Ekzercaro
17 Ekzilita
35 Ekzilo
14 Ekzistadismo
3270 El
17 Elaĉetinto
12 Elaĉeto
89 Eldona
275 Eldonejo
14 Eldonejon
27 Eldono
12 Eldonoj
11 Elefantina
15 Elefanto
36 Eleganta
17 Elekta
27 Elektita
44 Elektitaj
16 Elekto
409 Elektra
12 Elektraj
75 Elektro
24 Elektronika
11 Elektronikaj
11 Elektronike
12 Elektroniko
30 Elementa
18 Elemento
53 Elementoj
42 Elija
114 Eliro
18 Elite
214 Elizabeta
15 Elizabetan
440 Elizabeto
20 Elizabeton
49 Elizeaj
45 Elizeo
33 Elstara
18 Ema
13 Emakso
89 Emilia
173 Emilio
11 Emu
28 Enciklopedia
431 Enciklopedio
30 Ende
23 Endormiĝo
11 Energia
35 Energio
38 Enigma
11 Enirejo
31 Enkarniĝo
11 Enketa
11 Enketado
1060 Enketo
56 Enkonduko
832 Enlanda
22 Enlandaj
14 Enlandan
81 Eno
57 Ensemble
36 Ensemblo
13 Enspezo
15 Ento
14 Entombigo
15 Entomologia
62 Entrepreno
12 Entreprenoj
53 Eo
24 Eono
15 Eonoj
63 Epifanio
63 Episkopa
13 Episkopara
13 Episkoparaj
45 Episkopejo
138 Episkopo
30 Episkopoj
26 Episkopujo
120 Epistolo
32 Epistoloj
286 Epoko
12 Epokon
15 Epsilon
27 Era
66 Erao
34 Eratosteno
307 Erevano
15 Erevanon
77 Erika
65 Eriko
23 Eritrea
277 Eritreo
17 Eritreon
23 Ermita
76 Ermitejo
18 Ermito
23 Ernestina
25 Ernestine
254 Ernesto
92 Eroso
11 Eroto
13 Esceptoj
13 Esenco
28 Eseo
14 Eseoj
1507 Esperanta
377 Esperantaj
91 Esperantajn
250 Esperantan
694 Esperante
30 Esperanten
43 Esperantigita
14 Esperantigitaj
84 Esperantigite
18 Esperantigo
38 Esperantismo
1795 Esperantista
238 Esperantistaj
86 Esperantistan
63 Esperantistaro
23 Esperantiste
16 Esperantistino
1003 Esperantisto
774 Esperantistoj
41 Esperantistojn
20 Esperantiston
86 Esperantlingva
17 Esperantlingvaj
11 Esperantlingvan
15782 Esperanto
14 Esperantologia
28 Esperantologio
2709 Esperanton
214 Esperantujo
477 Espero
67 Esplora
103 Esplorado
217 Esploro
49 Esploroj
216 Estado
29 Estados
12 Estaĵo
11 Estetiko
89 Esto
24 Eston
75 Estona
39 Estonia
710 Estonio
16 Estonion
27 Estonteco
36 Estonto
32 Estonujo
44 Estrada
213 Estraro
25 Estraron
50 Estro
40 Estu
353 Eta
16 Etan
15 Etapo
20 Etbienula
71 Eterna
13 Eterne
16 Eterneco
217 Eternulo
15 Eternulon
28 Etero
64 Etiko
15 Etimologia
22 Etiopa
21 Etiopaj
61 Etiopia
922 Etiopio
58 Etiopion
55 Etiopujo
40 Etna
13 Etnaj
25 Etno
43 Etnografia
20 Etnografio
11 Etnologia
12 Etnologio
11 Eto
41 Eton
25 Etruskoj
89 Evangelia
63 Evangeliisto
11 Evangeliistoj
610 Evangelio
226 Evangelioj
12 Evangeliojn
72 Evangelion
12 Evento
42 Eventoj
20 Evolua
13 Evoluado
27 Evoluigo
91 Evoluo
85 Ezra
26 Eĥo
203 Eŭgeno
58 Eŭklida
117 Eŭklido
18 Eŭlero
171 Eŭrazia
338 Eŭrazio
4783 Eŭropa
398 Eŭropaj
11 Eŭropajn
261 Eŭropan
16 Eŭropano
41 Eŭropanoj
11461 Eŭropo
11 Eŭropoj
483 Eŭropon
104 Eŭska
13 Eŭskoj
19 FE
42 FEL
22 FEO
16 FESTO
91 FIDE
41 FK
21 FTP
22 Fabelo
24 Fabeloj
15 Fabloj
63 Fabriko
27 Face
11 Facila
15 Fajrero
56 Fajro
11 Fajrobrigado
132 Fako
15 Fakon
506 Fakultato
51 Fakultaton
62 Falange
34 Falango
11 Falas
17 Falda
12 Falintoj
22 Falko
42 Falo
43 Falsa
12 Famaj
61 Fame
77 Familia
21 Familie
279 Familio
68 Familioj
34 Famo
23 Fantazio
18 Fantomo
22 Fariseoj
19 Farmacia
39 Farmacio
12 Farmakologio
14 Farman
13 Farmo
29 Faro
14 Faru
15 Fasti
18 Fasto
59 Fatima
17 Favorite
12 Favoro
17 Fazanoj
11 Fazo
20 Faŝismo
12 Faŝista
13 Faŭlto
24 Faŭno
82 Faŭsto
38 Februara
333 Februaro
45 Federa
1113 Federacia
584 Federaciaj
57 Federacian
1407 Federacio
31 Federacioj
83 Federacion
14 Feino
19 Fekunda
11 Feliĉa
13 Feliĉaj
49 Feliĉo
14 Fenestro
12 Fenica
17 Fenice
57 Fenicio
17 Fenicoj
142 Fenikso
12 Fenomeno
170 Fera
52 Feria
90 Fermi
12 Fermita
27 Fermo
22 Fero
169 Fervoja
139 Fervojista
11 Fervojistan
26 Fervojisto
30 Fervojistoj
1327 Fervojo
709 Fervojoj
19 Fervojon
15 Festa
608 Festivalo
41 Festivaloj
53 Festivalon
211 Festo
24 Festoj
25 Feston
31 Fi
12 Fide
43 Fido
21 Fiera
18 Fiero
32 Figura
25 Figure
28 Filadelfia
274 Filadelfio
312 File
13 Filia
22 Filino
69 Filio
12 Filipa
15 Filipe
12 Filipinanoj
814 Filipinoj
33 Filipinojn
1301 Filipo
33 Filipon
58 Filma
11 Filmaj
26 Filman
72 Filmo
32 Filmoj
322 Filo
47 Filoj
18 Filologia
30 Filologio
24 Filon
11 Filozofa
107 Filozofia
12 Filozofiaj
228 Filozofio
31 Filozofion
17 Filozofo
66 Fina
14 Finalo
59 Financa
16 Financo
45 Financoj
115 Fine
24 Fingraj
13 Fini
21 Firmao
69 Fizika
12 Fizikaj
190 Fiziko
33 Fiziologio
17 Fiĝia
60 Fiĝio
80 Fiĝioj
33 Fiŝaglo
18 Fiŝista
14 Fiŝkaptado
12 Fiŝkaptisto
93 Fiŝo
321 Fiŝoj
65 Fjordo
167 Flago
15 Flako
12 Flame
13 Flamo
383 Flandra
22 Flandraj
655 Flandrio
19 Flandroj
87 Flandrujo
14 Flanke
29 Flanko
263 Flava
14 Flavaj
147 Flavbeka
59 Flavia
140 Flavio
14 Flegado
16 Flego
255 Flora
90 Floraj
12 Floranta
51 Florenca
93 Florence
995 Florenco
24 Florencon
57 Floro
30 Floroj
27 Floto
19 Flugado
50 Fluganta
12 Flugfiŝo
456 Flughaveno
20 Flugo
19 Fluo
16 Fluto
16 Foira
17 Foirejo
222 Foiro
13 Foiron
12 Folia
72 Folio
16 Folioj
15 Folklora
11 Folklore
43 Fonda
575 Fondaĵo
50 Fondaĵon
19 Fondinto
20 Fondo
152 Fonduso
62 Fonetika
63 Fontana
19 Fontane
74 Fontano
17 Fonte
197 Fonto
248 Fontoj
108 For
106 Fora
18 Foraj
15 Forkiso
13 Forko
14 Forma
20 Forman
139 Formulo
83 Forno
40 Forta
16 Fortaj
21 Forte
20 Forti
167 Fortikaĵo
11 Fortikaĵoj
17 Fortikaĵon
110 Forto
150 Fortoj
15 Forton
42 Fortuna
37 Fortune
18 Fortuno
193 Forumo
11 Forumon
24 Fosaĵo
27 Fotio
22 Foto
15 Fraga
18 Fragan
155 Frakcio
21 Framasona
18 Framasonismo
1850 Franca
119 Francaj
93 Francan
661 France
81 Francia
16 Francine
11856 Francio
448 Francion
44 Franciska
1501 Francisko
27 Franciskon
28 Franclingva
595 Franco
121 Francoj
804 Francujo
38 Francujon
17 Franjo
77 Franka
19 Franke
104 Franko
117 Frankoj
11 Frata
12 Fratara
71 Frataro
57 Frateco
28 Fratino
53 Fratinoj
78 Frato
186 Fratoj
12 Fratuloj
50 Fraŭlino
15 Frederika
844 Frederiko
28 Frederikon
12 Fregata
31 Fremda
26 Fremdaj
24 Fremdlingva
12 Fremdula
54 Freneza
12 Fringo
11 Frisa
12 Frisaj
23 Frisoj
17 Fritaŭno
446 Fronto
19 Fronton
35 Frosto
78 Frua
39 Fulga
21 Fulmo
11 Funafutio
98 Fundamenta
23 Fundamentaj
203 Fundamento
21 Fundamentoj
14 Fundo
21 Funebra
29 Futa
679 Futbala
41 Futbalan
83 Futbalo
49 Future
23 Futuro
11 Fuĝi
196 GEA
28 GNOME
174 GNU
11 GUI
195 Gabono
12 Gaela
75 Gaja
57 Gajo
19 Gala
49 Galanta
12 Galatia
27 Galatoj
14 Gale
65 Galega
300 Galegio
11 Galegion
12 Galego
26 Galerie
323 Galerio
23 Galerioj
11 Galerion
35 Galilea
259 Galileo
15 Galileon
30 Galo
219 Gama
146 Gambio
70 Game
11 Ganaa
485 Ganao
25 Garbo
47 Garda
46 Gardanto
33 Garde
28 Gardisto
34 Gardistoj
19 Gardo
97 Garibaldi
13 Garni
52 Gaskonio
29 Gastejo
11 Gasto
141 Gaston
127 Gaza
95 Gazeta
24 Gazetara
14 Gazetaro
235 Gazeto
12 Gazeton
21 Gazo
13 Gaŭsa
17 Gaŭso
16 Geedziĝo
32 Geja
12 Gejaj
22 Gejoj
12 Gejsero
143 Gene
25 Genera
88 Generacio
30 Generala
256 Generalo
12 Genetika
11 Genetiko
246 Genezo
94 Genro
52 Genta
270 Gento
25 Geodezio
16 Geofizika
194 Geografia
146 Geografio
82 Geologia
41 Geologio
23 Geometrio
31 Georga
1996 George
1085 Georgo
29 Georgon
17 Gepatra
210 Gereĝoj
2719 Germana
146 Germanaj
111 Germanan
103 Germania
24402 Germanio
300 Germanion
39 Germanlingva
40 Germano
80 Germanoj
1181 Germanujo
51 Germanujon
28 Gesta
72 Giganta
21 Giganto
31 Gigantoj
16 Gimnastika
188 Gimnazio
27 Gimnazion
42 Glacia
13 Glaciejo
69 Glaciepoko
13 Glacio
13 Glagolico
124 Glano
15 Glavo
79 Globe
69 Globo
34 Glora
45 Gloro
27 Goa
15 Gobio
106 Goeto
61 Gogol
189 Golden
139 Golfa
149 Golfeto
1549 Golfo
106 Golfon
24 Golgoto
21 Goo
24 Gorĝo
24 Gorĝoj
32 Gotika
14 Gotiko
112 Grabowski
86 Grace
55 Gracia
27 Gracioj
77 Graco
11 Gracula
49 Grado
152 Grafejo
15 Grafejon
24 Grafika
70 Grafino
504 Grafo
639 Grafoj
15 Gramatika
99 Gramatiko
5908 Granda
433 Grandaj
22 Grandajn
231 Grandan
13 Grandanima
664 Grande
50 Grandioza
11 Grandurbo
12 Granita
96 Grava
60 Grave
15 Gravo
375 Gregoria
676 Gregorio
27 Gregorion
482 Greka
41 Grekaj
16 Grekan
35 Greke
12 Grekia
1888 Grekio
86 Grekion
41 Greko
86 Grekoj
141 Grekujo
31 Grenada
76 Grenado
13 Grenon
377 Griza
57 Grizaj
12 Grizbruna
13 Grote
71 Groto
27 Grotoj
70 Gruo
802 Grupo
26 Grupoj
53 Grupon
102 Guberniestro
1820 Gubernio
19 Gujana
203 Gujano
99 Gujanoj
12 Guta
114 Gvardio
532 Gvatemalo
31 Gvatemalurbo
36 Gvidanto
19 Gvidilo
68 Gvidlibro
30 Gvido
33 Gvinea
547 Gvineo
14 HA
13 HALE
12 HARO
13 HE
12 HM
12 HO
142 HTML
52 Ha
113 Hadeso
15 Hadeson
31 Haga
381 Hago
28 Haitia
339 Haitio
16 Haition
13 Hala
55 Hale
114 Halo
13 Haltu
210 Hamilton
20 Hamiltono
122 Hanojo
99 Hansa
89 Hanso
38 Hanson
19 Hara
37 Harareo
314 Hararo
26 Hare
30 Harmonia
47 Harmonio
51 Haro
18 Harpioj
14 Harpo
29 Haupenthal
36 Havana
670 Havano
13 Havanon
11 Havaĵo
33 Have
132 Haveno
23 Havi
183 He
114 Hebrea
11 Hebree
106 Hebreoj
13 Hedera
37 Hejma
72 Hejmo
25 Hela
430 Helena
13 Helenan
61 Helene
16 Helenisma
151 Heleno
28 Helenoj
28 Helenon
11 Heliko
100 Helikon
22 Helo
33 Helpa
15 Helpe
68 Helpo
26 Helsinka
259 Helsinko
22 Henan
268 Hepburn
30 Herbejo
261 Hercegovino
15 Herdo
270 Heredaĵo
23 Heredaĵoj
19 Heredo
18 Heroa
198 Herodo
173 Herodoto
191 Heroldo
160 Heroo
58 Herooj
27 Heĝiro
19 Hida
270 Hidro
192 Hieronimo
12 Higieno
98 Himno
12 Himnoj
666 Hinda
24 Hindaj
32 Hindan
37 Hindeŭropa
224 Hindia
13 Hindiaj
1165 Hindio
41 Hindioj
59 Hindion
247 Hindujo
16 Hindujon
19 Hipotezo
25 Hirunda
56 Hirundo
1783 Hispana
45 Hispanaj
61 Hispanan
29 Hispane
78 Hispania
8527 Hispanio
231 Hispanion
15 Hispanlingva
15 Hispano
43 Hispanoj
310 Hispanujo
11 Hispanujon
691 Historia
68 Historiaj
14 Historian
12 Historie
16 Historiisto
977 Historio
39 Historioj
48 Historion
780 Hitler
35 Hitlera
76 Hitlero
29 Hitleron
167 Ho
40 Hodiaŭ
95 Homa
296 Homaj
54 Homaro
135 Home
19 Homeopatio
24 Homera
12 Homeraj
299 Homero
410 Homo
348 Honduro
14 Honkonga
197 Honkongo
16 Honkongon
441 Honora
54 Honoran
16 Honorinda
12 Honoris
36 Honoro
11 Honto
155 Hora
88 Horacio
159 Horizonte
26 Horizonto
39 Horloĝo
26 Horo
42 Horoj
20 Hortikultura
16 Hortulano
21 Hospitala
204 Hospitalo
194 Hotelo
15 Hotelon
107 Human
16 Humana
17 Humanisma
20 Humanismo
11 Humanista
100 Hume
12 Humida
15 Hunan
103 Hundo
8673 Hungara
120 Hungaraj
76 Hungaran
162 Hungaria
14 Hungarian
15998 Hungario
342 Hungarion
451 Hungarujo
256 Hungarujon
23 Hunoj
154 IBM
21 ICE
15 IDE
36 IEL
1099 II
564 III
429 IJK
16 ILA
249 ILEI
11 INA
53 INE
33 IRA
25 IRAS
16 IRC
13 IRE
15 IREJO
92 ISAE
505 ISO
48 IU
357 IV
57 IX
104 Ia
27 Iam
129 Ian
76 Ibera
264 Iberia
418 Iberio
30 Iberion
13 Iberoj
20 Ica
43 Ice
193 Ida
16 Idea
29 Ideo
26 Ideoj
15 Idistoj
363 Ido
53 Idon
19 Igis
80 Ijob
11 Ilan
16 Ile
46 Ilia
28 Ilo
33 Iluminanto
22 Iluminatoj
133 Ilustrita
500 Image
49 Imamo
353 Imperia
18 Imperiaj
18 Imperian
253 Imperiestra
17 Imperiestraj
12 Imperiestran
68 Imperiestrino
443 Imperiestro
17 Imperiestroj
15 Imperiismo
5596 Imperio
33 Imperioj
183 Imperion
27 Impeto
56 Impulse
26 Ina
18 Incendio
51 Indekso
24 Indigo
17 Indiĝena
30 Indiĝenaj
61 Indonezia
993 Indonezio
48 Indonezion
12 Indus
235 Industria
22 Industriaj
28 Industrie
118 Industrio
40 Ine
79 Infana
11 Infanaj
85 Infano
92 Infanoj
22 Infanteria
40 Infanterio
93 Infero
49 Informa
49 Informado
14 Informaj
62 Informilo
33 Informo
39 Informoj
11 Infrastrukturo
22 Inga
21 Inge
14 Inguŝa
14 Iniciato
48 Inka
14 Inko
224 Inkvizicio
14 Inkvizicion
21 Inkvizitoro
32 Ino
12 Insektoj
12 Inside
11 Insigno
12 Inspektoro
21 Instanco
21 Institucia
76 Institucio
33 Institucioj
417 Institute
2973 Instituto
31 Institutoj
179 Instituton
15 Instrua
97 Instruado
45 Instruista
25 Instruisto
81 Instruistoj
35 Instruo
14 Instruoj
61 Insula
355 Insularo
18 Insularon
1637 Insulo
795 Insuloj
37 Insulojn
45 Insulon
14 Integriĝo
1321 Intel
19 Intelekta
11 Intelekto
25 Inteligenta
26 Intereso
13 Interesoj
14 Interface
15 Interhelpo
148 Interkonsento
23 Interkonsenton
42 Interligo
13 Interligoj
124 Interlingvao
11 Interlingvaon
22 Interlingvistiko
320 Interna
4969 Internacia
265 Internaciaj
29 Internaciajn
380 Internacian
120 Internacie
19 Internaciisto
367 Internacio
22 Internacion
105 Internaj
60 Internet
39 Interno
11 Interpretado
93 Interreta
14 Interretaj
396 Interreto
35 Interreton
13 Intervjuo
14 Interŝanĝo
14 Inundo
26 Invado
24 Invalidoj
12 Investa
14 Inĝeniera
14 Inĝenieras
28 Inĝeniero
59 Inĝenieroj
42 Io
370 Ion
28 Ira
90 Iraka
987 Irako
43 Irakon
32 Iran
184 Irana
17 Iranaj
14 Irananoj
1784 Irano
62 Iranon
56 Iris
12 Iriso
155 Irlanda
14 Irlandaj
14 Irlandan
1462 Irlando
65 Irlandon
49 Irma
54 Iron
77 Isaak
37 Isaako
12 Isaakon
362 Islama
13 Islamabado
48 Islamaj
17 Islamano
27 Islamanoj
14 Islamismo
570 Islamo
58 Islamon
62 Islanda
11 Islandanoj
726 Islando
29 Islandon
11 Ispell
306 Istanbulo
11 Istanbulon
95 Istmo
762 Itala
47 Italaj
42 Italan
20 Itale
132 Italia
17 Italian
15 Italie
14264 Italio
259 Italion
28 Italo
18 Italoj
387 Italujo
43 Italujon
58 Itinero
229 Ivano
37 Izmiro
25 Izraela
40 Izraelidoj
182 Izraelo
18 Izraelon
16 Iŝmael
47 JES
44 JU
26 Ja
20 Jake
99 Jakoba
1053 Jakobo
52 Jakobon
12 Jalapa
94 Jalta
176 Jalto
13 Jama
81 Jamajka
186 Jamajko
35 Januara
416 Januaro
723 Japana
61 Japanaj
21 Japanan
48 Japane
21 Japania
8005 Japanio
142 Japanion
17 Japano
27 Japanoj
279 Japanujo
178 Jara
309 Jarcentoj
24 Jardeko
88 Jarlibro
29 Jarmila
19 Jarmilo
16 Jaundeo
157 Java
269 Javo
12 Javon
88 Jehuda
12 Jehudo
51 Jekaterinburg
35 Jekaterinburgo
80 Jelcin
17 Jemena
351 Jemeno
173 Jen
506 Jena
11 Jeno
52 Jeremia
81 Jerusalema
1307 Jerusalemo
131 Jerusalemon
40 Jes
175 Jesaja
52 Jesu
28 Jesua
3894 Jesuo
282 Jesuon
145 Jesus
67 Jezuita
11 Jezuitaj
129 Jezuitoj
30 Jeĥezkel
40 Jogo
372 Johana
15 Johanan
53 Johanino
4323 Johano
141 Johanon
62 Jona
12 Jordana
272 Jordanio
103 Jordano
12 Joris
262 Jorko
22 Jorkoj
12 Jouko
14 Jozefa
25 Jozefino
1162 Jozefo
36 Jozefon
33 Joĉjo
74 Ju
65 Juana
41 Jubilea
77 Jubileo
243 Juda
53 Judaj
16 Judan
131 Judaso
23 Jude
60 Judio
13 Judion
99 Judismo
26 Judo
179 Judoj
13 Judojn
92 Judujo
11 Juga
11 Jugo
17 Jugon
21 Jugoslava
77 Jugoslavia
1660 Jugoslavio
29 Jugoslavion
14 Jugoslavujo
11 Juko
400 Julia
157 Julian
92 Julie
1153 Julio
11 Julion
351 Juna
140 Junaj
45 June
46 Juneco
16 Junia
458 Junio
36 Juno
79 Junta
26 Junto
37 Junula
737 Junulara
27 Junularaj
56 Junularan
353 Junularo
16 Junulo
38 Junuloj
58 Jupitera
886 Jupitero
49 Jupiteron
360 Jura
56 Juraj
11 Juran
12 Juristoj
334 Juro
37 Juron
31 Justa
27 Juste
272 Justeco
130 Justiniano
53 Justo
42 Justulo
19 Justuloj
16 Juĝa
44 Juĝejo
15 Juĝistaro
32 Juĝisto
30 Juĝistoj
64 Juĝo
12 KAFE
158 KARA
19 KC
19 KG
19 KP
11 KS
70 Kabalo
44 Kabano
66 Kabe
395 Kabineto
115 Kabulo
15 Kadavrogrifo
32 Kafejo
329 Kairo
18 Kajero
38 Kajeroj
45 Kajo
20 Kajto
16 Kaldrono
83 Kalendaro
44 Kalia
324 Kalifornia
17 Kaliforniaj
13 Kalifornian
4336 Kalifornio
32 Kalifornion
11 Kaliko
88 Kalio
44 Kalkato
19 Kalkulo
198 Kalocsay
39 Kalva
32 Kalvaria
47 Kalvario
166 Kalvinana
17 Kalvinismo
109 Kalvino
14 Kamarado
11 Kamero
34 Kameruna
17 Kamerunio
447 Kameruno
16 Kampa
23 Kampalo
56 Kampanjo
315 Kampara
12 Kamparaj
77 Kamparana
12 Kamparanaj
22 Kamparanoj
139 Kamparo
89 Kampo
91 Kampoj
26 Kana
13 Kanaba
489 Kanada
44 Kanadaj
18 Kanadan
3027 Kanado
95 Kanadon
18 Kanala
481 Kanalo
12 Kanaloj
29 Kanalon
45 Kanaria
85 Kanariaj
48 Kanario
278 Kanarioj
61 Kanbero
19 Kanbirdo
24 Kancelario
45 Kanceliero
21 Kanda
68 Kane
21 Kanjona
79 Kanjono
155 Kankro
35 Kano
32 Kanona
31 Kanono
15 Kanta
11 Kantado
18 Kantanta
49 Kantaro
18 Kantiko
26 Kantio
13 Kantistoj
271 Kanto
35 Kantocigno
79 Kantoj
19 Kanton
50 Kantona
7417 Kantono
39 Kantonoj
43 Kantonon
39 Kantoturdo
14 Kantu
13 Kanzono
60 Kapadokio
269 Kapelo
19 Kapelon
37 Kapeto
28 Kapitalo
90 Kapitano
18 Kapitola
103 Kapitolo
48 Kapo
12 Kapoj
11 Kapro
11 Kaptito
37 Kapuĉa
97 Kara
151 Karakaso
13 Karaktero
15 Karavano
25 Karbo
22 Kardinala
121 Kardinalo
23 Kardo
29 Kardos
15 Karela
18 Karelia
154 Karelio
27 Karla
1718 Karlo
46 Karlon
56 Karnavalo
12 Karnavaloj
19 Karno
21 Karo
84 Karola
38 Karolida
27 Karolidoj
103 Karolina
22 Karoline
412 Karolino
16 Karolinoj
1326 Karolo
36 Karolon
11 Karpo
16 Kartezia
145 Kartezio
12 Karto
109 Kartvela
19 Kartvelia
878 Kartvelio
33 Kartvelion
24 Kartvelujo
11 Kasa
77 Kasisto
24 Kaso
83 Kastela
1211 Kastelo
19 Kasteloj
68 Kastelon
72 Kastilia
11 Kastiliaj
1362 Kastilio
21 Kastilion
49 Kastoro
23 Kastro
50 Kata
50 Katalogo
16 Katalogon
152 Katarina
159 Katarino
104 Kataro
21 Kataroj
13 Katastrofo
127 Kate
26 Katedrala
732 Katedralo
12 Katedraloj
22 Katedralon
108 Katedro
17 Katedron
153 Kategorio
41 Katina
18 Katinaj
44 Katmanduo
105 Kato
1456 Katolika
274 Katolikaj
52 Katolikan
55 Katolikismo
46 Katoliko
23 Katolikoj
12 Kavaleria
20 Kavalerio
65 Kavalira
12 Kavaliran
185 Kavaliro
89 Kavaliroj
66 Kaverno
23 Kavernoj
38 Kavo
86 Kazan
46 Kazaĥa
435 Kazaĥio
31 Kazaĥujo
18 Kazerno
15 Kazino
13 Kaĉo
11 Kaŝita
17 Kaŝmira
156 Kaŝmiro
20 Kaŝtana
84 Kaŭkaza
316 Kaŭkazo
22 Kaŭkazon
18 Kaŭzo
36 Kebekia
467 Kebekio
14 Kebekion
15 Kelo
24 Kelta
11 Keltaj
45 Keltoj
12 Kelvino
51 Kenja
693 Kenjo
11 Keno
16 Kesto
40 Kia
43 Kial
163 Kiam
15 Kien
160 Kieva
12 Kievan
439 Kievo
21 Kievon
50 Kilimanĝaro
16 Kilo
12 Kilometro
60 Kimra
583 Kimrio
35 Kimrion
86 Kimrujo
17 Kina
11 Kinejo
15 Kingstono
76 Kino
94 Kinŝasa
42 Kinŝaso
116 Kio
12 Kiom
53 Kion
28 Kipra
453 Kipro
23 Kipron
24 Kirgiza
221 Kirgizio
55 Kiribato
369 Kirko
32 Kirkon
102 Kiso
33 Kita
98 Kito
26 Kiŝinevo
161 Klara
16 Klaro
57 Klasifiko
83 Klasika
11 Klasikaj
38 Klaso
14 Klasoj
12 Klavaro
35 Klaŭdo
19 Klera
32 Kleriga
13 Klerigado
13 Klerigo
11 Klerikaro
111 Klerismo
41 Klimata
14 Klinika
56 Kliniko
603 Klubo
36 Klubon
20 Kluzo
32 Knabino
15 Knabinoj
23 Knabo
25 Knaboj
21 Knuth
14 Kodaka
123 Kodekso
11 Kodeksoj
170 Kodo
11 Koincido
62 Koko
42 Kola
12 Kolegia
667 Kolegio
12 Kolegioj
41 Kolegion
21 Kolektivo
125 Kolekto
27 Kolokvo
17 Kolombano
140 Kolombia
1507 Kolombio
20 Kolombion
66 Kolombo
54 Kolonelo
46 Kolonia
85 Kolonio
20 Kolonioj
55 Kolono
32 Kolonoj
129 Kolorado
14 Koloro
12 Koloroj
28 Koloso
34 Koluma
22 Kolumba
365 Kolumbo
58 Komandanto
13 Komandejo
22 Komando
142 Komedio
34 Komenca
87 Komenio
13 Komentoj
298 Komerca
51 Komercaj
24 Komercan
13 Komercisto
207 Komerco
44 Kometo
335 Kometoj
13 Komika
16 Komisarejo
49 Komisaro
14 Komisiito
66 Komisio
1119 Komisiono
18 Komisionoj
45 Komisionon
30 Komitatano
1949 Komitato
31 Komitatoj
130 Komitaton
15 Komo
18 Komodo
104 Komoroj
581 Kompanio
12 Kompanioj
18 Kompanion
20 Kompara
15 Komparu
14 Kompaso
13 Kompato
35 Komplekso
24 Kompleta
11 Komponistoj
40 Kompreniĝo
11 Kompromiso
13 Komputada
14 Komputika
26 Komputila
515 Komuna
19 Komunaj
17 Komunan
22 Komunaĵo
22 Komuneco
62 Komunikado
16 Komunikaĵoj
47 Komunio
220 Komunisma
22 Komunismo
721 Komunista
14 Komunistaj
33 Komunistan
21 Komunistoj
60 Komunuma
12 Komunumaj
1325 Komunumo
133 Komunumoj
83 Komunumon
11 Konakrio
18 Koncentrejo
33 Koncerto
658 Koncilio
20 Koncilioj
34 Koncilion
38 Koncipiĝo
13 Koncize
13 Kondoro
39 Konfederacia
37 Konfederaciitaj
377 Konfederacio
23 Konfederacion
435 Konferenco
48 Konferencoj
34 Konferencon
12 Konfesanta
55 Konfesanto
11 Konfesio
25 Konfeso
20 Konfesoj
20 Konflikto
17 Konfucea
160 Konfuceo
66 Konga
1209 Kongo
13 Kongon
196 Kongregacio
20 Kongregacioj
12 Kongregacion
233 Kongresa
25 Kongresan
2865 Kongreso
216 Kongresoj
61 Kongresojn
307 Kongreson
34 Konkeranto
73 Konkerinto
40 Konkero
21 Konko
35 Konkordato
91 Konkordo
12 Konkreta
107 Konkurso
111 Konkursoj
13 Konkurson
13 Konscienco
15 Konscio
13 Konsento
84 Konservado
118 Konservativa
332 Konservatorio
19 Konservatorion
48 Konservo
24 Konsilantara
452 Konsilantaro
17 Konsilantaroj
27 Konsilantaron
19 Konsilanto
2157 Konsilio
38 Konsilioj
79 Konsilion
32 Konsilisto
59 Konsilo
18 Konsistorio
16 Konsorcio
14 Konspiro
72 Konstanta
11 Konstantan
21 Konstantinopola
840 Konstantinopolo
64 Konstantinopolon
24 Konstanto
216 Konstitucia
11 Konstitucian
19 Konstitucianta
561 Konstitucio
15 Konstitucioj
67 Konstitucion
19 Konstrua
24 Konstruado
59 Konstruaĵo
13 Konstruo
20 Konsulo
27 Konsulta
101 Kontakto
94 Kontinenta
21 Kontinento
14 Kontinua
84 Kontrakto
19 Kontrolo
12 Konuso
308 Konvencio
26 Konvencioj
28 Konvencion
11 Konversacia
11 Konversacio
34 Kooperativa
88 Kooperativo
20 Koordinatoj
27 Kopenhaga
590 Kopenhago
177 Koperniko
72 Kopta
28 Kora
23 Korala
352 Korano
43 Koranon
20 Korda
15 Kordo
16 Kore
277 Korea
26 Korean
14 Koree
14 Koreia
722 Koreio
45 Koreion
30 Koreo
11 Koreoj
15 Koresponda
24 Koreujo
40 Koridoro
13 Korinta
64 Korintanoj
153 Korinto
14 Kornatoj
22 Kornico
22 Kornis
81 Korno
203 Koro
54 Korpo
12 Korpoj
155 Korporacio
99 Korpuso
100 Kortega
82 Kortego
63 Korto
454 Kortumo
36 Kortumoj
20 Kortumon
56 Korvo
19 Korĵenkov
19 Kos
229 Kosma
19 Kosmaj
61 Kosmo
27 Kosova
254 Kosovo
25 Kosta
256 Kostariko
16 Kostas
12 Kot
35 Kota
12 Kotas
15 Koto
35 Koĉero
14 Krabo
14 Kranio
45 Krause
24 Krea
28 Kreado
13 Kredantoj
15 Kredito
365 Kredo
55 Kredon
11 Kredu
68 Kreinto
64 Kreis
12 Kremla
169 Kremlo
12 Kremlon
16 Kreo
16 Krepusko
74 Kresta
25 Kresto
42 Krestomatio
16 Kreta
308 Kreto
22 Kreton
17 Krima
1638 Krimea
16 Krimean
1394 Krimeo
38 Krimeon
23 Kriminala
39 Krimo
29 Krio
15 Krioj
11 Kripto
46 Krispa
28 Krista
36 Kristala
13 Kristalo
287 Kristana
55 Kristanaj
20 Kristanan
266 Kristanismo
22 Kristanismon
78 Kristanoj
99 Kristnaska
12 Kristnaskaj
253 Kristnasko
29 Kristnaskon
3461 Kristo
131 Kriston
36 Kriterion
23 Kritika
82 Kritiko
22 Kriza
35 Krizo
70 Kroata
21 Kroatia
1549 Kroatio
19 Kroation
17 Kroatujo
11 Krokodilo
50 Krom
87 Krome
19 Kronado
184 Kroniko
55 Kronikoj
11 Kronikon
16 Kronita
374 Krono
22 Kronon
13 Kronos
24 Kronprinco
11 Kruca
24 Krucifikso
13 Kruckavaliroj
868 Kruco
16 Krucoj
58 Krucon
26 Krucumado
20 Krucumito
20 Krucumo
11 Kruela
43 Krupa
22 Kuan
191 Kuba
13 Kubaj
29 Kuban
14 Kubismo
1568 Kubo
65 Kubon
13 Kufa
11 Kuka
17 Kukolo
18 Kula
13 Kuleranaso
19 Kulto
443 Kultura
60 Kulturaj
18 Kulturan
459 Kulturo
29 Kulturoj
44 Kuna
33 Kuniĝo
35 Kunlaborado
90 Kunlaboro
16 Kuno
19 Kunordiga
16 Kunordigo
21 Kunsido
138 Kunveno
20 Kunvenon
74 Kuomintango
11 Kupa
22 Kupolo
18 Kupra
31 Kura
11 Kuraca
30 Kuracista
41 Kuracistoj
16 Kuratora
15 Kuraĝa
14 Kuraĝo
15 Kurba
47 Kurbiĝoj
21 Kurda
41 Kurdio
17 Kurdoj
11 Kure
14 Kuri
30 Kuriero
60 Kurso
24 Kursoj
12 Kurson
13 Kurta
38 Kurteno
111 Kuvajto
18 Kuvajton
50 Kuzo
26 Kuŝejo
20 Kuŝi
13 Kvadrato
63 Kvankam
174 Kvar
176 Kvara
16 Kvaran
37 Kvaropo
898 Kvartalo
16 Kvartaloj
16 Kverko
110 Kvin
151 Kvina
34 Kvinopo
16 Kvinto
27 Kvorumo
145 LKK
26978 La
24 Labirinto
35 Labora
12 Laboranta
3447 Laboratorio
15 Laboratorion
18 Laborejo
37 Laborgrupo
684 Laborista
61 Laboristaj
35 Laboristan
19 Laboristara
45 Laboristo
129 Laboristoj
235 Laboro
26 Laboroj
34 Laborpartio
17 Lacan
13 Lacerta
29 Lacerto
40 Lada
12 Lado
74 Laga
42 Lageto
2984 Lago
265 Lagoj
119 Lagon
120 Laguna
67 Laguno
11 Laki
14 Lakos
13 Lakotoj
124 Lakta
60 Lama
24 Lamao
13 Lambda
14 Lampiro
12 Lampo
30 Lana
20 Lance
14 Lanco
484 Landa
67 Landaj
29 Landan
19 Landaro
14 Lande
27 Landlimo
606 Lando
180 Landoj
42 Landon
92 Lane
11 Langa
82 Lange
24 Langete
14 Lanka
17 Lanterno
105 Lanti
32 Laosa
406 Laoso
13 Laoson
15 Larĝa
150 Lasta
334 Lastaj
22 Lastan
18 Lasu
11 Lata
28 Late
473 Latina
29 Latinaj
31 Latinan
64 Latine
14 Latinida
160 Latino
13 Latinon
15 Latituda
64 Latva
47 Latvia
610 Latvio
17 Latvion
17 Lava
115 Lazaro
132 Lazura
13 Lazuri
15 Laŭdo
13 Laŭra
37 Laŭro
30 Lebanono
31 Leda
13 Ledo
33 Ledon
24 Lega
14 Legenda
51 Legendo
27 Legendoj
221 Legio
12 Legioj
47 Legion
19 Lego
13 Legolibro
12 Leksiko
188 Leksikono
12 Lemon
46 Leona
320 Leonardo
37 Leone
1731 Leono
15 Leonoj
16 Leonon
407 Leopoldo
43 Leporo
32 Lernado
42 Lerneja
1092 Lernejo
53 Lernejoj
109 Lernejon
21 Lerno
17 Lernu
72 Lesoto
111 Letero
100 Leteroj
14 Leteron
14 Levante
11 Levanto
94 Levi
26 Levitan
12 Levon
23 Levu
19 Leĝa
19 Leĝaro
45 Leĝdona
12 Leĝera
397 Leĝo
46 Leĝoj
12 Leĝojn
63 Leĝon
26 Leŭtenanto
1279 Li
286 Lia
56 Liaj
41 Lian
30 Libana
429 Libano
19 Libanon
736 Libera
100 Liberaj
274 Liberala
33 Liberalaj
17 Liberalan
20 Liberan
45 Libereca
350 Libereco
12 Liberia
154 Liberiga
195 Liberigo
163 Liberio
34 Liberiĝo
82 Libero
12 Liberoj
37 Libia
445 Libio
25 Libion
26 Libra
45 Libraro
58 Libre
60 Librejo
860 Libro
88 Libroj
44 Libron
16 Libroservo
315 Liceo
36 Liceon
44 Lie
42 Liga
46 Ligilo
21 Ligne
12 Ligno
1786 Ligo
40 Ligoj
117 Ligon
55 Like
23 Liko
21 Lilian
21 Lilio
222 Lima
88 Limato
12 Limeso
18 Limgarda
121 Limo
21 Limoj
161 Lin
49 Lina
218 Line
29 Linea
219 Lineo
373 Lingva
61 Lingvaj
14 Lingvan
18 Lingvistika
42 Lingvistiko
672 Lingvo
133 Lingvoj
66 Lingvon
27 Linia
14 Linie
521 Linio
18 Linioj
66 Linion
37 Linke
114 Linko
28 Linkoj
40 Lino
21 Linuksa
175 Linukso
20 Liona
588 Liono
12 Lionon
21 Lipo
17 Lira
58 Liro
29 Lisbona
553 Lisbono
25 Lisbonon
32 Lisp
37 Lista
15 Liste
622 Listo
38 Liston
423 Literatura
18 Literaturaj
32 Literaturan
28 Literature
313 Literaturo
19 Litero
25 Literoj
268 Litova
51 Litovia
1902 Litovio
64 Litovion
18 Litovujo
25 Liturgia
34 Liturgio
154 Live
12 Liven
144 Liĥtenŝtejno
32 Ljubljana
47 Ljubljano
16 Lobe
31 Lobo
64 Logan
45 Logiko
14 Logo
75 Logos
12 Lojala
13 Lojaleca
163 Loka
31 Lokaj
14 Lokan
38 Loki
107 Loko
55 Lokoj
53 Lola
41 Lombarda
11 Lombardi
491 Lombardio
36 Lombardo
29 Lombardoj
66 Lombardujo
40 Lomeo
255 Londona
22 Londonaj
16 Londonan
4073 Londono
127 Londonon
121 Longa
11 Longitudo
12 Longo
11 Lonicera
133 Lordo
30 Lordoj
48 Lotus
91 Loĝantaro
11 Loĝejo
24 Loĝio
13 Lua
32 Luanda
29 Luando
22 Lucerna
816 Lucerno
12 Luda
45 Ludo
394 Ludoj
97 Ludojn
43 Ludovika
2101 Ludoviko
54 Ludovikon
20 Lui
280 Luigi
823 Luis
48 Luka
23 Luke
439 Luko
11 Lukrecia
51 Lukrecio
25 Luksemburga
257 Luksemburgio
12 Luksemburgion
346 Luksemburgo
17 Lukto
43 Lula
14 Lulu
18 Luma
140 Lumo
31 Lumoj
25 Lumturo
11 Lumturoj
244 Luna
13 Lunda
16 Lune
622 Luno
56 Lunon
19 Lupa
15 Lupe
88 Lupo
18 Lupoj
17 Lusako
19 Lutera
97 Luterana
11 Luteranaj
382 Lutero
30 Luteron
117 Luvro
16 MESAN
47 MI
27 MM
11 MOKA
20 MONATO
22 Macon
80 Madagaskara
481 Madagaskaro
16 Madagaskaron
35 Madejra
133 Madejro
174 Madono
25 Madraso
293 Madrida
2824 Madrido
60 Madridon
151 Magazine
12 Magazino
59 Magia
25 Magio
19 Magistra
18 Magistrato
52 Magistro
18 Magneta
82 Maja
50 Majakovskij
568 Majo
75 Majora
17 Majoro
348 Majstro
19 Majstroj
12 Majstron
83 Makabeoj
13 Makedona
13 Makedonia
362 Makedonio
18 Makedonion
27 Makedonujo
22 Makintoŝo
29 Maks
45 Maksimo
30 Makula
37 Mala
26 Malajzia
771 Malajzio
19 Malajzion
127 Malalta
112 Malaltaj
12 Malantaŭ
145 Malantaŭa
24 Malavia
187 Malavio
18 Malbona
36 Malbono
74 Maldekstra
11 Maldekstraj
221 Maldekstro
25 Maldekstroj
32 Maldekstruloj
58 Maldivoj
33 Male
16 Malfacila
61 Malferma
21 Malferman
12 Malfermo
68 Malfrua
1350 Malgranda
191 Malgrandaj
40 Malgrandan
22 Malgraŭ
91 Malhela
37 Malia
366 Malio
218 Maljuna
37 Malkovro
19 Malkovroj
14 Malliberejo
39 Mallonga
18 Malluma
29 Mallumo
56 Malneta
1508 Malnova
27 Malnovaj
57 Malnovan
15 Malnovmondaj
55 Malo
17 Malordo
20 Malpermesita
273 Malplej
36 Malproksima
14 Malriĉa
14 Malriĉeco
15 Malriĉuloj
16 Malsano
43 Malsanoj
146 Malsanulejo
12 Malsata
13 Malsato
12 Malsaĝulo
15 Malseka
2814 Malsupra
18 Malsupran
70 Malta
20 Maltima
335 Malto
19 Malton
234 Malvarma
41 Mama
11 Mamaj
15 Mamuloj
13 Mana
42 Managvo
15 Mandarena
30 Mandato
16 Manierismo
150 Manifesto
42 Manifeston
96 Manika
18 Manikan
34 Maniko
13 Manikon
41 Manila
98 Manilo
23 Manko
57 Manlibro
48 Mano
43 Manoj
43 Manon
43 Mansa
27 Manso
49 Manson
17 Manuskripto
22 Manuskriptoj
25 Manĝo
39 Mapo
33 Maputo
218 Mara
38 Maraj
16 Maran
76 Marborda
28 Marbordaj
329 Marbordo
1402 Mare
102 Margarita
4938 Maria
17 Mariaj
176 Marian
15 Marini
101 Marino
14 Marinus
544 Mario
127 Marion
18 Marista
19 Maristo
14 Marka
13 Markizino
189 Markizo
13 Markizoj
761 Marko
14 Markoj
848 Markolo
53 Markolon
13 Markon
22 Markos
12 Marksisma
25 Marksismo
108 Markso
57 Markus
12 Marmite
108 Marmora
16 Marmota
72 Marne
57 Marno
3553 Maro
47 Maroj
23 Maroka
785 Maroko
25 Marokon
264 Maron
285 Marta
38 Martelo
49 Martiro
42 Martiroj
450 Marto
44 Marton
25 Marĉa
12 Marĉanaso
80 Marĉo
42 Marĉoj
21 Marŝado
40 Marŝala
67 Marŝalo
22 Marŝaloj
60 Marŝo
87 Masakro
688 Masivo
17 Maskato
15 Maskita
16 Masko
16 Maso
98 Mason
131 Mastro
12 Mastrumado
101 Mata
91 Matematika
15 Matematikaj
16 Matematikistoj
88 Matematiko
15 Matena
24 Mateno
716 Mateo
12 Mateon
66 Mato
14 Matrico
14 Maturigo
12 Maŝa
30 Maŝino
28 Maŭricia
174 Maŭricio
32 Maŭro
41 Maŭroj
63 Maŭzoleo
16 Meandro
47 Mecenato
95 Medalo
115 Medalon
106 Media
298 Medicina
14 Medicinaj
20 Medicinan
42 Medicine
270 Medicino
22 Medicinon
99 Medina
148 Medino
90 Medio
449 Mediteranea
17 Mediteraneaj
20 Mediteranean
828 Mediteraneo
71 Mediteraneon
48 Meduzo
15 Meduzon
327 Meksika
14 Meksikaj
33 Meksikan
592 Meksikio
17 Meksikion
3120 Meksiko
49 Meksikon
17 Mela
69 Meleagro
12 Meliso
58 Melo
14 Melodia
205 Membro
45 Membroj
21 Memoraĵoj
11 Memorlibro
121 Memoro
19 Memoroj
12 Memoru
12 Memportreto
13 Memstara
22 Mensa
25 Menso
19 Mensogi
11 Mentoro
22 Mergus
26 Merita
13 Meriti
68 Merito
38 Merkato
20 Merkredo
189 Merkuro
24 Merla
18 Merle
37 Merlo
1076 Mesa
20 Mesaĝo
192 Mesio
23 Mesion
26 Meslibro
97 Meso
29 Meson
44 Metafiziko
14 Metamorfozo
59 Metamorfozoj
29 Meteologia
29 Meteologio
15 Meteoroj
11 Metia
16 Metioj
17 Metodisma
13 Metodista
154 Metodo
15 Metodon
158 Metro
17 Metronome
164 Metropola
13 Metropolan
53 Metropolita
48 Metropolitan
12 Metropolito
85 Metropolo
22 Mevo
1645 Meza
12 Mezan
16 Meze
38 Mezepoka
899 Mezepoko
109 Mezlernejo
20 Mezo
18 Mezopotamia
356 Mezopotamio
38 Mezopotamion
41 Mezuroj
884 Mi
240 Mia
23 Miaj
22 Mian
216 Microsoft
130 Mie
182 Migra
16 Migrado
11 Migraj
54 Migrantaj
13 Migranto
17 Migros
83 Mikronezio
13 Mikroskopo
46 Miksa
92 Mil
17 Mila
168 Milan
19 Milde
31 Mile
11 Milione
133 Milita
14 Militan
30 Militantaj
15 Militarto
106 Militista
11 Militistaj
53 Militistaro
2983 Milito
235 Militoj
11 Militojn
101 Militon
21 Milo
40 Min
50 Mina
123 Minacata
120 Minacataj
227 Minas
13 Minato
29 Mine
36 Mineja
134 Minejo
12 Minejoj
30 Mini
22 Minista
704 Ministerio
16 Ministerioj
20 Ministerion
17 Ministra
14 Ministraro
75 Ministrejo
12 Ministrino
432 Ministro
86 Ministroj
11 Ministron
38 Mino
20 Minoj
23 Minoraj
68 Minska
167 Minsko
13 Minusklo
68 Mira
16 Miraklo
22 Mirakloj
25 Mirinda
20 Mirindaĵoj
55 Mirlando
13 Miron
14 Misia
106 Misio
11 Misioj
11 Mision
12 Mistera
28 Mistero
36 Misteroj
15 Mistika
21 Mita
22 Mito
11 Mitologia
13 Mitologio
32 Mitrao
51 Mitre
11 Mizero
12 Mizeruloj
11 Miĉjo
188 Miĥaelo
23 Mode
56 Modelo
17 Modera
206 Moderna
26 Modernaj
19 Moderne
32 Modernismo
21 Moderno
33 Modesto
26 Modulo
68 Mogadiŝo
45 Mola
56 Moldava
335 Moldavio
14 Moldavion
19 Moldavujo
21 Mole
13 Moleo
94 Mona
201 Monako
49 Monarkio
17 Monata
243 Monato
14 Monaĥa
1088 Monaĥejo
21 Monaĥejon
24 Monaĥinejo
22 Monaĥo
2272 Monda
141 Mondaj
47 Mondan
145 Monde
2833 Mondmilito
19 Mondmilitoj
55 Mondmiliton
958 Mondo
15 Mondoj
18 Mondon
136 Mongola
25 Mongolaj
16 Mongolan
25 Mongolia
616 Mongolio
37 Mongolion
49 Mongoloj
35 Mongolujo
58 Mono
21 Monstro
187 Monta
58 Montana
166 Montano
433 Montara
1106 Montaro
62 Montaroj
40 Montaron
402 Monte
245 Montenegro
14 Monteta
141 Monteto
53 Montetoj
157 Montevideo
4973 Monto
459 Montoj
11 Montojn
19 Monton
39 Montpasejo
28 Monumenta
505 Monumento
33 Monumentoj
18 Monumenton
27 Monunua
108 Mora
17 Morala
15 Moralaj
17 Moralo
17 Moran
108 Morava
281 Moravia
26 Moraviaj
649 Moravio
48 Moravion
24 Moravo
80 More
19 Morgaŭ
12 Morne
58 Moro
106 Morta
28 Morte
35 Mortintoj
197 Morto
203 Morton
34 Mortotuko
14 Mosea
337 Moseo
12 Moska
128 Moskeo
1034 Moskva
29 Moskvaj
33 Moskvan
3614 Moskvo
168 Moskvon
33 Mota
875 Movado
49 Movadon
12 Movo
36 Mozambika
383 Mozambiko
79 Moŝto
42 Mu
18 Muelejo
15 Muelejoj
41 Muhamad
12 Mumio
163 Municipa
11 Municipaj
116 Municipo
19 Munte
26 Munĥeno
29 Mura
30 Murdo
26 Murego
40 Murhirundo
236 Muro
28 Muroj
24 Muron
110 Musa
21 Muse
12 Muso
22 Musorgskij
37 Mustela
73 Muta
20 Mutaj
13 Muti
11 Mutis
32 Muzea
2670 Muzeo
80 Muzeoj
106 Muzeon
264 Muzika
21 Muzikaj
26 Muzikan
428 Muziko
14 Muzikon
49 Muzo
37 Muzoj
12 NAFTA
279 NATO
17 NEA
96 NP
15 NS
7818 Nacia
193 Naciaj
16 Naciajn
383 Nacian
17 Nacieco
40 Naciisma
11 Naciista
44 Naciistoj
116 Nacio
1664 Nacioj
17 Naciojn
20 Nafta
56 Najrobo
32 Najtingalo
11 Namibia
426 Namibio
16 Napa
17 Napo
41 Narciso
11 Nasaŭo
104 Naskiĝo
13 Nasko
56 Natria
440 Natura
57 Naturaj
106 Nature
50 Naturhistoria
24 Naturhistorio
13 Naturista
186 Naturo
83 Naturparko
52 Nava
16 Navigado
437 Nazia
12 Naziaj
27 Naziismo
39 Nazioj
59 Naŭ
17 Naŭa
11 Naŭdek
13 Naŭzo
36 Nea
447 Nederlanda
81 Nederlandaj
32 Nederlandan
27 Nederlandanoj
4517 Nederlando
85 Nederlandoj
188 Nederlandon
52 Negra
152 Negro
21 Nek
36 Nekonata
12 Nekropolo
23 Nemateria
28 Neniam
23 Nenio
51 Neniu
30 Neo
16 Neon
29 Nepala
597 Nepalo
265 Neptuno
24 Neptunon
118 Nerono
28 Nerva
81 Neto
31 Netscape
21 Neu
59 Neva
12 Nevidebla
32 Neĝa
18 Neĝo
19 Neĝoj
15 Neĝulino
11 Neĥemja
17 Neŭtona
34 Neŭtono
35 Neŭtrala
355 Ni
502 Nia
30 Niaj
46 Nicea
108 Niceo
1825 Nigra
115 Nigraj
81 Nigran
16 Nigro
12 Nigrulo
11 Nikanoro
21 Nikaragva
400 Nikaragvo
11 Nikelo
33 Nikodemo
22 Nikolaa
934 Nikolao
25 Nikolaon
29 Nikozio
65 Nikso
54 Nila
443 Nilo
12 Nilon
17 Nin
15 Nisan
14 Nisano
84 Nizo
24 Nizoj
45 Niĝera
41 Niĝeria
667 Niĝerio
15 Niĝerion
234 Niĝero
130 Noa
47 Nobela
31 Nobla
49 Noble
12 Noda
20 Nodo
19 Noe
14 Nokta
11 Noktaj
130 Nokto
24 Noktoj
46 Nombroj
48 Nomoj
21 Nomos
5201 Norda
103 Nordaj
131 Nordan
17 Norden
274 Nordo
74 Norma
11 Normaj
54 Normala
72 Normale
236 Norman
440 Normandio
34 Normandion
26 Normandoj
20 Normandujo
24 Normanoj
22 Normigado
19 Normo
18 Normoj
174 Norvega
17 Norvegia
1410 Norvegio
43 Norvegion
112 Norvegujo
21 Noti
63 Noto
125 Notoj
17 Notu
3235 Nova
141 Novaj
143 Novan
11 Novaĵo
49 Novaĵoj
25 Noveloj
51 Novembra
368 Novembro
60 Novgoroda
34 Novgorodo
233 Novgvineo
15 Novgvineon
48 Novjara
184 Novjorka
13 Novjorkaj
11 Novjorkan
302 Novjorkio
2915 Novjorko
48 Novjorkon
99 Novo
19 Novosibirsk
31 Novosibirska
61 Novosibirsko
110 Novzelanda
20 Novzelandaj
854 Novzelando
36 Novzelandon
25 Nu
16 Nuakŝoto
43 Nubo
36 Nuboj
45 Nuklea
11 Nulo
20 Numero
81 Nun
25 Nuno
75 Nuntempa
29 Nutrado
14 Nutraĵa
27 ODE
14 OK
24 OMON
13 ONA
16 OVA
12 Oazo
12 Obelisko
25 Objektoj
12 Observa
15 Observantoj
14707 Observatorio
20 Observatorioj
84 Observatorion
16 Observejo
21 Oceana
25 Oceania
191 Oceanio
1634 Oceano
12 Oceanografia
41 Oceanoj
114 Oceanon
37 Ocela
78 Oda
11 Ode
15 Odin
66 Odino
93 Odo
16 Odoj
11 Odon
563 Oficejo
31 Oficejon
274 Oficiala
26 Oficialaj
12 Oficialan
24 Oficira
38 Oficiro
11 Oficistoj
88 Ofico
419 Ok
110 Oka
4123 Okcidenta
222 Okcidentaj
63 Okcidentan
35 Okcidente
643 Okcidento
24 Okcidenton
25 Okinava
65 Okinavo
16 Oko
14 Okopo
58 Oksforda
525 Oksfordo
187 Oktobra
363 Oktobro
28 Okulo
20 Okuloj
33 Okulvitra
21 Olda
29 Olea
21 Olimpa
531 Olimpika
106 Olimpikaj
59 Olimpikajn
577 Olimpiko
258 Olimpikoj
25 Olimpikojn
51 Olimpikon
96 Olimpo
16 Olimpon
64 Oliva
38 Olivarba
11 Olive
18 Oliveca
16 Olivo
138 Omano
14 Omaĝo
17 Ombro
20 Ombroj
31 Omega
21 Omo
13 Onda
176 Ondo
194 One
11 Onklino
62 Onklo
33 Ono
252 Opera
37 Operacio
12 Operacioj
457 Operejo
14 Operejon
192 Opero
22 Opia
15 Opozicio
28 Optika
21 Optiko
903 Ora
44 Oraj
11 Orakoloj
186 Oran
42 Oranĝa
47 Oranĝo
17 Orbita
1401 Ordeno
28 Ordenoj
120 Ordenon
46 Ordinara
138 Ordo
19 Ordono
18 Ordonoj
25 Ordu
14 Ore
22 Oreja
115 Oresto
18 Oreston
300 Orfiŝo
14 Orfoj
43 Organiza
14 Organizado
446 Organizaĵo
16 Organizaĵoj
475 Organizo
15 Organizoj
24 Organo
2631 Orienta
259 Orientaj
81 Orientan
126 Oriente
11 Orientis
874 Oriento
25 Orienton
30 Origina
52 Origino
324 Orkestro
42 Orkestron
15 Orla
35 Ornitologia
26 Ornitologio
15 Ornitologoj
152 Oro
51 Oron
15 Orto
416 Ortodoksa
30 Ortodoksaj
12 Ortodoksio
30 Ortodoksismo
301 Oslo
49 Otava
94 Otavo
18 Ovalo
63 Oziriso
12 PAG
15 PGKD
13 PI
42 PIE
816 PIV
176 PK
37 PL
32 PSI
49 PT
78 PV
45 Paca
30 Pace
19 Pacema
804 Pacifika
75 Pacifikaj
46 Pacifikan
1029 Pacifiko
50 Pacifikon
12 Pacifista
604 Paco
12 Pacon
23 Pada
81 Pado
153 Page
14 Pagodo
52 Pakistana
1011 Pakistano
22 Pakistanon
48 Pala
17 Palaca
66 Palace
13 Palaceto
856 Palaco
48 Palacon
15 Pale
28 Paleontologio
79 Palestina
25 Palestinaj
31 Palestinanoj
24 Palestine
746 Palestino
68 Palestinon
133 Palisa
205 Palma
15 Palme
31 Palmo
14 Palmofesto
16 Palmoj
19 Palmon
42 Palo
50 Palos
113 Panama
566 Panamo
19 Panamon
12 Paniko
29 Panjo
31 Pano
41 Panorama
21 Panoramo
81 Panteono
13 Pantero
16 Panteroj
258 Papa
19 Papaj
14 Papilio
37 Papiruso
404 Papo
17 Papoj
16 Papon
48 Papua
42 Papuo
25 Para
18 Parabolo
26 Parade
14 Paradis
116 Paradizo
18 Paradizon
11 Paradokso
30 Paramaribo
16 Paria
421 Pariza
22 Parizaj
16 Parizan
12 Parizanoj
8970 Parizo
271 Parizon
12 Parka
1819 Parko
79 Parkoj
113 Parkon
197 Parlamenta
21 Parlamentaj
14 Parlamentan
37 Parlamentejo
1366 Parlamento
51 Parlamenton
20 Parnasa
72 Parnaso
16 Paro
15 Parola
34 Parolado
20 Parolo
48 Paroĥo
21 Parta
71 Parti
40 Partia
4091 Partio
34 Partioj
195 Partion
13 Partizana
27 Pasejo
24 Paseo
21 Pasio
62 Paska
64 Paskalo
166 Pasko
24 Paskon
66 Paso
214 Pasporta
12 Pasporto
22 Pasto
11 Pastoro
14 Pastra
20 Pastrino
115 Pastro
12 Pastroj
19 Pato
46 Patria
71 Patricia
27 Patricio
27 Patrina
201 Patrino
34 Patrinoj
44 Patrio
98 Patriota
586 Patro
319 Patroj
11 Patrojn
18 Patrolo
25 Patron
40 Patrona
25 Patrono
12 Patruja
58 Patrujo
31 Pavilono
77 Pavo
23 Paĉjo
20 Paĝo
11 Paĝoj
28 Paŝa
12 Paŝo
50 Paŝtisto
27 Paŭla
12 Paŭlaj
2116 Paŭlo
57 Paŭlon
261 Pedagogia
19 Pedagogian
24 Pedagogio
19 Pejzaĝo
11 Pekan
53 Pekina
557 Pekino
24 Pekinon
18 Pela
78 Penda
55 Penso
26 Pensoj
22 Pentagono
12 Pentekosta
63 Pentekosto
18 Pentrado
32 Pentristo
32 Pepe
16 Pepi
17 Pera
65 Perdita
12 Perditaj
50 Pere
11 Pereo
17 Perfekta
13 Perfektiga
34 Peri
135 Periodo
19 Perito
42 Perla
47 Perlo
12 Permanenta
21 Permesilo
41 Pero
368 Persa
21 Persaj
38 Persan
20 Perse
26 Persia
15 Persian
382 Persio
18 Persion
43 Persoj
17 Person
28 Persona
30 Persone
31 Persono
22 Perspektivo
11 Perspektivoj
41 Persujo
104 Perua
1393 Peruo
43 Peruon
17 Perĉo
17 Pesa
76 Pesilo
14 Pesto
97 Pete
69 Peterburga
411 Peterburgo
14 Peterburgon
60 Petite
88 Petra
16 Petre
2247 Petro
12 Petrolo
75 Petron
15 Pezindustria
35 Pezoj
71 Peĉo
56 Pi
98 Pia
18 Pian
16 Piana
19 Pianista
73 Piano
75 Picea
22 Pie
15 Piece
15 Pieco
12 Piedpilka
13 Piga
39 Pigmea
39 Pike
16 Pikniko
52 Piko
21 Pilado
155 Pilato
36 Pilgrimado
12 Pilgrimantoj
20 Piloto
15 Pina
40 Pine
58 Pino
14 Pinoj
19 Pinta
156 Pinto
602 Pio
14 Pion
39 Pioniro
11 Piramida
17 Piramidaj
82 Piramido
25 Piramidoj
18 Piran
20 Pirata
14 Pirate
15 Pirato
67 Piron
27 Piso
14 Pistis
17 Piza
203 Pizo
11 Pjongjanga
170 Pjongjango
133 Place
931 Placo
34 Placon
25 Planado
11 Plane
34 Planeda
16 Planedaj
26 Planedo
51 Planedoj
51 Planlingvoj
125 Plano
14 Planon
34 Planta
11 Plante
49 Plantoj
472 Plata
22 Plataĵo
11 Plate
12 Platforma
102 Platformo
48 Plato
19 Platon
540 Platono
22 Platonon
448 Plej
253 Plena
15 Plenan
35 Plenuma
16 Plenumkomitato
21 Pliaj
20 Plumo
50 Plus
18 Pluvo
90 Po
23 Poa
79 Poe
11 Poema
24 Poemo
44 Poemoj
20 Poeta
14 Poetiko
32 Poeto
23 Poetoj
28 Poezia
64 Poezio
299 Pokalo
63 Pokalon
25 Pokrovskij
2033 Pola
153 Polaj
67 Polan
89 Pole
49 Polica
75 Police
152 Polico
11 Poliglota
40 Polio
161 Politika
94 Politikaj
12 Politikan
102 Politiko
27 Pollanda
6316 Pollando
230 Pollandon
176 Polo
86 Poloj
38 Poltava
35 Poltavo
116 Polujo
58 Polusa
152 Poluso
20 Poluson
24 Poncio
36 Ponta
171 Ponte
551 Ponto
17 Pontoj
14 Ponton
1482 Popola
48 Popolaj
41 Popolan
11 Popolas
207 Popolo
102 Popoloj
70 Populara
188 Pordego
191 Pordo
20 Pordoj
11 Porko
17 Poro
16 Portalo
352 Porto
47 Portoprinco
61 Portreto
171 Portugala
1810 Portugalio
48 Portugalion
15 Portugalo
13 Portugaloj
113 Portugalujo
37 Portus
353 Post
17 Posta
33 Potenco
55 Potencoj
80 Povo
19 Pozitiva
20 Pozitivismo
36 Pozo
69 Poŝta
86 Poŝto
11 Poŝtoficejo
11 Praarbaro
288 Praga
18 Pragaj
33 Pragan
11 Pragano
2506 Prago
89 Pragon
38 Prahistorio
36 Praktika
40 Praktiko
19 Pravigo
15 Predikanto
14 Prediko
12 Prefektejo
18 Prefekto
37 Prefektujo
18 Prelego
16 Prelude
618 Premio
85 Premioj
63 Premiojn
621 Premion
19 Presa
28 Presejo
121 Preskaŭ
14 Preta
18 Pretoria
52 Pretorio
29 Prezidanta
657 Prezidanto
17 Prezidantoj
24 Prezidanton
45 Prezidenta
14 Prezidentaj
626 Prezidento
21 Prezidenton
856 Preĝejo
11 Preĝejoj
22 Preĝejon
46 Preĝo
644 Pri
30 Prima
12 Primitivuloj
167 Primo
37 Princa
117 Prince
147 Princino
19 Principe
69 Principo
44 Principoj
130 Princlando
11 Princlandon
628 Princo
21 Princoj
11 Princon
53 Printempa
114 Printempo
11 Printempoj
26 Priskribo
11 Prisma
32 Prismo
143 Privat
58 Privata
26 Private
12 Privilegio
281 Pro
16 Problemo
35 Problemoj
43 Proceso
28 Procezo
38 Produkto
25 Produktoj
33 Profesia
13 Profesiuloj
197 Profesoro
17 Profesoroj
67 Profeto
51 Profetoj
26 Profilo
28 Profunda
15 Programa
12 Programaro
477 Programo
17 Programon
39 Progresema
37 Progresisma
182 Progreso
14 Projekta
178 Projekto
41 Proklamo
190 Proksima
67 Proleta
42 Promenejo
21 Promesita
17 Promesito
41 Propaganda
45 Propagando
12 Proparolanto
12 Propono
30 Prospero
33 Protektado
50 Protektanto
13 Protektata
25 Protektita
15 Protektitaj
33 Protekto
99 Protektorato
92 Protestanta
19 Protestantaj
35 Protestantismo
15 Protestantoj
12 Protesto
56 Protokolo
12 Proverbaro
38 Providence
91 Providenco
151 Provinca
13 Provincan
29 Province
1957 Provinco
139 Provincoj
31 Provincon
101 Provizora
20 Provizoran
47 Provo
23 Proza
11 Prozo
19 Prudente
92 Prusa
13 Prusoj
41 Psalmaro
54 Psalmo
40 Psalmoj
20 Pt
17 Ptolemea
202 Ptolemeo
339 Publika
61 Publikaj
15 Pugaĉov
68 Pula
12 Pulĉinelo
67 Pumpilo
20 Puna
19 Punktita
45 Punkto
33 Puno
103 Punta
12 Punto
77 Pura
14 Pure
30 Purgatorio
15 Puri
28 Purigo
447 Purpura
28 Pusa
16 Puto
12 Puĉo
166 Puŝkin
14 Puŝkino
15 QWERTY
14 REFON
19 RESPEKTO
61 REU
56 RFC
16 Rabato
14 Rabe
21 Rabeno
11 Rabistoj
69 Racio
57 Rada
20 Radia
105 Radikala
12 Radikoj
1149 Radio
17 Rado
20 Raja
24 Rajda
12 Rajdanto
28 Rajtigita
36 Rajto
376 Rajtoj
12 Raketa
56 Rakonto
69 Rakontoj
37 Ramadano
77 Rana
26 Randa
13 Rando
49 Range
28 Ranguno
30 Rano
24 Rapa
59 Rapida
60 Raporto
15 Raportoj
13 Rare
16 Rasa
17 Rasismo
14 Raso
24 Ravi
16 Ravino
37 Rea
12 Readmona
30 Readmono
105 Reagan
21 Reakcio
27 Reala
14 Reale
28 Realismo
15 Realo
18 Rebeka
11 Receptus
12 Reciproka
17 Recitativo
62 Reforma
14 Reformacia
227 Reformacio
21 Reformacion
14 Reformista
127 Reformita
70 Reformo
30 Rega
38 Regado
18 Reganta
26 Reganto
11 Regata
23 Regenta
26 Regento
91 Regimento
267 Regiona
32 Regionaj
11 Regionan
3069 Regiono
72 Regionoj
93 Regionon
20 Regis
37 Registara
463 Registaro
24 Registaron
16 Registrita
40 Registro
261 Regna
15 Regnaj
18 Regnan
1401 Regno
71 Regnoj
59 Regnon
19 Rego
33 Regula
34 Regularo
88 Regulo
23 Reguloj
14 Regulon
20 Regulus
162 Rejkjaviko
32 Rekonkero
20 Rekonstruo
12 Rekordoj
11 Rekta
25 Rektoro
12 Relativeco
12 Releviĝo
11 Reliefo
30 Religia
25 Religiaj
88 Religio
19 Religioj
40 Religion
19 Rememoroj
26 Remi
76 Remo
25 Remparo
39 Renan
52 Renaskiĝo
17 Renata
22 Renate
99 Renato
21 Rene
28 Renesanca
580 Renesanco
12 Renesancon
146 Renkontiĝo
29 Renkontiĝoj
18 Renkontiĝon
56 Reno
15 Renovigo
26 Reprezentanto
166 Reprezentantoj
14 Resende
12 Respondoj
147 Respublika
192 Respublikana
32 Respublikanoj
7606 Respubliko
37 Respublikoj
266 Respublikon
17 Restadejo
13 Restarigo
24 Restaŭrado
40 Resurekto
134 Reta
77 Retiro
137 Reto
19 Retoriko
58 Revelacio
36 Reveno
11 Revizio
27 Revizora
29 Revo
218 Revolucia
24 Revoluciaj
18 Revolucian
21 Revoluciista
2425 Revolucio
11 Revolucioj
74 Revolucion
105 Revue
574 Revuo
28 Revuon
20 Rezerva
155 Rezervejo
21 Rezervo
44 Rezervujo
11 Rezidejo
69 Rezistado
16 Rezisto
47 Rezolucio
11 Rezolucion
21 Rezultoj
2460 Reĝa
70 Reĝaj
126 Reĝan
115 Reĝimo
57 Reĝina
382 Reĝino
15 Reĝinon
11 Reĝisoro
2449 Reĝlando
25 Reĝlandoj
53 Reĝlandon
927 Reĝo
207 Reĝoj
40 Reĝon
17 Riado
14 Riba
12 Ribe
33 Ribela
249 Ribelo
16 Ribelon
12 Ride
14 Rifo
15 Rifuĝejo
29 Rifuĝintoj
99 Riga
242 Rigo
14 Rikolto
21 Rilate
15 Rilato
109 Rilatoj
13 Rimas
18 Rimedoj
90 Ringo
87 Ringoj
18 Ripa
30 Ripon
23 Ripozo
144 Rita
14 Ritmo
27 Rito
15 Ritoj
318 Rivera
31 Rivereto
1390 Rivero
46 Riveroj
52 Riveron
13 Riza
23 Rize
15 Riĉa
26 Riĉo
23 Roda
11 Rode
25 Rodo
68 Rojo
142 Roka
22 Rokkolombo
114 Roko
36 Rokoj
20 Rokoko
11 Role
677 Roma
29 Romaj
269 Roman
90 Romana
26 Romance
208 Romano
86 Romanoj
14 Romantika
53 Romantikismo
33 Rome
2006 Romia
43 Romiaj
67 Romian
121 Romianoj
422 Romio
214 Romkatolika
4492 Romo
241 Romon
12 Rompita
78 Ronda
15 Ronde
31 Rondeto
20 Rondiro
274 Rondo
34 Rondon
12 Ronĝuloj
626 Rosa
123 Rosas
198 Rose
16 Roso
48 Rota
30 Rote
16 Roterdama
406 Roterdamo
15 Roto
12 Rotondo
19 Rovere
136 Roza
28 Rozario
14 Rozeta
70 Rozo
33 Rozoj
55 Roĝero
12 Roĝeron
18 Ruanda
273 Ruando
14 Rubanda
11 Rubikono
11 Rubikonon
26 Rufa
12 Ruino
25 Ruma
261 Rumana
12 Rumanan
17 Rumania
11 Rumaniaj
6674 Rumanio
57 Rumanion
145 Rumanujo
26 Rumanujon
12 Rumo
790 Rusa
79 Rusaj
19 Rusan
41 Ruse
1411 Rusia
106 Rusiaj
45 Rusian
7220 Rusio
211 Rusion
41 Ruslanda
39 Ruslando
45 Rusoj
31 Rusta
14 Rusuja
250 Rusujo
15 Rusujon
33 Ruta
11 Ruto
11 Ruzante
2293 Ruĝa
87 Ruĝaj
82 Ruĝan
72 Ruĝgorĝa
13 Ruĝgorĝulo
18 Ruĝo
620 SAT
63 SE
38 SEA
135 SES
124 SEU
35 SFERO
20 SGML
102 SI
35 Sabato
15 Sabla
11 Sable
13 Sabra
18 Sacerdota
98 Sagitario
20 Sago
56 Sahara
504 Saharo
23 Saharon
14 Saka
37 Sakaj
19 Sako
74 Sakramento
81 Sala
37 Salado
39 Salas
17 Sale
12 Salejo
37 Salman
15 Salmo
25 Salo
115 Salomonoj
24 Salon
143 Salono
88 Salonta
61 Salta
20 Saltego
69 Salto
48 Saluton
18 Salvadora
349 Salvadoro
27 Salvan
13 Salve
18 Salvia
11 Salvo
81 Samarkando
14 Sami
18 Samo
18 Samoa
120 Samoo
15 Samos
47 Samu
571 Samuel
55 Samuelo
12 Sana
30 Sanao
11 Sanatorio
43 Sandra
36 Sandro
28 Sandviĉa
13 Sanfranciska
69 Sanfrancisko
53 Sanga
49 Sango
21 Sani
12844 Sankta
354 Sanktaj
19 Sanktajn
395 Sanktan
69 Sanktejo
64 Sanktulo
481 Sanktuloj
228 Sano
25 Sanskrita
79 Sanskrito
1024 Santiago
210 Sarajevo
74 Sardinio
17 Sarkadi
27 Sarkis
12 Sarmatoj
12 Satan
99 Satana
32 Satanaj
22 Satanan
370 Satano
34 Satanon
12 Sate
15 Satiro
71 Sato
428 Satu
62 Sava
105 Savanto
53 Save
84 Savinto
96 Savo
18 Savu
71 Saĝa
51 Saĝeco
81 Saĝo
31 Saĝulo
23 Saĝuloj
58 Saĥarov
20 Scenejo
11 Sceptro
3137 Scienca
41 Sciencaj
37 Sciencan
1608 Science
22 Sciencista
17 Sciencistoj
356 Scienco
1087 Sciencoj
16 Sciencula
11 Sciigoj
50 Scio
23 Scipovoj
292 Se
90 Sea
67 Sean
173 Sebastiano
17 Sebastopola
106 Sebastopolo
362 See
19 Sega
225 Sejno
14 Sejnon
124 Sejŝeloj
34 Seka
233 Sekcio
14 Sekcioj
27 Sekcion
181 Seki
19 Seko
78 Sekreta
15 Sekretaj
47 Sekretariejo
15 Sekretariino
471 Sekretario
12 Sekretarion
15 Sekreto
16 Sekretoj
27 Seksa
19 Sekso
35 Seksto
70 Sektoro
99 Sekureca
265 Sekureco
16 Sekva
38 Sekve
54 Selena
79 Seleno
14 Selenon
109 Selo
215 Semajno
13 Semajnon
310 Seminario
42 Seminarioj
31 Seminarion
12 Semo
113 Sen
20 Sena
89 Senata
13 Senatan
50 Senatano
810 Senato
28 Senaton
18 Sendaj
150 Sendependa
102 Sendependaj
12 Sendependan
11 Sendito
34 Senegala
237 Senegalo
79 Senmakula
62 Sennaciulo
13 Senornama
58 Sense
30 Senta
19 Sentenco
22 Sentencoj
14 Sentima
28 Sento
19 Seo
21 Seon
235 Sep
64 Sepa
15 Sepdek
67 Sepjara
378 Septembro
12 Septeto
112 Septuaginto
81 Serba
38 Serbia
1522 Serbio
17 Serbion
18 Serboj
21 Serbujo
223 Serena
14 Serenade
193 Sergio
26 Serie
12 Serifo
99 Serio
23 Serpa
16 Serpenta
131 Serpento
12 Serva
151 Service
36 Servisto
13 Servistoj
563 Servo
45 Servoj
20 Servon
15 Serĉante
17 Serĉo
53 Serĝo
55 Ses
49 Sesa
16 Sese
18 Sesia
42 Sestaga
11 Seula
133 Seulo
95 Severo
24 Sevila
721 Sevilo
17 Sevilon
55 Sezonoj
313 Seĝo
12 Seĝon
23 Sferoj
33 Sfinkso
112 Si
133 Siberia
955 Siberio
63 Siberion
12 Sidanta
68 Side
34 Sidejo
29 Sidi
12 Sido
13 Sidon
21 Sie
59 Sieĝo
37 Sigelo
18 Siglo
22 Sigma
15 Signo
45 Siksta
90 Siksto
32 Silenta
36 Silento
25 Silicia
88 Silka
17 Siluroj
36 Silvestre
69 Silvestro
49 Silvia
98 Silvio
29 Simbolo
76 Simfonia
17 Simfonian
81 Simfonio
13 Simfonion
16 Simile
117 Simone
111 Simono
19 Simonon
28 Simpla
18 Simple
43 Simpozio
30 Sina
106 Sinagogo
25 Sinan
42 Sindikata
90 Sindikato
33 Sindikatoj
20 Singapura
332 Singapuro
21 Singarda
326 Sinjorino
671 Sinjoro
48 Sinjoroj
38 Sinjoron
12 Sireno
89 Siria
858 Sirio
66 Sirion
23 Siriuso
120 Siro
52 Sistema
277 Sistemo
24 Sistemoj
17 Sistemon
25 Situo
43 Sizifo
12 Skala
20 Skalo
16 Skandalo
22 Skandinava
15 Skandinavaj
14 Skandinavia
436 Skandinavio
16 Skandinavion
45 Skandinavujo
35 Skarlata
12 Skemo
11 Skiado
24 Skismo
16 Skitio
12 Skitoj
19 Skizo
11 Skizoj
14 Sklava
11 Skolastiko
373 Skolo
20 Skolon
119 Skolta
16 Skoltismo
24 Skoltoj
13 Skopje
70 Skorpio
214 Skota
19 Skotaj
14 Skotan
186 Skotio
1158 Skotlando
60 Skotlandon
89 Skoto
25 Skotoj
32 Skotujo
24 Skribaĵoj
13 Skribilo
44 Skribo
131 Skriboj
24 Skulptarto
12 Skulptaĵo
66 Skulptisto
60 Slava
13 Slavaj
19 Slave
24 Slavia
32 Slavoj
17 Slavono
281 Slovaka
15 Slovakaj
22 Slovakan
44 Slovakia
7746 Slovakio
47 Slovakion
28 Slovakujo
23 Slovena
903 Slovenio
17 Slovenujo
20 Smeralda
12 Sobre
329 Socia
101 Sociaj
130 Sociala
15 Socialaj
140 Socialdemokrata
11 Socialdemokratan
16 Sociale
525 Socialisma
15 Socialismaj
22 Socialisman
47 Socialismo
542 Socialista
18 Socialistaj
21 Socialistan
17 Socialiste
42 Socialisto
48 Socialistoj
23 Societa
2427 Societo
54 Societoj
143 Societon
204 Socio
11 Sociologia
46 Sociologio
264 Sofia
286 Sofio
11 Soka
83 Sola
34 Soldataro
34 Soldato
33 Soldatoj
24 Sole
20 Soleca
14 Soleco
17 Solena
13 Solidara
198 Solidareco
27 Solo
72 Somalia
538 Somalio
19 Somalion
521 Somera
139 Someraj
11 Somerajn
44 Someran
47 Somero
20 Sona
36 Sonata
11 Sonate
18 Sonetoj
25 Sono
164 Sonora
66 Sonorilo
33 Sonoro
38 Sonĝo
35 Sorbus
26 Sorĉistino
16 Sorĉistinoj
12 Sorĉisto
57 Sovaĝa
26 Sovaĝaj
15 Sovaĝejo
122 Sovetia
57 Sovetiaj
521 Sovetio
21 Sovetion
48 Sovetunia
13 Sovetuniaj
4630 Sovetunio
165 Sovetunion
23 Spaca
225 Space
30 Spaco
131 Speciala
32 Specialaj
181 Specioj
20 Specoj
31 Spegulo
12 Spektaklo
14 Sperto
14 Spice
18 Spico
18 Spike
14 Spiko
80 Spirita
25 Spiritaj
87 Spiritisma
73 Spiritismo
556 Spirito
60 Spiritoj
37 Spiriton
18 Spiro
12 Sporadoj
109 Sporta
44 Sporto
26 Sportoj
18 Stable
60 Stabo
84 Stacidomo
1812 Stacio
26 Stadio
14 Stadion
111 Stadiono
60 Stafeto
463 Stalin
23 Stalina
16 Stalinismo
155 Stalino
17 Stalinon
60 Standardo
24 Stano
49 Stara
21 Stare
23 Stari
12 Starosto
20 Starto
14 Stata
261 State
17 Stati
77 Statistika
179 Statistiko
107 Stato
53 Statoj
70 Statuo
19 Status
12 Statuso
87 Statuto
12 Statuton
17 Stefana
1098 Stefano
53 Stefanon
42 Stela
27 Stelaj
17 Stelaro
12 Steleo
509 Stelo
78 Steloj
13 Stelon
52 Stenografio
15 Stepa
69 Stepan
27 Stepo
63 Sterna
21 Sterne
38 Stilo
16 Stipa
13 Stipe
13 Stoikismo
15 Stoke
41 Stokholma
608 Stokholmo
41 Stop
21 Strabo
13 Stranga
16 Strange
12 Strata
11 Stratan
13 Strategia
518 Strato
22 Stratoj
12 Straton
24 Stria
19 Striko
11 Strio
18 Strukturo
50 Struto
27 Studado
13 Studantoj
125 Studenta
61 Studentoj
32 Studi
50 Studia
183 Studio
11 Studioj
42 Studo
230 Studoj
18 Sturmo
11 Sturno
110 Sub
385 Suba
25 Subfamilio
18 Subjekto
37 Subministro
17 Subteno
227 Subtera
13 Subŝtata
5049 Suda
178 Sudaj
86 Sudan
41 Sudana
742 Sudano
20 Sudanon
218 Sudo
14 Sudslava
19 Sukcena
17 Sukro
58 Sultano
24 Suma
16 Sumo
78 Suna
25 Sunao
875 Suno
70 Sunon
39 Suomio
29 Suomujo
126 Super
927 Supera
31 Superaj
41 Superan
34 Superrealismo
15 Superrealista
12 Superrealistoj
45 Superulo
32 Suplemento
2560 Supra
19 Supraj
47 Supran
633 Sur
32 Sura
11 Surduloj
270 Surinamo
16 Svahila
66 Svazilando
378 Sveda
18 Svedaj
20 Svedan
2275 Svedio
47 Svedion
26 Svedoj
184 Svedujo
1428 Svisa
653 Svisaj
32 Svisan
527 Svisio
30 Svision
23 Svislanda
6075 Svislando
89 Svislandon
11 Svisoj
401 Svisujo
28 TAGE
817 TEJO
40 TEKA
13 TEO
21 TEĴA
39 TG
13 TIME
64 TTT
20 Tabelo
18 Table
43 Tablo
21 Tabula
42 Tabulo
102 Taga
24 Tage
34 Tagiĝo
52 Taglibro
12 Tagmanĝo
639 Tago
386 Tagoj
14 Tagojn
63 Tagon
14 Taja
13 Tajlanda
639 Tajlando
14 Tajlandon
95 Tajo
44 Tajpeo
27 Tajvana
553 Tajvano
20 Tajvanon
16 Taksonomio
13 Talina
133 Talino
17 Talio
112 Talmudo
12 Talmudoj
15 Talmudon
114 Tamen
68 Tan
13 Tanato
23 Tanga
47 Tango
11 Tani
23 Tanzania
782 Tanzanio
12 Tatara
22 Tatario
22 Tataroj
29 Tatiana
34 Tavola
20 Taĉmento
16 Taĉmentoj
21 Taĝika
223 Taĝikio
76 Taŝkento
20 Taŭ
34 Tea
43 Teamo
105 Teatra
38 Teatran
2241 Teatro
67 Teatron
12 Tegmento
15 Tegucigalpa
13 Tegucigalpo
92 Teherano
66 Teksasa
1036 Teksaso
16 Teksason
35 Teksaĵo
33 Teksto
33 Tekstoj
35 Tektonika
16 Telefono
22 Telegrafa
13 Telekomunika
14 Telekomunikado
118 Teleskopo
26 Televida
212 Televido
36 Temas
20 Tempe
22 Tempesto
31 Templa
70 Temple
532 Templo
12 Temploj
51 Templon
272 Tempo
27 Tempoj
380 Tendaro
11 Tenero
39 Tenisa
48 Teo
36 Teodora
228 Teodoro
13 Teodoron
80 Teologia
158 Teologio
23 Teoremo
46 Teoria
146 Teorio
19 Teorion
40 Teozofia
124 Tera
11 Teraj
233 Tereza
26 Teritoria
263 Teritorio
152 Teritorioj
12 Teritorion
32 Terkolo
92 Terme
35 Terminaro
23 Terminologia
20 Terminologio
24 Terni
18 Terno
2506 Tero
70 Teroj
224 Teron
40 Teroro
43 Tertremo
104 Tertuliano
89 Terura
13 Teruro
128 Tesaloniko
21 Testa
979 Testamento
33 Testamentoj
57 Testamenton
13 Testo
21 Tetrao
12 Tezoj
35 Teĥnika
30 Tia
60 Tial
40 Tian
214 Tiberio
172 Tibeta
14 Tibetan
489 Tibeto
35 Tibeton
125 Tiel
14 Tiele
14 Tien
13 Tifliso
18 Tigra
13 Tigran
32 Tigre
35 Tigro
19 Tigroj
12 Tiko
21 Tilia
13 Timbuo
220 Time
26 Timo
11 Timon
20 Timone
13 Timono
39 Tinto
70 Tipo
14 Tirana
82 Tirano
26 Tirboji
37 Tirinto
116 Tiro
40 Tirola
390 Tirolo
20 Tirolon
12 Tiron
410 Tiu
16 Tjurka
113 Togo
99 Tokia
1208 Tokio
21 Tokion
38 Toleda
2179 Toledo
21 Toledon
13 Toleremo
231 Tolstoj
305 Tombejo
131 Tombo
23 Tomska
35 Tone
26 Tonga
75 Tongo
21 Tono
15 Tora
177 Torao
24 Toraon
132 Torda
16 Torento
15 Tornado
159 Toro
13 Totala
85 Tra
19 Tradicia
13 Tradiciaj
53 Tradicio
12 Tradukado
13 Tradukisto
13 Tradukistoj
38 Traduko
11 Trafika
17 Trafiko
34 Tragedio
14 Tragika
12 Trajno
12 Trakoj
27 Traktado
4315 Traktato
40 Traktatoj
106 Traktaton
34 Traktaĵo
12 Tramo
48 Tramvojo
50 Trans
18 Transfiguriĝo
22 Transformo
50 Transira
13 Transiraj
18 Transiro
17 Transmara
108 Transmeta
38 Transporta
92 Transporto
19 Transportoj
29 Transskribado
14 Tranĉeo
26 Tranĉo
11 Trapasejo
43 Tree
15 Trejnado
11 Trezorejo
57 Trezoro
16 Trezoroj
419 Tri
872 Tria
43 Trian
141 Triangulo
16 Triaso
16 Tribe
16 Tribo
15 Tribuna
247 Tribunalo
11 Tribunalon
48 Tribune
24 Tridek
21 Trikolora
15 Trilingva
19 Trilogio
107 Trio
19 Triobla
44 Triopa
31 Triopo
88 Tripolo
228 Tristan
38 Triumfa
20 Triumfo
17 Triumfonta
18 Triunua
484 Triunuo
36 Triunuon
19 Troglodito
32 Trois
336 Troja
739 Trojan
717 Trojanoj
328 Trojo
48 Trojon
17 Trono
38 Tropika
48 Tropikaj
31 Tropiko
23 Tropikoj
12 Trotuaro
31 True
52 Truman
25 Truo
16 Truoj
34 Trupo
18 Trupoj
129 Tula
11 Tule
14 Tulipa
12 Tulono
22 Tumulto
15 Tundra
11 Tune
31 Tunelo
20 Tuniko
40 Tura
15 Turan
152 Turda
19 Ture
16 Turfalko
44 Turgenev
124 Turing
75 Turisma
153 Turismo
20 Turista
207 Turka
2085 Turkio
82 Turkion
26 Turkmena
218 Turkmenio
19 Turkmenujo
120 Turkoj
128 Turkujo
25 Turniro
15 Turniron
82 Turniĝo
19 Turno
28 Turnu
536 Turo
39 Turoj
30 Turon
15 Turto
13 Tuso
187 Tutlanda
18 Tutlandan
500 Tutmonda
34 Tutmondaj
19 Tutmondan
26 Tutmonde
60 Tuvalo
3207 UEA
1235 UK
39 UM
586 UN
505 UNESKO
43 UNITA
19 URA
37 URL
277 USD
13 Uagaduguo
26 Udmurtio
28 Uganda
422 Ugando
13 Ulma
13 Ultimate
28 Um
20 Uma
846 Unesko
77 Unia
17 Unika
26 Unikoda
121 Unikodo
20 Unikodon
20 Uniksa
18 Uniksaj
74 Unikso
2845 Unio
757 Union
1737 Universala
162 Universalaj
53 Universalajn
140 Universalan
11 Universalismo
22 Universe
297 Universitata
29 Universitataj
13777 Universitato
140 Universitatoj
221 Universitaton
176 Universo
2857 Unua
50 Unuaj
137 Unuan
45 Unueca
95 Unueco
12 Unuiga
50 Unuigita
15 Unuigo
731 Unuiĝinta
1420 Unuiĝintaj
22 Unuiĝintajn
24 Unuiĝintan
697 Unuiĝo
34 Unuiĝon
20 Unukolora
71 Unukornulo
78 Unuo
57 Unuoj
11 Unurela
61 Uragano
56 Urala
284 Uralo
13 Uraloj
763 Urba
33 Urbaj
78 Urban
19 Urbana
131 Urbano
133 Urbestro
12 Urbetoj
1046 Urbo
282 Urbodomo
142 Urboj
41 Urbon
17 Urogalo
28 Ursa
503 Ursino
91 Urso
11 Urson
2121 Usona
174 Usonaj
70 Usonan
15 Usonano
33 Usonanoj
22817 Usono
545 Usonon
15 Utileco
16 Utopia
21 Utopio
11 Uzante
33 Uzbeka
318 Uzbekio
13 Uzbekujo
21 Uzino
12 Uzinoj
14 Uzon
199 VD
21 VEA
170 VI
21 VIA
111 VII
79 VIII
13 VIVA
23 Vado
14 Vadu
18 Vaduzo
37 Vagabondo
18 Vaka
14 Vala
54 Vale
23 Valente
22 Valento
14 Valeto
1441 Valo
49 Valoj
44 Valon
11 Valori
12 Valso
15 Vanda
21 Vandaloj
12 Vane
132 Vanuatuo
20 Vara
37 Varia
15 Variable
23 Varma
479 Varsovia
24 Varsovian
1926 Varsovio
41 Varsovion
17 Varto
343 Vatikano
68 Vaŝingtona
25 Vaŝingtonia
599 Vaŝingtonio
639 Vaŝingtono
13 Vaŝingtonon
15 Vd
43 Ve
12 Vegetara
24 Vegetarana
17 Vegetarano
19 Vekiĝo
38 Vela
17 Velada
46 Velaro
17 Velingtono
11 Venado
30 Vendredo
186 Venecia
12 Veneciaj
11 Venecian
1164 Venecio
43 Venecion
87 Venezuela
1254 Venezuelo
18 Venezuelon
18 Veni
88 Venko
14 Venkoj
31 Venta
35 Ventas
14 Ventego
76 Vento
16 Venu
55 Venus
344 Vera
65 Verbo
963 Verda
55 Verdaj
24 Verdan
87 Verde
248 Verdi
338 Verduloj
27 Vere
155 Vergilio
38 Verkaro
70 Verkista
92 Verkistoj
48 Verko
40 Verkoj
114 Vero
14 Version
22 Versoj
74 Verve
12 Vespa
20 Vespera
55 Vespermanĝo
14 Vespermanĝon
37 Vespero
12 Vesperoj
11 Vesperto
138 Vesta
12 Veterana
14 Veterinara
15 Veturilo
14 Vetus
22 Veziro
246 Vi
278 Via
18 Viadukto
17 Viaj
41 Vian
44 Vicgrafo
49 Vico
16 Vicprezidantino
88 Vicprezidanto
32 Vicprezidento
15 Vicreĝo
77 Vida
12 Vidaj
35 Video
36 Vido
166 Vidu
44 Vie
749 Viena
58 Vienaj
33 Vienan
5709 Vieno
167 Vienon
19 Vikario
18 Vikinga
44 Vikingoj
44 Viktimoj
270 Viktoria
16 Viktorian
14 Viktoriana
273 Viktorio
165 Viktoro
102 Vila
102 Vilao
16 Vilaĝa
196 Vilaĝo
38 Vilaĝoj
23 Vilhelmina
1163 Vilhelmo
54 Vilhelmon
98 Vilna
486 Vilno
15 Vilnon
38 Vin
14 Vindhuko
214 Vindozo
12 Vinko
20 Vino
267 Vintra
90 Vintraj
19 Vintran
16 Vintro
69 Viola
42 Vira
20 Virga
15 Virgulina
714 Virgulino
38 Virgulinon
230 Virina
105 Virino
121 Virinoj
76 Viro
21 Virto
20 Virtuala
50 Viva
13 Vivanta
23 Vivanto
26 Vive
33 Vivi
411 Vivo
26 Vivoj
46 Vivu
20 Vizaĝo
17 Vizi
11 Vizio
55 Vizito
38 Vjentiano
195 Vjetnama
18 Vjetnaman
720 Vjetnamio
24 Vjetnamion
96 Vjetnamo
71 Vjetnamujo
49 Vladimira
104 Vladimiro
21 Vladivostoko
113 Vojaĝo
26 Vojaĝoj
663 Vojo
39 Vojoj
32 Vojon
18 Voko
12 Vola
28 Volapuka
258 Volapuko
44 Volapukon
44 Volga
15 Volgia
33 Volgio
335 Volgo
68 Volo
19 Volontula
19 Volontuloj
79 Volta
13 Volto
31 Volume
11 Volumo
72 Volvo
15 Vorota
644 Vortaro
17 Vortaroj
36 Vortaron
12 Vortfarado
124 Vorto
50 Vortoj
159 Voĉo
18 Voĉoj
11 Vulgara
15 Vulgata
92 Vulgato
30 Vulkana
48 Vulkano
56 Vulpo
113 Vundebla
96 Waringhien
40 Wennergren
120 Windows
33 Word
55 XI
52 XII
43 XIII
55 XIV
54 XIX
77 XML
45 XV
41 XVI
26 XVII
29 XVIII
80 XX
21 ZAMENHOF
42 Zagreba
392 Zagrebo
16 Zaire
16 Zairo
11 Zambia
331 Zambio
1343 Zamenhof
108 Zamenhofa
16 Zamenhofaj
19 Zamenhofan
36 Zamenhofo
28 Zefiro
74 Zelando
16 Zeta
31 Zeto
14 Zimbabva
332 Zimbabvo
53 Zodiako
13 Zoe
37 Zona
25 Zone
199 Zono
15 Zonoj
20 Zonon
129 Zoo
96 Zoologia
39 Zoologio
259 Zorgiga
22 Zorgo
66 abako
42 abakoj
15 abakon
19 abata
77 abateja
1305 abatejo
66 abatejoj
24 abatejojn
232 abatejon
196 abatino
31 abatinoj
12 abatinon
807 abato
88 abatoj
41 abaton
96 abdiki
354 abdikis
154 abdiko
38 abdikon
39 abdomena
17 abdomenaj
77 abdomeno
16 abdomenon
35 abela
58 abelo
217 abeloj
51 abelojn
57 abelujo
21 abelujoj
134 abio
63 abioj
15 abion
141 abismo
25 abismoj
41 abismon
111 abiturienta
85 abiturientan
45 abituriento
16 abiturientoj
43 abiturienton
28 ablativo
28 aboco
13 abocon
21 aboli
55 abolis
38 abolita
57 abolo
20 abolon
27 abomena
13 abomenas
13 abomenaĵoj
28 abomeninda
12 abomenindaj
23 abomenis
19 abomeno
17 abonanto
99 abonantoj
31 abonantojn
28 aboni
14 abonis
30 abono
15 abonoj
27 aborigena
27 aborigenaj
65 aborigenoj
37 abortigo
12 abortis
119 aborto
16 abortoj
38 aborton
16 abrikoto
17 abrikotoj
117 abrupta
44 abruptaj
14 abruptan
263 abrupte
12 absceso
19 abscisa
26 absinto
749 absoluta
74 absolutaj
13 absolutajn
258 absolutan
344 absolute
43 absolutisma
12 absolutismaj
60 absolutismo
18 absolutismon
16 absoluto
12 absorbado
62 absorbas
56 absorbi
37 absorbis
51 absorbita
18 absorbitaj
17 absorbiĝas
45 absorbo
15 abstinado
28 abstino
279 abstrakta
27 abstraktado
132 abstraktaj
34 abstraktajn
36 abstraktan
11 abstraktaĵo
21 abstraktaĵoj
18 abstrakte
80 absurda
32 absurdaj
12 absurdaĵo
15 absurde
12 absurdeco
30 absurdo
619 abunda
324 abundaj
56 abundajn
119 abundan
394 abundas
347 abunde
96 abundeco
15 abundecon
73 abundis
311 abundo
85 abundon
37 abĥaza
19 abĥazoj
12 acera
79 acero
47 aceroj
12 aceron
263 acida
122 acidaj
30 acidajn
43 acidan
22 acide
55 acideco
11 acidecon
11 acidkremo
2278 acido
286 acidoj
42 acidojn
208 acidon
97 adaptado
19 adaptadon
25 adaptante
27 adaptas
40 adaptata
38 adaptataj
58 adaptaĵo
35 adaptaĵoj
17 adaptaĵojn
13 adaptaĵon
26 adaptebla
16 adapteblaj
158 adapti
198 adaptis
437 adaptita
225 adaptitaj
26 adaptitajn
32 adaptitan
87 adaptiĝas
22 adaptiĝema
117 adaptiĝi
210 adaptiĝis
109 adaptiĝo
30 adaptiĝoj
14 adaptiĝon
284 adapto
81 adaptoj
28 adaptojn
40 adapton
106 adekvata
45 adekvataj
18 adekvatajn
43 adekvatan
58 adekvate
222 adepto
282 adeptoj
61 adeptojn
18 adiaŭ
38 adiaŭa
17 adiaŭan
15 adiaŭas
33 adiaŭi
58 adiaŭis
48 adiaŭo
20 adicia
30 adicias
33 adicii
17 adiciis
11 adiciita
106 adicio
14 adicioj
29 adjektiva
12 adjektivaj
261 adjektivo
193 adjektivoj
22 adjektivojn
39 adjektivon
34 adjutanto
7125 administra
231 administracia
95 administraciaj
28 administraciajn
34 administracian
293 administracie
637 administracio
59 administracioj
75 administracion
34 administrada
12 administradan
1348 administrado
16 administradoj
308 administradon
786 administraj
189 administrajn
239 administran
21 administranta
13 administrante
382 administranto
126 administrantoj
13 administrantojn
22 administranton
276 administras
329 administrata
97 administrataj
955 administre
317 administrejo
38 administrejoj
25 administrejon
159 administri
253 administris
38 administristo
19 administristoj
132 administrita
42 administritaj
57 administro
198 admiralo
11 admiraloj
16 admiralon
79 admiranto
82 admirantoj
16 admirantojn
47 admiras
63 admirata
27 admirataj
32 admireblas
92 admiri
37 admirinda
18 admirindaj
171 admiris
34 admirita
12 admiritaj
86 admiro
77 admiron
35 admonas
14 admoni
54 admonis
37 admono
17 admonoj
13 admonon
34 adoleska
34 adoleskaj
11 adoleskanta
16 adoleskantaj
45 adoleskanto
99 adoleskantoj
39 adolesko
26 adolta
24 adoltaj
42 adopta
39 adoptado
15 adoptaj
31 adoptante
11 adoptantoj
94 adoptas
29 adoptata
120 adopti
682 adoptis
640 adoptita
82 adoptitaj
26 adoptiĝis
119 adopto
39 adopton
11 adoptos
12 adoptu
143 adorado
31 adoradon
14 adoranto
43 adorantoj
88 adoras
116 adorata
31 adorataj
27 adorejo
57 adori
12 adorinda
117 adoris
31 adorita
72 adoro
30 adoron
56 adresaro
11 adresaroj
16 adresaron
19 adresas
17 adresi
40 adresis
113 adresita
44 adresitaj
11 adresitan
317 adreso
134 adresoj
72 adresojn
87 adreson
25 adulta
53 adulto
16 adultoj
17 adventismo
31 adverbo
77 adverboj
13 adverbojn
34 advokata
69 advokatan
35 advokatino
1215 advokato
121 advokatoj
23 advokaton
284 aera
108 aeraj
30 aerajn
50 aeran
87 aere
12 aerlinioj
1619 aero
15 aeroj
351 aeron
33 aeroplano
15 aeroplanoj
12 aeroplanon
23 aerponto
17 aerpumpilo
30 aerumado
11 aerumi
71 aerŝipo
34 aerŝipoj
126 afabla
27 afablaj
14 afablan
52 afable
30 afableco
14 afekcias
40 afekcio
27 afekcioj
23 afektas
12 afekti
25 afektis
21 afektita
13 afera
31 aferisto
1889 afero
3199 aferoj
629 aferojn
491 aferon
50 afgana
31 afganaj
19 afganoj
48 afikso
98 afiksoj
19 afiksojn
60 afina
14 afinaj
44 afineco
19 afinecon
11 afiŝas
11 afiŝi
12 afiŝis
72 afiŝo
147 afiŝoj
70 afiŝojn
24 afiŝon
11 afliktis
20 afliktita
38 aflikto
15 afliktoj
13 aflikton
44 aforismoj
11 afranko
11 afrikana
15 afrikanaj
14 afrikano
135 afrikanoj
13 afrikanojn
18 aga
17 agada
259 agadas
185 agadi
927 agadis
3908 agado
919 agadoj
282 agadojn
1170 agadon
135 aganta
75 agantaj
20 agantan
69 agante
242 aganto
136 agantoj
18 agantojn
614 agas
16 agato
34 age
49 agema
28 agemaj
295 agentejo
124 agentejoj
29 agentejon
293 agento
212 agentoj
27 agentojn
21 agenton
367 agi
17 aginta
519 agis
73 agitado
19 agitadon
12 agitanto
11 agitas
16 agiti
28 agitis
18 agitita
13 agitiĝo
26 agla
12 aglaj
660 aglo
311 agloj
50 aglojn
81 aglon
53 aglutina
12 aglutinaj
35 agnoskado
16 agnoskadon
40 agnoskante
518 agnoskas
309 agnoskata
132 agnoskataj
237 agnoski
779 agnoskis
731 agnoskita
266 agnoskitaj
39 agnoskitajn
20 agnoskitan
12 agnoskite
264 agnosko
261 agnoskon
11 agnoskos
34 agnosku
1242 ago
880 agoj
366 agojn
297 agon
23 agonio
36 agordado
43 agordas
27 agordata
11 agordataj
43 agordi
11 agordilo
18 agordis
52 agordita
58 agorditaj
13 agordiĝas
193 agordo
90 agordoj
19 agordojn
54 agordon
24 agos
58 agra
241 agrabla
50 agrablaj
18 agrablajn
97 agrablan
62 agrable
146 agrara
62 agraraj
13 agrarajn
41 agraran
23 agresa
11 agresaj
15 agrese
137 agresema
116 agresemaj
21 agreseman
88 agreseme
57 agresemo
21 agresemon
87 agreso
22 agresoj
16 agreson
93 agro
227 agroj
33 agrojn
49 agrokultura
22 agrokulturaj
13 agrokulturistoj
154 agrokulturo
18 agrokulturon
35 agron
19 agronomia
38 agronomio
172 agronomo
38 agu
26 agus
101 aidoso
42 ajgeno
65 ajgenoj
15 ajla
146 ajlo
15 ajloj
18 ajlon
4399 ajn
776 ajna
113 ajnaj
39 ajnajn
286 ajnan
13 ajne
16 ajuto
64 akacio
66 akacioj
457 akademia
152 akademiaj
65 akademiajn
111 akademian
216 akademiano
93 akademianoj
22 akademie
1264 akademio
146 akademioj
16 akademiojn
235 akademion
18 akapari
15 akaparis
35 akaroj
31 akcela
21 akcelado
11 akcelaj
12 akcelante
63 akcelas
89 akceli
23 akcelilo
24 akceliloj
108 akcelis
26 akcelita
110 akcelo
30 akcelon
20 akcenta
49 akcentado
19 akcentante
129 akcentas
27 akcentata
14 akcentataj
44 akcenti
88 akcentis
30 akcentita
14 akcentitaj
183 akcento
49 akcentoj
22 akcentojn
83 akcenton
26 akcepta
97 akceptado
24 akceptadon
20 akceptanta
11 akceptantaj
83 akceptante
824 akceptas
331 akceptata
102 akceptataj
137 akceptebla
51 akcepteblaj
11 akcepteblajn
20 akcepteblan
13 akcepteblas
33 akceptejo
25 akceptema
12 akceptemo
921 akcepti
41 akceptigi
18 akceptigis
19 akceptinta
2583 akceptis
1222 akceptita
338 akceptitaj
18 akceptitajn
25 akceptitan
25 akceptite
22 akceptiĝas
13 akceptiĝi
116 akceptiĝis
20 akceptiĝo
503 akcepto
28 akceptoj
217 akcepton
45 akceptos
82 akceptu
47 akceptus
52 akcesora
38 akcesoraj
11 akcesorajn
15 akcesoran
15 akcesoraĵo
36 akcesoraĵoj
15 akcesoraĵojn
177 akcia
34 akciaj
25 akcian
70 akcidenta
16 akcidentaj
106 akcidente
743 akcidento
140 akcidentoj
31 akcidentojn
100 akcidenton
40 akcio
180 akcioj
59 akciojn
16 akcipitra
268 akcipitro
165 akcipitroj
29 akcipitrojn
16 akciulo
42 akciuloj
21 akiradis
90 akirado
12 akiradon
14 akiranta
147 akirante
582 akiras
18 akirata
15 akiraĵo
21 akiraĵoj
11 akiraĵojn
53 akirebla
43 akireblaj
23 akireblas
1543 akiri
14 akirigis
63 akirinta
32 akirinte
7217 akiris
443 akirita
191 akiritaj
53 akiritajn
38 akiritan
400 akiro
27 akiroj
59 akiron
50 akiros
59 akiru
12 akirus
14 aklamis
41 aklamita
19 akomodi
96 akompana
11 akompanadis
77 akompanado
14 akompanadon
44 akompanaj
18 akompanajn
16 akompanan
44 akompananta
34 akompanantaj
31 akompanante
88 akompananto
62 akompanantoj
277 akompanas
389 akompanata
111 akompanataj
94 akompanate
22 akompanaĵo
58 akompane
177 akompani
847 akompanis
85 akompanita
24 akompanitaj
222 akompano
36 akompanon
14 akompanos
11 akompanu
24 akorda
18 akordaj
74 akordas
43 akorde
14 akordigas
17 akordigebla
22 akordigeblaj
68 akordigi
19 akordigis
16 akordigo
29 akordis
44 akordiĝas
24 akordiĝi
28 akordiĝis
15 akordiĝo
416 akordo
237 akordoj
72 akordojn
169 akordon
787 akra
396 akraj
159 akrajn
237 akran
65 akrapinta
13 akrapintaj
13 akraĵo
11 akraĵoj
470 akre
39 akreco
17 akrecon
13 akreo
83 akreoj
40 akreojn
12 akrido
86 akridoj
28 akridojn
11 akrigas
11 akrigi
25 akrigis
88 akriĝis
21 akrobata
18 akrobataj
13 akrobatan
11 akrobate
39 aksa
29 aksaj
13 aksan
15 akselaj
15 akselo
34 akseloj
30 aksioma
201 aksiomo
138 aksiomoj
27 aksiomojn
49 aksiomon
746 akso
186 aksoj
26 aksojn
79 akson
12 aktisto
2165 aktiva
65 aktivadas
39 aktivadis
425 aktivado
63 aktivadoj
18 aktivadojn
117 aktivadon
715 aktivaj
95 aktivajn
262 aktivan
11 aktivanta
557 aktivas
40 aktivaĵo
215 aktivaĵoj
77 aktivaĵojn
1034 aktive
804 aktiveco
232 aktivecon
87 aktivi
11 aktiviga
48 aktivigas
51 aktivigi
31 aktivigis
23 aktivigita
25 aktivigitaj
32 aktivigo
1365 aktivis
88 aktivismo
32 aktiviĝas
90 aktiviĝis
14 aktiviĝo
37 aktivo
18 aktivoj
14 aktivula
83 aktivulino
521 aktivulo
457 aktivuloj
40 aktivulojn
505 akto
294 aktoj
78 aktojn
68 akton
223 aktora
15 aktorada
12 aktoradan
19 aktoradi
75 aktoradis
195 aktorado
144 aktoradon
35 aktoraj
19 aktorajn
422 aktoran
41 aktoras
37 aktore
53 aktori
13 aktorina
2404 aktorino
78 aktorinoj
50 aktorinon
327 aktoris
3294 aktoro
900 aktoroj
84 aktorojn
85 aktoron
1099 aktuala
329 aktualaj
78 aktualajn
152 aktualan
12 aktualas
63 aktualaĵoj
28 aktualaĵojn
517 aktuale
35 aktualeco
17 aktualecon
12 aktualigi
106 aktualo
61 akumulado
35 akumulas
23 akumuli
17 akumulilo
24 akumulis
31 akumulita
17 akumulitaj
61 akumuliĝas
11 akumuliĝi
26 akumuliĝo
13 akumuliĝon
27 akumulo
99 akurata
46 akurataj
17 akuratajn
27 akuratan
232 akurate
43 akurateco
137 akustika
67 akustikaj
22 akustikajn
32 akustikan
21 akustike
69 akustiko
14 akustikon
118 akuta
34 akutaj
29 akutan
14 akute
48 akuzante
20 akuzanto
20 akuzantoj
126 akuzas
37 akuzata
18 akuzataj
17 akuzativa
107 akuzativo
41 akuzativon
54 akuzi
557 akuzis
16 akuzisto
424 akuzita
130 akuzitaj
14 akuzitajn
40 akuzito
86 akuzitoj
13 akuzitojn
284 akuzo
359 akuzoj
103 akuzojn
89 akuzon
13 akuŝado
18 akuŝejo
17 akuŝis
24 akuŝistino
17 akuŝistinoj
32 akuŝisto
59 akuŝo
850 akva
11 akvaforto
17 akvafortoj
452 akvaj
187 akvajn
83 akvan
35 akvarelo
43 akvareloj
22 akvarelojn
49 akvario
36 akvarioj
18 akve
14 akveca
7471 akvo
14 akvobaraĵa
279 akvobaraĵo
66 akvobaraĵoj
15 akvobaraĵojn
22 akvobaraĵon
163 akvodislimo
19 akvodislimon
33 akvodukto
13 akvoduktoj
16 akvodukton
414 akvofalo
246 akvofaloj
27 akvofalojn
67 akvofalon
1096 akvoj
184 akvojn
37 akvokondukilo
15 akvokondukilon
13 akvomelono
12 akvomelonoj
1799 akvon
30 akvorado
19 akvoradoj
19 akvorezista
11 akvorezistaj
49 akvoturo
89 akvujo
45 akvujoj
15 akvujon
60 akvumado
16 akvumadon
17 akvumas
30 akvumi
23 akvumita
14 akvumitaj
346034 al
20 ala
23 alabastro
17 alaj
19 alarma
15 alarmi
24 alarmis
15 alarmita
69 alarmo
20 alarmon
59 alaŭdo
42 alaŭdoj
218 albana
42 albanaj
15 albanan
29 albane
101 albanoj
23 albinismo
22 albordiĝas
13 albordiĝejo
19 albordiĝi
136 albordiĝis
39 albordiĝo
20 albuma
1846 albumo
398 albumoj
231 albumojn
575 albumon
84 alciono
58 alcionoj
19 alcionon
21 alda
108 aldo
436 aldona
42 aldonado
326 aldonaj
146 aldonajn
166 aldonan
159 aldonante
642 aldonas
64 aldonata
52 aldonataj
882 aldone
18 aldonendas
475 aldoni
13 aldoninte
846 aldonis
1019 aldonita
279 aldonitaj
13 aldonitan
343 aldoniĝas
13 aldoniĝi
588 aldoniĝis
805 aldono
137 aldonoj
27 aldonojn
89 aldonon
16 aldonos
85 aldonu
30 ale
68 alegoria
39 alegoriaj
12 alegoriajn
15 alegorian
28 alegorie
68 alegorio
37 alegorioj
17 alegoriojn
24 alegorion
71 aleo
37 aleoj
17 alergia
14 alergiaj
11 alergiajn
21 alergio
16 alergioj
17 alergion
102 alfa
161 alfabeta
24 alfabetaj
17 alfabetan
55 alfabete
1549 alfabeto
629 alfabetoj
31 alfabetojn
339 alfabeton
11 alfaron
11 alfiksi
36 alfiksita
24 alfiksitaj
12 alfikso
18 alflua
11 alfluaj
39 alfluanta
14 alfluantaj
958 alfluanto
278 alfluantoj
32 alfluantojn
23 alfluanton
815 alfluas
18 alflugas
24 alflugis
27 alflui
25 alfluis
277 alfluo
44 alfluoj
22 alfluon
38 alfo
17 alfrontante
83 alfrontas
185 alfronti
175 alfrontis
17 alfrontita
12 alfrontitaj
14 alfronto
208 algebra
105 algebraj
20 algebrajn
32 algebre
318 algebro
15 algebroj
27 algebron
12 algluas
20 algluita
17 algluitaj
15 algluiĝas
47 algo
320 algoj
62 algojn
13609 alia
45826 aliaj
5875 aliajn
3054 alian
74 alianca
84 aliancaj
11 aliancajn
13 aliancan
24 aliancana
67 aliancanaj
169 aliancano
577 aliancanoj
58 aliancanojn
23 aliancanon
46 aliancis
46 aliancita
65 aliancitaj
25 aliancito
55 aliancitoj
640 alianco
78 aliancoj
40 aliancojn
244 aliancon
27 alias
13 aliaĵoj
18 alidire
17 alidirekta
3754 alie
14 aliflanka
1369 aliflanke
57 alifoje
62 aliformiga
23 aliformigis
25 aliformigo
19 aliformiĝas
11 aliformiĝi
49 aliformiĝis
18 aliformiĝo
29 aligas
26 aligatoro
15 aligatoroj
46 aligi
226 aligis
329 aligita
85 aligitaj
74 aligo
16 aligon
13 aliigas
22 aliigi
12 aliigis
22 aliigita
12 aliigitaj
31 aliigo
21 aliiĝis
27 alikonstruado
23 alikonstruata
23 alikonstrui
69 alikonstruis
161 alikonstruita
14 alikonstruitaj
89 alikonstruo
39 alikonstruoj
18 alikonstruon
20 alilanda
177 alilandaj
22 alilandajn
42 alilandanoj
40 alilande
15 alilingva
87 alilingvaj
12 alilingvajn
12 alilingvanoj
21 alilingve
514 aliloke
36 aliloken
301 alimaniere
11 alinaciaj
79 alineo
46 alineoj
13 alineon
12 alinomado
65 alinomata
233 alinome
11 alinomi
71 alinomis
249 alinomita
12 alinomitaj
13 alinomo
51 alio
12 alioj
20 alion
106 aliras
497 alirebla
224 alireblaj
18 alireblajn
14 alireblan
62 alireblas
16 alireblo
11 alireblon
69 alirejo
38 alirejoj
14 alirejojn
23 alirejon
256 aliri
123 aliris
581 aliro
62 aliroj
31 alirojn
594 aliron
40 alispeca
73 alispecaj
22 alispecajn
11 aliteracio
61 aliulo
168 aliuloj
27 aliulojn
18 aliulon
17 alivestita
161 alivorte
13 aliĝanta
17 aliĝante
11 aliĝantoj
292 aliĝas
383 aliĝi
78 aliĝinta
79 aliĝintaj
17 aliĝintajn
12 aliĝinto
86 aliĝintoj
11 aliĝintojn
3768 aliĝis
349 aliĝo
29 aliĝoj
139 aliĝon
26 aliĝos
37 aliĝu
44 aljuĝas
22 aljuĝata
15 aljuĝataj
13 aljuĝi
116 aljuĝis
125 aljuĝita
22 aljuĝitaj
23 aljuĝo
29 alkalkulas
13 alklaki
16 alklaku
37 alko
74 alkohola
20 alkoholaj
15 alkoholan
61 alkoholismo
332 alkoholo
76 alkoholoj
47 alkoholon
21 alkoj
34 alkondukas
22 alkonduki
64 alkondukis
30 alkondukita
26 alkonduko
21 alkroĉi
38 alkroĉita
17 alkroĉitaj
11 alkroĉitan
17 alkroĉiĝas
17 alkuras
30 alkuris
27 alkutimiĝi
14 alkutimiĝinta
18 alkutimiĝintaj
77 alkutimiĝis
15 alkutimiĝo
22 allasante
119 allasas
11 allasata
69 allasi
81 allasis
31 allasita
18 allasitaj
12 alligas
16 alligi
67 alligis
134 alligita
34 alligitaj
50 alligo
246 alloga
13 allogado
99 allogaj
22 allogajn
49 allogan
27 allogante
415 allogas
22 allogata
36 allogataj
18 alloge
267 allogi
290 allogis
45 allogita
55 allogitaj
102 allogo
13 allogoj
36 allogon
66 almanako
11 almanakoj
22 almanakon
15 almanĝaĵo
3720 almenaŭ
22 almetas
19 almeti
32 almetis
22 almetita
12 almeto
21 almigrado
49 almigrintoj
26 almigris
19 almigro
16 almonte
26 almozantaj
12 almozo
17 almozoj
32 almozulo
15 almozuloj
60 alno
49 alnoj
17 alnomata
33 alnomis
28 alnomita
36 alnomo
16 alnomon
335 alo
179 aloj
39 alojn
65 alon
38 alparolas
15 alparolata
18 alparolato
39 alparoli
47 alparolis
42 alparolo
22 alpaŝas
14 alpaŝi
56 alpaŝis
14 alpaŝo
11 alportadis
20 alportado
17 alportanta
69 alportante
480 alportas
27 alportata
26 alportataj
232 alporti
1113 alportis
144 alportita
164 alportitaj
12 alportitajn
40 alporto
42 alportos
40 alportu
22 alportus
23 alprenante
144 alprenas
97 alpreni
452 alprenis
47 alprenita
20 alprenitaj
89 alpreno
28 alproksimigas
20 alproksimigebla
39 alproksimigi
21 alproksimigis
15 alproksimigo
18 alproksimigon
24 alproksimiĝanta
11 alproksimiĝantaj
23 alproksimiĝante
293 alproksimiĝas
145 alproksimiĝi
238 alproksimiĝis
208 alproksimiĝo
35 alproksimiĝoj
61 alproksimiĝon
15 alproksimiĝu
17 alproprigas
27 alproprigi
71 alproprigis
26 alproprigo
12 alskribas
11113 alta
3502 altaj
789 altajn
1904 altan
15 altante
76 altara
15 altaraj
726 altaro
291 altaroj
43 altarojn
131 altaron
791 altas
13 altaĵa
24 altaĵaj
333 altaĵo
270 altaĵoj
41 altaĵojn
20 altaĵon
1527 alte
23 altebenaĵa
14 altebenaĵaj
965 altebenaĵo
517 altebenaĵoj
16 altebenaĵojn
39 altebenaĵon
11 alteca
6607 alteco
441 altecon
63 altega
37 altegaj
15 altegajn
13 altegan
15 altege
135 alten
13 alteriĝa
11 alteriĝaj
13 alteriĝas
48 alteriĝi
97 alteriĝis
70 alteriĝo
17 alteriĝon
192 alterna
84 alternado
120 alternaj
18 alternajn
37 alternan
27 alternantaj
30 alternante
144 alternas
454 alternativa
190 alternativaj
50 alternativajn
127 alternativan
172 alternative
249 alternativo
67 alternativoj
28 alternativojn
66 alternativon
428 alterne
14 alterneca
14 alterni
28 alternigis
96 alternis
32 alterno
12 altforna
26 altforno
32 altfornoj
14 altfornon
60 altgermana
22 altgermane
15 altgrada
31 altgrade
16 alti
30 altigante
68 altigas
134 altigi
113 altigis
175 altigita
15 altigitaj
68 altigo
23 altigon
36 altira
15 altiraj
28 altirante
227 altiras
19 altirata
150 altiri
394 altiris
48 altirita
28 altiritaj
65 altiro
11 altiroj
16 altiron
64 altis
17 altituda
18 altitudaj
41 altitude
1231 altitudo
458 altitudoj
22 altitudojn
50 altitudon
49 altiĝanta
20 altiĝantaj
417 altiĝas
36 altiĝi
178 altiĝis
71 altiĝo
30 altiĝon
12 altklasa
13 altkreska
94 altkvalita
103 altkvalitaj
44 altkvalitajn
30 altkvalitan
149 altlerneja
24 altlernejaj
16 altlernejan
1194 altlernejo
313 altlernejoj
42 altlernejojn
224 altlernejon
120 altnivela
77 altnivelaj
42 altnivelajn
41 altnivelan
17 altnivele
1155 alto
129 altoj
23 altojn
310 alton
210 altranga
159 altrangaj
29 altrangajn
29 altrangan
28 altrangulo
96 altranguloj
14 altrangulojn
34 altrudas
49 altrudi
75 altrudis
60 altrudita
26 altruditaj
30 altrudo
16 altruistoj
112 altvalora
133 altvaloraj
44 altvalorajn
34 altvaloran
18 aluda
30 aludanta
11 aludantaj
112 aludante
1611 aludas
44 aludata
13 aludate
196 alude
352 aludi
185 aludis
108 aludita
27 aluditaj
241 aludo
169 aludoj
60 aludojn
31 aludon
14 alumeto
28 alumetoj
113 aluminia
36 aluminiaj
14 aluminian
231 aluminio
35 aluminion
26 aluno
18 alvale
54 alvenanta
50 alvenantaj
14 alvenantajn
11 alvenantan
46 alvenante
739 alvenas
261 alveni
172 alveninta
207 alvenintaj
14 alvenintajn
11 alvenintan
22 alveninte
28 alvenintoj
11 alvenintojn
4265 alvenis
1385 alveno
20 alvenoj
222 alvenon
64 alvenos
19 alvenu
17 alvenus
75 alveturis
29 alveturo
18 alvokado
34 alvokante
211 alvokas
42 alvokata
16 alvokataj
98 alvoki
380 alvokis
89 alvokita
36 alvokitaj
872 alvoko
342 alvokoj
143 alvokojn
307 alvokon
31 alĝustigi
26 alĝustigita
44 alĝustigo
12 alĝustiĝas
13 alĥemiisto
17 alĥemio
24 alŝuti
11 alŝutis
91 ama
41 amaj
23 amajn
25 aman
29 amanta
12 amante
230 amanto
106 amantoj
25 amantojn
31 amanton
166 amara
49 amaraj
15 amarajn
45 amaran
24 amare
15 amareco
320 amas
530 amasa
192 amasaj
51 amasajn
125 amasan
25 amasbuĉado
356 amase
25 amaseto
24 amasigas
27 amasigi
52 amasigis
14 amasigita
22 amasigitaj
16 amasigo
51 amasiĝas
58 amasiĝis
46 amasiĝo
11 amasiĝoj
489 amaso
186 amasoj
53 amasojn
192 amason
249 amata
36 amataj
27 amatan
195 amatino
17 amatinoj
40 amatinon
71 amato
20 amaton
54 amazona
29 amazonoj
45 ambasadorejo
16 ambasadorejoj
20 ambasadorino
630 ambasadoro
78 ambasadoroj
18 ambasadorojn
32 ambasadoron
8644 ambaŭ
39 ambaŭflanka
26 ambaŭflankaj
507 ambaŭflanke
28 ambaŭfoje
22 ambaŭseksaj
107 ambicia
37 ambiciaj
11 ambiciajn
37 ambician
12 ambicias
26 ambiciis
61 ambicio
65 ambicioj
30 ambiciojn
29 ambicion
75 ambigua
13 ambiguan
13 ambigue
34 ambrozia
31 ambulanco
11 ambulancon
37 ame
13 amegis
100 amelo
27 amelon
22 amema
12 amen
11 amendita
45 amendo
22 amendoj
11 amendon
58 amerikanoj
13 ametisto
27 amfibia
11 amfibiaj
21 amfibio
234 amfibioj
80 amfibiojn
104 amfiteatro
14 amfiteatroj
18 amfiteatron
11 amforo
18 amforoj
21 amhistorio
138 ami
153 amika
91 amikaj
106 amikajn
42 amikan
64 amike
29 amikeca
14 amikecaj
14 amikecan
15 amikece
457 amikeco
167 amikecon
22 amikema
13 amikemaj
301 amikino
45 amikinoj
42 amikinon
21 amikis
57 amikiĝas
22 amikiĝi
14 amikiĝinta
424 amikiĝis
2141 amiko
1328 amikoj
205 amikojn
202 amikon
30 aminda
29 amindumas
22 amindumi
33 amindumis
262 amis
13 amita
13 amnestiis
18 amnestiita
104 amnestio
123 amnestion
15 amnezio
1705 amo
39 amoj
437 amon
19 amoniaka
172 amoniako
22 amoniakon
115 amora
20 amorado
21 amoraj
11 amoras
21 amore
32 amorfa
11 amorfaj
29 amori
30 amoris
78 amoro
11 amoron
12 amos
11 ampera
24 ampero
1593 ampleksa
416 ampleksaj
196 ampleksajn
779 ampleksan
54 ampleksanta
14 ampleksantaj
29 ampleksante
1341 ampleksas
623 amplekse
37 ampleksi
309 ampleksis
633 amplekso
42 ampleksoj
161 amplekson
13 ampleksu
15 amplifa
14 amplifado
16 amplifi
76 amplifilo
45 amplifiloj
11 amplifita
83 amplifo
11 amplifon
31 amplituda
106 amplitudo
23 amplitudoj
18 amplitudon
32 ampolo
18 ampoloj
15 ampolon
14 amputado
14 amputi
12 amputis
17 amputita
25 amputo
50 amu
28 amuleto
32 amuletoj
15 amuleton
105 amuza
24 amuzado
67 amuzaj
30 amuzajn
27 amuzan
16 amuzaĵo
24 amuzaĵoj
22 amuze
34 amuzi
22 amuzis
17 amuzisto
16 amuziĝas
23 amuziĝi
16 amuziĝis
33 amuziĝo
96 amuzo
22 amuzon
15 ana
32 anagramo
19 analfabeta
17 analfabetaj
1917 analfabetoj
73 analitika
25 analitikaj
13 analitikan
216 analitiko
17 analitikon
117 analiza
100 analizado
12 analizadon
36 analizaj
16 analizan
24 analizante
11 analizanto
191 analizas
15 analizataj
11 analize
16 analizebla
218 analizi
201 analizis
25 analizisto
29 analizistoj
44 analizita
35 analizitaj
944 analizo
341 analizoj
55 analizojn
177 analizon
192 analoga
98 analogaj
19 analogajn
42 analogan
130 analoge
27 analogia
30 analogie
102 analogio
27 analogion
61 analogo
26 analogoj
42 ananaso
18 anarkia
100 anarkiisma
51 anarkiismaj
11 anarkiismajn
26 anarkiisman
282 anarkiismo
23 anarkiismon
113 anarkiista
81 anarkiistaj
12 anarkiistajn
20 anarkiistan
131 anarkiisto
296 anarkiistoj
25 anarkiistojn
49 anarkio
15 anarkion
82 anaro
17 anaron
36 anas
23 anasa
820 anaso
482 anasoj
49 anasojn
20 anason
102 anatomia
59 anatomiaj
22 anatomiajn
20 anatomian
22 anatomie
44 anatomiisto
280 anatomio
38 anatomion
53 anatomo
382 andaluza
21 andaluzaj
27 andante
47 anekdoto
88 anekdotoj
24 anekdotojn
11 anekdoton
97 aneksado
21 aneksadon
12 aneksata
18 aneksaĵo
32 aneksi
181 aneksis
200 aneksita
60 aneksitaj
132 anekso
15 anekson
34 anemio
17 anemion
15 angilo
28 angiloj
11 angilojn
12 angino
8118 angla
683 anglaj
129 anglajn
674 anglalingva
221 anglalingvaj
24 anglalingvajn
61 anglalingvan
45 anglalingvanoj
308 anglalingve
1019 anglan
7235 angle
12 angleca
30 angligita
198 anglikana
35 anglikanaj
15 anglikanan
31 anglikanismo
27 anglikanoj
33 anglino
134 anglo
454 angloj
50 anglojn
363 anglosaksa
51 anglosaksaj
27 anglosaksan
64 anglosaksoj
12 anglosaksojn
14 angora
76 angoro
16 angoron
249 angula
78 angulaj
15 angulajn
58 angulan
23 angule
11 anguleto
1226 angulo
518 anguloj
85 angulojn
158 angulon
14 ani
17 anigis
21 anilino
78 anima
161 animacia
59 animaciaj
11 animaciajn
13 animacian
67 animacio
19 animacioj
11 animacion
26 animaj
16 animan
18 animas
13 animata
32 anime
23 animis
16 animismaj
21 animismo
13 animistoj
28 animita
976 animo
241 animoj
90 animojn
216 animon
20 animstato
15 animstaton
281 anino
62 anis
20 anizo
27 aniĝas
50 aniĝi
405 aniĝis
25 aniĝo
11 aniĝon
97437 ankaŭ
12827 ankoraŭ
14 ankris
28 ankrita
14 ankritaj
42 ankro
15 ankroj
3920 ano
1980 anoj
329 anojn
48 anomalio
31 anomalioj
14 anomaliojn
11 anomalion
60 anon
17 anoncanta
38 anoncante
233 anoncas
19 anoncata
120 anonci
1468 anoncis
19 anoncisto
326 anoncita
45 anoncitaj
25 anoncite
252 anonco
80 anoncoj
40 anoncojn
63 anoncon
184 anonima
52 anonimaj
12 anonimajn
27 anoniman
94 anonime
15 anonimeco
13 anonimecon
14 anos
483 ansero
373 anseroj
45 anserojn
21 anseron
19 anso
16 ansoj
2971 anstataŭ
59 anstataŭa
42 anstataŭado
12 anstataŭaj
22 anstataŭan
48 anstataŭanta
13 anstataŭantaj
129 anstataŭante
212 anstataŭanto
100 anstataŭantoj
19 anstataŭanton
351 anstataŭas
266 anstataŭata
84 anstataŭataj
748 anstataŭe
330 anstataŭi
57 anstataŭigante
100 anstataŭigas
28 anstataŭigata
30 anstataŭigataj
321 anstataŭigi
434 anstataŭigis
447 anstataŭigita
129 anstataŭigitaj
124 anstataŭigo
23 anstataŭigon
12 anstataŭigos
11 anstataŭigus
1019 anstataŭis
425 anstataŭita
75 anstataŭitaj
104 anstataŭo
20 anstataŭon
28 anstataŭos
16 anstataŭu
19995 antaŭ
3105 antaŭa
1698 antaŭaj
230 antaŭajn
570 antaŭan
23 antaŭanta
22 antaŭantaj
80 antaŭanto
28 antaŭantoj
251 antaŭas
35 antaŭata
104 antaŭaĵo
46 antaŭaĵoj
14 antaŭaĵon
15 antaŭbrako
27 antaŭdestinismo
11 antaŭdestinita
29 antaŭdestino
38 antaŭdiras
56 antaŭdiri
69 antaŭdiris
19 antaŭdirita
16 antaŭdiritaj
34 antaŭdiro
23 antaŭdiroj
17 antaŭdirojn
6173 antaŭe
26 antaŭeco
491 antaŭen
12 antaŭenigado
11 antaŭenigante
57 antaŭenigas
147 antaŭenigi
149 antaŭenigis
31 antaŭenigita
84 antaŭenigo
11 antaŭenigon
47 antaŭeniras
43 antaŭeniri
75 antaŭeniris
67 antaŭeniro
18 antaŭeniroj
39 antaŭeniron
12 antaŭeniĝi
19 antaŭeniĝis
13 antaŭeniĝo
14 antaŭhaveno
17 antaŭhistoria
36 antaŭhistoriaj
21 antaŭhistorio
16 antaŭiranto
19 antaŭiras
30 antaŭiris
167 antaŭis
27 antaŭita
38 antaŭjuĝo
95 antaŭjuĝoj
36 antaŭjuĝojn
14 antaŭkongreso
123 antaŭlasta
13 antaŭlastan
14 antaŭmetas
18 antaŭmetis
26 antaŭmetita
504 antaŭnomo
102 antaŭnomoj
20 antaŭnomojn
342 antaŭnomon
65 antaŭo
158 antaŭparolo
